{
  "hidden_layers": [
    {
      "activation": "relu",
      "biases": [
        [
          0.00012495820874402697,
          0.0001836860059294164,
          -0.0001375863550301691,
          -0.0002114255015864844,
          0.0002721577511984108,
          -3.0486353916007624e-05,
          0.00010397024622583078,
          -5.6048902679469424e-05,
          8.69872456794786e-05,
          6.748421542555564e-05,
          4.6010217591140155e-05,
          -0.00010278176249261263,
          2.8932119364724427e-05,
          6.083007915269911e-05,
          7.057786791032403e-05,
          9.277933660821418e-05,
          -0.0002276780165528235,
          9.216726857444486e-05,
          9.694696932898972e-05,
          0.00016293923685120897,
          7.267806453550266e-06,
          3.850479924525838e-05,
          9.475438190580962e-05,
          -0.00016921554671165128,
          2.2271361879968944e-05,
          0.0001880231899777213,
          -4.185258597612951e-05,
          2.7546050338075834e-05,
          4.621048436452921e-05,
          -6.14812033171383e-05,
          6.115769567248568e-05,
          -5.239758872036452e-06,
          0.0001663980642212121,
          -0.0001517497287928401,
          7.442247524936249e-05,
          -0.00013504785556775318,
          1.612068167719345e-05,
          -0.00013711214249264455,
          -0.0003682585509998702,
          4.403194183280425e-05,
          -5.853925176836037e-06,
          -4.065770069236225e-05,
          8.357119584085294e-05,
          9.996107750280227e-05,
          6.623087069220582e-05,
          -2.3413554592585398e-05,
          0.00019370590015068342,
          -7.772692562122102e-06,
          9.88969311077812e-06,
          -0.00014661796094306263,
          -2.5937384779380273e-05,
          0.00013574036693332023,
          -0.00012677348174377,
          -7.831641965576007e-05,
          7.303523117707505e-05,
          -0.00016689245732628562,
          -6.6964387248756e-05,
          -3.7026427014711935e-05,
          -2.512967447735045e-05,
          0.0002375126202612751,
          -7.811048459255838e-05,
          3.601656979934497e-05,
          0.0001308629681230772,
          -2.7475847191511016e-05,
          4.948885624400006e-05,
          -5.2424086688798966e-05,
          0.00013958109084296957,
          9.126106537423598e-05,
          0.00014982829569963485,
          -0.0001775365617335528,
          9.635669760264246e-06,
          2.6775839970084458e-05,
          -0.00015337556722613444,
          0.00019979468423071797,
          -0.00012293836046884264,
          0.0001448257244834326,
          0.0001705454728868777,
          -5.313108480591764e-05,
          0.0001516630855591724,
          0.00014189698307250187,
          1.717738190841238e-05,
          -5.8782308101277124e-05,
          0.0001233839922336485,
          3.6642141360561846e-05,
          0.0002324278369278581,
          6.982544809619619e-05,
          -2.479585797703453e-06,
          -8.510970746447519e-05,
          5.990372401101904e-06,
          -6.945350635335047e-05,
          -2.504891462538761e-05,
          -0.0001617205516600277,
          0.00012200912104226444,
          2.705105356870186e-05,
          0.00016407466781544162,
          -8.210537954963467e-05,
          -0.00023119986956870135,
          -0.00017046227364904054,
          3.326794064583848e-05,
          2.7430230926035472e-05
        ]
      ],
      "weights": [
        [
          0.003818664045310081,
          -0.06466942114572397,
          -0.0009404773365694561,
          -0.04270955242098291,
          -0.2239564181469049,
          0.1075875140940636,
          -0.049434404428297704,
          -0.03045251702794351,
          0.08191023762894985,
          -0.03352156066892285,
          -0.004926682404948469,
          -0.07240496913041354,
          0.10992133604800984,
          -0.0817671358815913,
          -0.062251580076462004,
          0.0290403645872977,
          0.033018738898126135,
          0.11255466270444278,
          0.06265535039488697,
          -0.018309833082963904,
          -0.10541143645606531,
          -0.09886355119241569,
          -0.06955889759991951,
          0.14170165414135336,
          -0.06838515770117756,
          0.13200622780455323,
          0.007421781844599126,
          0.037449408665067574,
          -0.07650711996272233,
          -0.0024146523372542226,
          -0.048440113568435646,
          -0.1594256868078086,
          -0.03507627963774942,
          -0.01942386525096479,
          0.07886551992322356,
          -0.00503366889847788,
          0.026910768086182077,
          0.08820563542312297,
          0.06933340274999775,
          0.043416107599190616,
          -0.015331070389325055,
          -0.04019726480457006,
          0.07492719160126271,
          0.18500209969880246,
          0.027714707900159903,
          0.11173091532715777,
          0.07836558939523643,
          0.06358903645529848,
          0.1547358206131278,
          0.2977161929993138,
          0.0464426759444008,
          -0.17306784477712495,
          0.13562125627306704,
          0.09175744813173613,
          -0.03939596644573717,
          -0.07741786514163532,
          -0.18183890533168287,
          -0.1845263647007556,
          0.13592308146469106,
          0.047912462211856265,
          0.1026986403769878,
          0.16936950549761817,
          -0.14040259164950913,
          -0.0021070162473810577,
          0.010752827566782886,
          0.010855525057075885,
          -0.029078398929721555,
          -0.0008194776412166412,
          -0.05961698188100437,
          -0.08560571233879896,
          -0.2163814488568767,
          -0.12745539162563557,
          0.002241556828785475,
          -0.09192052151757406,
          0.021388284798939065,
          -0.03939741644946695,
          0.09082284239745068,
          0.10599620523951724,
          -0.061525042464619956,
          -0.14533709393412614,
          0.0849044122222796,
          0.32342020202618266,
          0.0773335935863307,
          0.04498635712051232,
          0.04892312484185454,
          -0.08486791484812599,
          0.051868181031258995,
          -0.012771697447041066,
          -0.05628356451871662,
          0.1655877508554726,
          0.18804630803076314,
          -0.05665574723621462,
          -0.022915733000927592,
          -0.04353121970366681,
          0.11080499059907088,
          0.007636060503865877,
          -0.039337975488368176,
          0.023536466106106057,
          -0.014565986035519986,
          -0.051135519365094945
        ],
        [
          0.038799656370112796,
          0.06890605769708953,
          0.10312389727762392,
          0.09732764363793081,
          0.047523115730040234,
          0.015653400097188404,
          0.026218261174148057,
          -0.06390903590938513,
          -0.05457884845788994,
          0.025507405405442305,
          -0.15069566413383748,
          0.01648537922746675,
          -0.031169262332323283,
          0.11308243576578295,
          -0.001355076506581019,
          0.061654284383334805,
          -0.30082490218380065,
          0.010234994001969831,
          0.014256365436037055,
          -0.0026147289383841254,
          0.007161970134922899,
          -0.08243284950867714,
          -0.06487405639951975,
          -0.04715811243471351,
          -0.05076422178636513,
          0.1066425923489269,
          -0.05467311007880042,
          0.04928199134915955,
          0.11720957158403958,
          -0.02340363174211882,
          0.10900654826930596,
          0.07774682815541858,
          0.13239441912489439,
          -0.11460407341483606,
          0.014409341911400123,
          0.10797294381021683,
          0.06760976885692471,
          0.0894421683017406,
          -0.04463305816081964,
          -0.09166219412893746,
          0.08206553987299957,
          -0.0772690786133497,
          0.10872600398043702,
          0.014285809711038336,
          -0.16074776853783612,
          0.10469997468016229,
          -0.030989574240550613,
          -0.1147946989565984,
          0.03933773569025848,
          0.04970250478693247,
          0.010080620831597107,
          -0.05315127243095218,
          0.03905231579492332,
          0.12540508303941914,
          0.039515996657712,
          -0.0295863192931722,
          -0.010502893450631738,
          0.045625258675171323,
          0.1456745217119462,
          -0.006067650062312875,
          0.25128360647631764,
          0.10704233412402034,
          0.04365736266895531,
          0.2247355613695741,
          0.10135629683874785,
          0.0016731552960219723,
          0.04844192803529297,
          -0.07952270937185521,
          -0.05020171166542196,
          -0.07218426641149092,
          0.0980982676750592,
          -0.26437720488063404,
          0.0846997897103254,
          0.0829509569710983,
          0.003248619435034944,
          -0.18868920239439826,
          0.002422986811166414,
          -0.15157276167880118,
          0.06819551030991816,
          0.039770354816319395,
          -0.12400075268873251,
          0.003481466323432756,
          0.05587108089870115,
          0.15553288171607646,
          -0.18638363055884838,
          0.24994355532304494,
          0.14202284891581615,
          -0.016362032775213493,
          0.014784229047138225,
          -0.027654070144469908,
          0.06839655301239399,
          -0.13614209427112026,
          -0.04994737100592216,
          0.019702675514553635,
          -0.08654496906777753,
          -0.026705201562061534,
          -0.1539440151139779,
          -0.019189463567820524,
          0.17232084682337373,
          0.09711991014159368
        ],
        [
          0.16284315521168768,
          0.09901825324693501,
          0.11648653208223678,
          -0.08715829319088012,
          0.1004494526448784,
          0.10082216827113728,
          -0.08017196042493463,
          0.21679302847818524,
          -0.15717922308594262,
          -0.12367880977996958,
          -0.15815581994089425,
          -0.05887376700281323,
          -0.07989577422200032,
          -0.03839516967208642,
          0.023592501883109532,
          0.03563447424948815,
          0.08084851044310286,
          -0.10285718421565052,
          -0.07633698985393242,
          0.05494898487404647,
          -0.015209608820367026,
          -0.09646576982915714,
          0.011365237661045722,
          -0.019406277423174283,
          0.20652683100252892,
          0.061585684291401134,
          -0.07052475128365067,
          -0.029988450014165172,
          0.08545897542840224,
          0.04679255975745756,
          0.2141424423740965,
          -0.09330950599084437,
          -0.08896197936919245,
          -0.12090491186252585,
          -0.033617298615276785,
          -0.09985289336457537,
          0.03552929387279263,
          -0.23095622727847592,
          -0.0811973332535542,
          0.09926019045358635,
          -0.05073724293470959,
          0.047734493766698506,
          0.08109617465330693,
          0.021178542230691263,
          0.01499955765458748,
          0.06497814520610694,
          -0.0354375476254163,
          -0.044277254526477,
          0.037574075046334,
          0.0661496305107152,
          0.1024709857820465,
          0.010922880712903317,
          -0.09665025794254575,
          0.1529809701663731,
          -0.11563659910317084,
          0.057498074256272305,
          0.05804097189572824,
          -0.19284874102517666,
          0.12590461971646094,
          -0.008825017195060932,
          0.005227609473369304,
          0.005313349583848841,
          0.06343579872905351,
          -0.23989745797691883,
          0.09548412658690342,
          0.020368022973807264,
          0.0218716853352205,
          0.08294775533254059,
          -0.05416480549367848,
          0.02505669008275801,
          -0.11289780550946343,
          -0.03957764619123558,
          0.014719239346901909,
          0.06480807428187851,
          -0.015496644536804627,
          -0.20842120986528945,
          0.0908090755485292,
          0.17622286879734253,
          0.10493452202886722,
          -0.12611990938647605,
          -0.0229656012137596,
          -0.03888847068776026,
          0.030825513002140825,
          0.05508302252672056,
          -0.03794121174197732,
          -0.049703507743222214,
          0.09664514327842327,
          0.0590686922616697,
          0.0885973553449989,
          0.09887712704233695,
          -0.24823367969722746,
          -0.062359251274154336,
          0.06530108555636657,
          0.022600411811556326,
          0.04323164622807535,
          0.08290248815517424,
          0.041888767683764844,
          -0.06631520700887546,
          0.18746026467383775,
          -0.10234968109085628
        ],
        [
          -0.10232970194252099,
          0.029327540162201068,
          0.0013433550576492476,
          0.12387152881278035,
          0.032603715800344095,
          -0.17962574469316592,
          0.09871090581215125,
          0.01531927323956304,
          -0.11608248810670561,
          -0.053773583400852434,
          -0.014227919361901209,
          -0.03755479262966222,
          -0.029701060098422563,
          -0.06061761943919002,
          0.0023921865150588538,
          0.13940835082896252,
          -0.053088461662749074,
          -0.13591003369046445,
          0.2283327523160921,
          -0.1204137219259844,
          0.049892382777876075,
          -0.15244090103945676,
          0.20041810406587207,
          -0.2093377207235083,
          0.045044615696458415,
          -0.1379068592047855,
          0.027030434086132052,
          -0.06635005692339878,
          -0.1356818346283507,
          0.01868692660091573,
          -0.03916368591279503,
          0.14584269221864557,
          0.17721642752575925,
          0.04993774259903737,
          -0.08435992475318062,
          0.020584433141275598,
          -0.0864235311040942,
          -0.05873726415900557,
          0.08678188953122773,
          -0.05019100381351966,
          -0.10148521244426169,
          -0.026481689293167132,
          0.18691751723473055,
          -0.04287411734206481,
          -0.017759271444141588,
          0.050337179209647934,
          -0.023620868857997628,
          -0.11626024853080912,
          -0.10646562580635717,
          0.06878360857627773,
          0.1083100269803121,
          -0.13176767381289795,
          0.06019715538117668,
          -0.017879839485001846,
          -0.06717806352136663,
          0.151792577414092,
          0.012372073461918851,
          -0.056435959600662236,
          0.13438208593888631,
          -0.12736195926937904,
          0.005352232612162251,
          0.07137103068226706,
          -0.005221391987334434,
          0.12342432812663857,
          -0.1484919497983982,
          0.027921095803909012,
          -0.0020037133130980443,
          -0.00012865461380504313,
          -0.08522371522450133,
          -0.177912387346718,
          -0.17265376777889535,
          0.11885391972741201,
          0.08014955694214287,
          0.012564710094345807,
          -0.14145501740161,
          -0.004301290925237638,
          0.004568415081141118,
          -0.03125527701584384,
          0.0030740105073402482,
          -0.11709134103734788,
          -0.04559167972850259,
          0.19164232565490785,
          -0.04786228454359458,
          0.02788486141452332,
          -0.022331937265882635,
          0.16643939417314363,
          0.009228031195517121,
          -0.15845560441387518,
          0.09174400059780612,
          0.11466986674637347,
          0.13090481219836586,
          -0.07658818002932401,
          -0.021543751732253064,
          0.031112548069261975,
          0.22383040135128163,
          0.0711900845105541,
          0.07511528875159136,
          0.017413586147105472,
          0.0762918452585623,
          0.012624675314021332
        ],
        [
          -0.1764569698881376,
          -0.006491153301212523,
          0.010901678872136118,
          0.12856766212464188,
          -0.04791860302603681,
          -0.0724484283011472,
          0.011460670586184133,
          -0.03852846292018148,
          -0.043168199558364415,
          -0.03952590717920908,
          -0.13486966373175785,
          -0.13332172843686357,
          0.1594783617675921,
          0.004843601012929932,
          0.016192427545791806,
          0.06661284409266499,
          0.10829692554592484,
          -0.10464049680152386,
          -0.08917719891037461,
          -0.019371987386276594,
          0.04625848982852148,
          0.1456826402057449,
          -0.09277164424616369,
          0.02062425780555987,
          -0.1375100114744362,
          0.0180478384399188,
          -0.1778604706462739,
          -0.23763966019306995,
          0.01019686810605372,
          0.09620588280413868,
          -0.2081074606308916,
          0.028399442313711283,
          0.05282132279735398,
          0.01051948036952668,
          0.1256847670239219,
          0.0693798612856554,
          -0.006659573824754996,
          -0.017608538985748948,
          0.013711355367679888,
          0.20520120637849465,
          0.08383627485231844,
          -0.13078123965388924,
          -0.08638976234458026,
          0.032897432678924615,
          -0.02651371652695537,
          -0.18221401850978808,
          0.05259637710537205,
          0.1545150225007552,
          0.08020025821554494,
          -0.03414635537281476,
          0.15833647259332448,
          -0.19855734088736207,
          0.09800614503118782,
          -0.12529212643790505,
          0.06097905771795915,
          -0.009616855136065442,
          0.09977438431388255,
          -0.12714397265745087,
          -0.07673350863428584,
          -0.11069618846877134,
          0.04540419376036371,
          -0.01887122753926186,
          0.017045436855164308,
          0.11775222107509843,
          0.04048215931382665,
          0.029771307671826966,
          0.06479715369294364,
          0.013396476554064717,
          0.20282311930821398,
          0.06441683577689412,
          0.06436635981355733,
          0.027328069320150312,
          -0.12056413982309754,
          -0.14207602415642878,
          -0.11871496499807405,
          -0.03974251569235109,
          -0.022844412141187233,
          -0.03964118028734281,
          -0.22404065820974814,
          -0.10028806210316042,
          -0.05989926769612653,
          0.15351724035744058,
          -0.09595725081553973,
          -0.13315418427669454,
          -0.017433418403530253,
          0.06710810790782347,
          0.09357941504607326,
          -0.034478465958003995,
          0.049131285249744784,
          0.09673522504068002,
          -0.11277861881829276,
          -0.019347909580847707,
          -0.03588220921535268,
          0.021890334508967872,
          -0.019822602077704757,
          -0.09156376130464823,
          -0.10338104911013896,
          -0.11458891541176423,
          0.0022994668277442937,
          -0.2409194022639684
        ],
        [
          -0.010131355178979227,
          -0.061424315088551514,
          -0.08653054935626349,
          0.0787986566770254,
          0.06791177438857592,
          0.05861275463922684,
          0.052829097897517975,
          0.06082675923147661,
          -0.002805648876973963,
          -0.08239867755851221,
          0.12891113861843057,
          0.017576885005155196,
          -0.042489290068145016,
          -0.017106303138072276,
          0.10764940079125415,
          -0.026628695517381187,
          -0.15669415509058038,
          0.0049397752740097806,
          -0.13604179675873518,
          -0.02953962023854071,
          0.12868845562076606,
          -0.07026872724067064,
          0.15446635419890012,
          0.011859885344006501,
          0.09278470039083236,
          0.014870734233949311,
          -0.008542970336213162,
          0.1686124138101694,
          -0.021524813902850375,
          0.1472865239652327,
          0.08722318553382748,
          0.08679249062730708,
          0.048548383454969965,
          -0.17017497069809326,
          -0.14532125270346613,
          -0.10622212136119755,
          -0.043542757539117544,
          0.16601921896792018,
          -0.3074508508440114,
          -0.037375007396583684,
          -0.011899078532943341,
          -0.02899901997804202,
          0.03824196331415175,
          -0.16081069977938325,
          0.09020734725882809,
          0.016004876977658566,
          0.11122874392850604,
          -0.006264605835184148,
          0.005238523235430266,
          0.0038179555269809602,
          -0.07638043662069777,
          -0.14795673306316634,
          0.06728368360563947,
          0.029830484018843292,
          -0.09488920574304448,
          0.1709357216710603,
          0.027364733463159267,
          -0.13807130643539328,
          0.03390999066847994,
          -0.03462778812871082,
          0.08249697271886144,
          0.123026532222598,
          -0.1032641975745107,
          0.18180078125930998,
          0.03140940290359114,
          0.08332274562855083,
          -0.07614538782910193,
          -0.03754563623869506,
          0.025372646376872723,
          0.04303359654985242,
          0.13734270413065464,
          -0.022413757909141466,
          -0.008884882717052699,
          0.01968745645433398,
          0.20515862385367611,
          -0.03316672091841258,
          0.09784200650366373,
          -0.19666634817251247,
          0.10060203926966697,
          -0.08688427974973244,
          0.17714489401852992,
          0.0420403735528533,
          0.036881457910588264,
          -0.07061035729516077,
          0.07072858884745689,
          0.04139409236514574,
          -0.13292065825131574,
          0.04953213369528387,
          0.14821038261986494,
          -0.22131677965913277,
          0.0674411230755956,
          0.05126019516840479,
          0.09164911070765776,
          -0.1490326164984155,
          0.12371575799532498,
          0.21631799604858512,
          -0.07681469621758272,
          0.017959624350148192,
          0.13476118210177812,
          0.04832733520548684
        ],
        [
          -0.11017397936232477,
          -0.003860986770499111,
          -0.09335546692545069,
          -0.05186988726457206,
          -0.21608076623324818,
          -0.05128094070853809,
          -0.062489820678657486,
          0.008026164917110357,
          0.0554689067707344,
          -0.0331214110345377,
          0.035374860672522795,
          -0.07155311487972449,
          -0.012373469716247825,
          -0.13525772749196466,
          0.13063935957350448,
          0.011887556682151586,
          0.1552538665186284,
          -0.08376031950596564,
          -0.05260035130387229,
          0.032636783276519206,
          -0.04162108585561265,
          0.025114551976220957,
          0.08099525810352216,
          -0.08525524343206775,
          0.09244474221757645,
          0.19353383530556234,
          0.010143853688672998,
          0.08306537109457793,
          -0.1487826257088618,
          0.18604114482821243,
          0.18916780710305325,
          0.01359515645848225,
          0.041649737346441076,
          0.001994343676719433,
          0.10729195601819423,
          0.219239171107363,
          -0.07750057970471107,
          0.16754303226332587,
          -0.14753934090609547,
          0.05645778155237641,
          0.009053377541794715,
          0.07042472656604408,
          -0.04439096831539707,
          0.021722915525848353,
          -0.1752839733635323,
          0.015129469897273576,
          -0.10033489028974964,
          0.008981337147861701,
          0.05849247394060229,
          0.07061534321184701,
          0.0564408765336158,
          -0.03312476425412678,
          -0.1526585295794099,
          -0.1019542292404376,
          -0.038218667273467975,
          0.22458490005303464,
          0.11835900570661141,
          0.061245312862097084,
          0.055174626825921114,
          0.12850585912342996,
          0.031813821693738614,
          0.11360366011195251,
          -0.0485490132704063,
          -0.08602980692515566,
          0.10862506414190637,
          0.16844219110179934,
          0.06358688702157966,
          0.025538252001205634,
          0.016826412451752176,
          0.15595494540533342,
          0.1299087818471023,
          -0.157537820300506,
          0.021505980428877778,
          -0.04053449215195264,
          -0.017487275430445346,
          -0.0057210180738559305,
          0.029122977937301273,
          -0.07830478698029844,
          0.020867205052478605,
          0.020876265023471313,
          0.08628042576843427,
          0.17511495231917673,
          0.09537795062787997,
          0.08326899937574504,
          -0.23360331171770818,
          -0.03643750720158745,
          0.0745835671605621,
          0.14024369320805385,
          0.034862718470725265,
          -0.0132832329918332,
          0.052214483687646744,
          0.1329007139643576,
          -0.08313833124213249,
          0.023838943519684536,
          0.09702012527776857,
          -0.008577720801965652,
          -0.05858715509569535,
          -0.01470367485417202,
          0.04519768302176514,
          -0.09363261917550855
        ],
        [
          -0.01449947533893053,
          0.06991513008506763,
          -0.24202537930958667,
          -0.07993352584021934,
          -0.09906743994667448,
          -0.17907448786797792,
          -0.0865048193417238,
          -0.005915909498096813,
          -0.0715998276730592,
          -0.05270415487762516,
          0.23668904240679395,
          0.0878649193391696,
          -0.010665339928971661,
          0.09032442820459569,
          0.003112584736199655,
          0.16281757348908815,
          0.14977330728440474,
          -0.04341776519388718,
          0.0031431042787215435,
          -0.04190015275385608,
          -0.008763569371243375,
          0.06888216773733431,
          0.007283252825896774,
          -0.03218411725841629,
          -0.1126211175891155,
          0.25860143567529964,
          0.0005916474905350883,
          -0.23366790767856416,
          0.11403924729359564,
          -0.11441620069669878,
          0.0023302395287809305,
          -0.06417613464557688,
          -0.0222658426938117,
          0.05348200079302324,
          0.1634158826654891,
          0.058252209079165645,
          0.15009089645913248,
          0.03612204490467031,
          0.2432807829900459,
          -0.043222900840911044,
          -0.0627441386881776,
          0.014015028099626126,
          0.07898260908069049,
          -0.012449504495414264,
          0.043575712031442414,
          -0.12636033849219327,
          -0.10420574328320198,
          -0.06530790624595736,
          -0.006519410209421029,
          0.1057579735255943,
          0.023251706921149876,
          -0.05263726279412329,
          0.006077417057198499,
          -0.12305369421527157,
          0.052502647835348824,
          0.07305743416508106,
          0.0025182906898391258,
          0.0461403518002068,
          -0.011983254693515829,
          -0.1108396827955124,
          -0.1292783082282573,
          0.12410574645017819,
          0.09230922184829608,
          0.15455849913811462,
          0.10164360908534575,
          -0.07362695767056865,
          0.07299110634148435,
          0.02060046999854621,
          0.06131142581325768,
          -0.07007640592154073,
          0.0606835604457033,
          -0.16883030822026884,
          0.04605174197053947,
          -0.12131949197385017,
          -0.03644030908445223,
          0.02251227730400398,
          0.10158524419674134,
          -0.05016211913046662,
          0.1487965224645124,
          -0.061330332945297814,
          -0.04006473888238836,
          -0.1421718667002132,
          -0.2025948409924348,
          0.02498780422508466,
          0.1283250828171019,
          0.008399898247409223,
          -0.19983180491965694,
          -0.09903710998788767,
          -0.06904339750390406,
          -0.05502265397654849,
          -0.10630705342183394,
          0.07515717374144656,
          -0.10607344459389097,
          -0.14173340288489936,
          0.0012430479057221992,
          0.07448358404190385,
          0.15378255354018217,
          0.10903642784988127,
          -0.07578688040201126,
          0.03982548241764143
        ],
        [
          -0.026364120715967814,
          0.09541933430289547,
          0.0975665952483565,
          -0.08738198356879512,
          0.11221233790424745,
          -0.028679103408254625,
          0.031244633753319123,
          0.057596093025164594,
          0.19583770371064235,
          0.12422935641800184,
          -0.07840951592153672,
          -0.001092324290341303,
          0.21500728480130604,
          0.059282356547846346,
          -0.020019974399282426,
          0.1137900851774903,
          0.038814844894509856,
          -0.00783582912830145,
          0.06524952828327246,
          -0.08127730048759282,
          0.12935798163607676,
          -0.11723294434066761,
          -0.05207783768737411,
          0.043353156900889894,
          0.09662899676995187,
          -0.02101747781510581,
          0.2758436486762612,
          0.022791318079934685,
          -0.0747768745170694,
          0.11895117334487386,
          0.01702324014727225,
          0.030340265959856057,
          0.05194593341617,
          -0.16196236782439444,
          0.04120351736278213,
          0.07888476661787211,
          0.02091809894329804,
          0.17865292636645042,
          -0.08518840584790258,
          -0.057226156886199496,
          -0.039314695116677956,
          0.037362078688429785,
          0.1281199861496798,
          0.11645973333104608,
          0.019962023698838555,
          -0.07152882608907934,
          -0.025996181910218453,
          0.08874660584353004,
          -0.18045134932846724,
          -0.04694115332063906,
          0.1305387831891385,
          -0.20910514030161859,
          0.03441717013841172,
          -0.040641805022725165,
          0.11116229357838539,
          -0.13115719614355337,
          -0.040840448287056644,
          -0.03244214983680174,
          0.022967218773375854,
          -0.0643815525909724,
          0.09215573307025682,
          0.04329120636369344,
          0.09538868162324199,
          0.3305343861057445,
          -0.06444677343187347,
          -0.04228381642766304,
          -0.06900009341498152,
          0.09755621199975795,
          -0.07485435279716651,
          0.09076535042096581,
          0.034278636529382255,
          -0.022896189066976543,
          -0.05963065689423248,
          0.14368200022037855,
          -0.100837740795044,
          0.03965786806425297,
          0.0350748470134721,
          -0.0814253252790192,
          0.1358042359275955,
          -0.13182680416968015,
          -3.343345979831322e-05,
          -0.08279824448153206,
          0.056913397377264335,
          0.13683154525984684,
          -0.091758879331758,
          -0.014462085479241646,
          0.04999389479351563,
          -0.004136958557983096,
          0.006676627350530865,
          0.13133424878951286,
          0.07164088858006168,
          0.08850613646097423,
          -0.19702186720237236,
          0.006656330262708316,
          -0.09138784387979632,
          0.07383927393863829,
          -0.08409609525131514,
          0.016249073279989073,
          0.0630085912814312,
          -0.07347067228804062
        ],
        [
          0.07093863631256773,
          -0.01571109227747632,
          0.047297293964254354,
          0.06761681668988996,
          0.015379472993013493,
          0.0968028054939038,
          -0.039648483162873914,
          -0.10931779415032504,
          -0.019464838184352858,
          0.038397561289022865,
          -0.004287111628382131,
          0.08580829740125537,
          0.01554080798595596,
          -0.06422522587936413,
          0.1582492971491405,
          0.0031330332941808692,
          0.09461715879030676,
          -0.0504997359093819,
          -0.04584972878400331,
          0.019350417514004778,
          -0.08575014019428186,
          -0.08628453976217568,
          -0.042859319360617265,
          -0.05478518452230285,
          -0.032451673475377245,
          0.240130486173152,
          0.10648796664130421,
          0.08749947888411998,
          0.04685668558636489,
          0.06300685959707245,
          0.030144815179754023,
          -0.04759698552956047,
          -0.07225131068122387,
          0.14765027572100844,
          -0.03125403899836499,
          -0.021472908117354667,
          0.025065894523540067,
          0.03161844286620191,
          -0.02389729018545352,
          0.11253920583351718,
          0.13116764410806378,
          -0.024442102922596264,
          0.10893303826075192,
          0.05934850147996193,
          -0.20000202537245979,
          -0.16631075473475013,
          0.017071362425960208,
          0.14759174693264257,
          0.14993563741506713,
          -0.002821202356036219,
          0.12520001976666945,
          0.03889507302951302,
          0.05384824029960065,
          -0.018712821170908993,
          0.05022989173684986,
          0.0662564668059649,
          -0.07392137967525017,
          -0.0942634296958561,
          -0.13863927956349342,
          -0.008519288280503917,
          0.05958688176562198,
          -0.016053528536444005,
          -0.0538953020341262,
          0.1029137668386791,
          0.1502198627946481,
          0.1502172864394533,
          0.21901358189356876,
          0.08913575572106856,
          -0.0716617848362136,
          -0.07353283189870137,
          -0.026364314906820112,
          0.04406397224053528,
          0.023392862015230553,
          -0.10013791532488915,
          -0.28833949825982563,
          -0.1287139958068718,
          0.0361890650445632,
          0.021949690369286567,
          -0.15712689577815522,
          0.08556672430364562,
          -0.052055250403235706,
          -0.09678033190836959,
          0.168642468880535,
          -0.09104632102389815,
          -0.09191511665402761,
          -0.0805712522398398,
          0.07143417146373925,
          0.1595132356938084,
          -0.04931290215558855,
          -0.07417270051338191,
          0.03233604680441222,
          0.16933239314790793,
          -0.047324936344804835,
          -0.19764563766570714,
          0.050834794123637714,
          0.024000407153655545,
          0.14239369105151617,
          0.021620855773483456,
          0.03562315483099029,
          -0.09839667925973118
        ],
        [
          -0.13685890152017122,
          -0.00809800370013807,
          -0.004818137222586907,
          0.05575269033778233,
          0.13528393781745685,
          -0.025338156217341694,
          -0.16672110013592467,
          0.018188762054763007,
          0.07782115050829863,
          0.1372417223531517,
          -0.013649637963513763,
          -0.09811067439373476,
          0.07804071683657839,
          -0.04821666542148475,
          -0.05706558382130486,
          -0.05157545741660388,
          -0.1331060179709046,
          -0.06691165277255488,
          -0.03263488797165014,
          0.03833318898817682,
          0.05969267340323097,
          -0.12623639783103666,
          -0.0373662514111945,
          0.014546271983405835,
          0.2704847676877392,
          -0.044568597229914984,
          -0.14390184063414363,
          0.046377299908923676,
          -0.1694179831325038,
          0.2535153075253132,
          -0.009808922465264096,
          -0.0911529646843093,
          -0.09578998250166998,
          -0.031961631374688576,
          -0.08926073925621604,
          -0.07128329408596713,
          -0.05749870364497171,
          -0.10560500089810262,
          -0.046854135212616776,
          -0.07947442837271175,
          -0.07235852340127967,
          0.02896140270260035,
          -0.08620356451300552,
          -0.10413603536780529,
          -0.04110332135507284,
          -0.02861486377724297,
          0.27847999372730087,
          0.031586974508762466,
          -0.004035916174490086,
          0.1349707188316214,
          0.1514081623609466,
          0.019589368221827778,
          0.04521505198899066,
          -0.05213790468063474,
          -0.189553358749007,
          0.020647292440837545,
          0.08918772315129696,
          0.16170915438494018,
          -0.12334343347124603,
          0.032577375539600925,
          -0.1785075297085427,
          -0.052699040010377694,
          0.09363741529273294,
          -0.008030269565466097,
          0.0058078315476114035,
          0.013140829172565196,
          0.15460910930319768,
          0.09509391864792058,
          -0.08226349643884097,
          0.044464262820824815,
          0.17218351592897085,
          -0.011629679264315391,
          0.028782726493372407,
          0.012546224325278877,
          -0.051590610213820894,
          -0.2932103246298152,
          -0.16757797878630207,
          0.1385363755961378,
          0.03544084092338872,
          0.1324841539665964,
          -0.06381453653241294,
          0.014696834488659358,
          -0.16341157037087373,
          0.10900316430307201,
          0.09987519270717989,
          0.17893703479738626,
          -0.025075208164654646,
          0.04877578245088257,
          -0.0675681307759065,
          -0.03769509519379177,
          -0.0836548080656659,
          -0.06058187667901802,
          0.007447580607659151,
          0.04386186620305034,
          0.16454236973582306,
          -0.08238796180064453,
          -0.10724688365634379,
          0.08283573720804459,
          -0.1003899017063853,
          -0.04667037315001916
        ],
        [
          0.08339814773173575,
          0.10554704312755434,
          -0.09233760245773752,
          0.05805657044433723,
          0.041421290717812066,
          -0.09499342777384852,
          -0.09141956280651743,
          0.08105445383544492,
          -0.10264957354955073,
          0.05309419674894329,
          -0.06858100975324524,
          0.09262102325635128,
          0.045269975258400194,
          -0.09549790172904243,
          -0.03871784988644079,
          -0.12054222770477244,
          0.03336640426433849,
          -0.17084752972100753,
          -0.13091693363993528,
          0.10839774377311032,
          -0.05038314355458462,
          0.15724044228054657,
          0.09205878852824048,
          -0.10950226050794441,
          -0.13114035542982405,
          0.06724417916833378,
          -0.04918015947020292,
          -0.050750788725586506,
          -0.0888337372752003,
          0.033512882222447,
          0.09294485189242349,
          -0.08591283561301259,
          -0.07395562004920346,
          0.08996627089857283,
          -0.05062648029947106,
          0.020899022230498478,
          -0.12411285478169419,
          -0.060767023343214606,
          -0.052275089749633796,
          -0.10574528263677353,
          0.028282090309135994,
          0.023308110288040862,
          0.009687288048613216,
          0.036791219610887625,
          -0.02193657076358112,
          0.01121429497955868,
          0.027338685780485938,
          0.14033813672092266,
          0.08788827558592668,
          0.02947745549498649,
          0.09223329336958633,
          -0.10817190443879768,
          0.21111438871153387,
          0.005120708543549075,
          -0.007307800309286432,
          -0.11551969336222921,
          0.09161665972353374,
          -0.18027006357347314,
          -0.07096982215759418,
          0.0951310874770582,
          0.1790799309549614,
          0.1096065400560286,
          -0.04768742215742935,
          -0.02636515715077098,
          -0.03227659647299967,
          -0.09853055348748972,
          0.08576692246558722,
          -0.11633722747056553,
          -0.12905722941141307,
          0.07851018340090318,
          0.07567015833900687,
          -0.05837053268451348,
          0.11502194342210267,
          0.1622836101100506,
          0.06227096165012706,
          -0.06452042400572505,
          -0.05510554799974336,
          0.1966368597289406,
          0.09124485633934476,
          -0.1390034658991907,
          0.08862382210582867,
          0.07829072742918455,
          0.007346185403759442,
          -0.15599462889499638,
          0.04859321344983309,
          -0.03446018895350141,
          -0.176134296600978,
          0.09621581639713847,
          -0.03019451357239075,
          0.04531803099743481,
          0.01815247816761791,
          0.017512045770503977,
          0.1558648692043525,
          0.2562275688749018,
          0.0639438666648234,
          -0.1581622818221647,
          0.010633256709465034,
          -0.05413073308402748,
          0.10546735105571071,
          0.14674815202299468
        ],
        [
          0.07039570949890754,
          0.1638424318473443,
          -0.1164862703157447,
          -0.002773121783114538,
          -0.061823435957177535,
          -0.16606248716274852,
          -0.05552603883859081,
          0.05369297746484355,
          0.02973190432101228,
          -0.029707195833919998,
          0.07012497185170032,
          -0.09219448072325108,
          0.04727751268889087,
          0.06881569558374351,
          -0.03941013300712354,
          -0.16095671710488177,
          -0.05260185494555637,
          -0.06300717300208505,
          -0.040352928758667375,
          -0.025501935929664623,
          -0.15944543320836946,
          -0.004494102715156575,
          -0.09583446288942032,
          0.016594547427672867,
          -0.07998117336129439,
          0.1203384196938544,
          0.003982849602266218,
          -0.14347934222415504,
          0.0960925537726207,
          0.08892032769464221,
          -0.07647906181045676,
          -0.1555242538118705,
          0.12377992848300126,
          0.004623827553123905,
          0.16718007281696398,
          0.03675438141398978,
          0.03650352726855942,
          -0.06119945841761781,
          0.08876464516073505,
          0.07889535858339963,
          0.08063712052942335,
          -0.12531540725710325,
          -0.06575500308956139,
          -0.006218020861447643,
          -0.06639238729177387,
          -0.15518748897928053,
          0.08913461923597818,
          -0.03952536463193835,
          0.13717159966792825,
          0.03834644831400262,
          -0.11857393450332929,
          0.03127416130999422,
          0.0320271963951246,
          -0.09836772789350727,
          -0.12287321938965917,
          -0.078414593764805,
          -0.23599960185925234,
          0.07818036383385708,
          0.007983182108943861,
          0.061368924307042,
          -0.08404445034176893,
          0.20597763337286176,
          -0.03515189812231722,
          -0.005143584768261683,
          0.013612478991359528,
          0.1483665991128873,
          0.19003177160134946,
          0.11901276798983085,
          -0.20609525875342727,
          0.18647622021711802,
          -0.02910115415883573,
          0.05775882443176031,
          -0.0015617638625926365,
          0.08349734282433353,
          0.0721327853637337,
          0.0340177391233442,
          0.018349614798288214,
          0.016267980353825654,
          -0.07550098817120082,
          -0.10121835199514362,
          -0.00893341953193439,
          0.0013215918854726522,
          -0.04080985842337519,
          0.020345955820825466,
          0.15438464432002036,
          0.19299100523125098,
          0.04826408270243315,
          -0.09148069864213393,
          0.046583148711585524,
          -0.1247219352188361,
          -0.11413975189212666,
          -0.13236362787842612,
          -0.24815326871974192,
          -0.010553229093825224,
          -0.010276748753587046,
          -0.02942397525903575,
          0.12066005839329592,
          -0.10464474302774247,
          0.11762647324085557,
          0.013104556310562567
        ],
        [
          -0.012044120875418882,
          -0.1792421276774764,
          -0.08294332103352425,
          -0.12007344212771266,
          -0.053747322392155385,
          0.0660005833792807,
          0.12066685243656335,
          0.050569676099177834,
          -0.1393036370535469,
          -0.07648554022672199,
          -0.12168117476134269,
          -0.05486442520891171,
          0.052239059876086194,
          -0.033796587752118426,
          -0.07709139044498078,
          -0.18112496011880205,
          -0.006876889492793099,
          -0.15440576720710528,
          0.03058883034502329,
          -0.06498104477609647,
          0.024870407238429416,
          -0.009278004512131434,
          -0.03935834362205466,
          0.0007194117177578113,
          -0.015613336937081437,
          0.13207976291444634,
          0.08597050827298794,
          0.0020113437569252222,
          -0.07573604667252302,
          0.14069288007150088,
          0.14831252389394103,
          -0.058683219892540106,
          -0.06984677429922148,
          0.04907629398316202,
          0.016666919112845065,
          0.018684432436819207,
          0.046549943902296526,
          0.016162628075789467,
          0.04014847136780906,
          0.15869800183376104,
          0.013860797366580371,
          0.09512534548725106,
          0.03824614465946109,
          0.01590497919267937,
          0.11473819550644658,
          -0.009849885969013117,
          0.1029664146582473,
          0.08097004789899954,
          -0.08816557921293804,
          -0.0796310044282497,
          0.2510323904929719,
          0.1505381131227632,
          0.054370481738210026,
          0.11652167397735809,
          0.04015445719123577,
          -0.2844704396435965,
          0.03426134012563746,
          -0.05910236913359954,
          0.09636856241601119,
          0.12242509836922853,
          0.030028891934728616,
          -0.08964193475681302,
          0.04624347627659289,
          -0.09491784659123179,
          0.00953511792945056,
          0.2170230807561049,
          -0.02397671935248413,
          0.10655719992886764,
          0.024166574436048506,
          -0.14290367514613533,
          0.11181090699587541,
          -0.037913547933344456,
          0.2662605239673611,
          0.12332131957131859,
          0.13439806912049954,
          -0.17823880970180575,
          0.0814661656771718,
          0.15043533720694371,
          -0.04520190284552388,
          -0.11866014658006784,
          0.11616524640865297,
          0.11967354967733843,
          0.033685468652442964,
          -0.05501886223282498,
          0.19215168567218432,
          0.07572094978389732,
          -0.1844097356552271,
          -0.06152499435188322,
          0.040680838086052815,
          -0.04083844463814505,
          0.026452112911123347,
          0.12391677209844257,
          0.006434515818676881,
          0.12641678558842925,
          0.05555622291292476,
          0.15315105416797256,
          0.03302652695916386,
          -0.14796354150118557,
          0.00814203606976413,
          0.049183691730227526
        ],
        [
          0.13748556082760888,
          0.1335514960280848,
          -0.2787193335890738,
          -0.051641473746119215,
          0.11205031052826947,
          -0.17122061399832336,
          0.0038817346164660518,
          0.15321687731360628,
          0.11030987168797883,
          0.051507198245743645,
          0.22328860807490933,
          -0.014136626124506564,
          -0.0915083516866023,
          -0.06915459152867845,
          -0.05335524011548653,
          -0.040328274233999366,
          0.07199974779436961,
          0.03257485447806701,
          -0.04580253283817406,
          -0.13148291771057238,
          -0.07318792622281219,
          0.1259573553481099,
          -0.015597775445879059,
          -0.09338189226745569,
          -0.07263263831282317,
          -0.102711785920927,
          0.03321236384718818,
          -0.012494052676538647,
          0.01461519341546538,
          0.036727864080812224,
          -0.07182709706775339,
          -0.009151799987167045,
          -0.11822670794150668,
          -0.02762450127028478,
          -0.01723512720602618,
          -0.27059264368096586,
          0.12079409830696522,
          -0.11543506448068107,
          -0.02416353864105971,
          0.06482736447986635,
          -0.1458680061331871,
          -0.145119523900019,
          0.09362710825798685,
          0.030753250940556174,
          0.04815114606429854,
          0.14010646225967094,
          -0.07377735848364274,
          0.11618411806918398,
          0.135768882546415,
          -0.11813506063123423,
          -0.2679747202169872,
          0.15813825424677785,
          -0.010998225251699899,
          0.034076883515497,
          0.11723474250244242,
          -0.18184275466595207,
          0.19459637403179308,
          0.008561231324021597,
          0.07704879050526375,
          -0.04340106201743853,
          -0.03193136947577054,
          0.016188443008682215,
          -0.06459198046022253,
          0.13351687479707952,
          0.059578917337661935,
          -0.027147032382293754,
          -0.07423947103672619,
          -0.05044149368513341,
          -0.04331996046629831,
          0.012627762754470166,
          0.08676156964263013,
          0.04157779487161351,
          -0.030641798932251798,
          0.13459134919042448,
          -0.030052830730032808,
          0.035078327887601256,
          -0.15538513984654423,
          -0.01220081465724659,
          0.07222454877767748,
          0.06975650115374318,
          0.058990332425509114,
          -0.1405470787157614,
          -0.03007608497407118,
          -0.057878873953179436,
          0.04041715764084158,
          -0.15311424789457634,
          -0.04361061035015567,
          -0.010924355953456538,
          0.054909352467150445,
          -0.051771178790018066,
          0.06943991673407353,
          -0.09594117884110029,
          -0.038720987954823094,
          -0.1841627392263314,
          -0.053639979418983866,
          0.00458534967829961,
          -0.09414396892986653,
          -0.0931780718385484,
          -0.02890299301586037,
          0.043162202146273226
        ],
        [
          0.016654759491382662,
          0.03202113647785782,
          0.0671329753928419,
          -0.0005746204657572118,
          -0.024510948201691078,
          0.07422447764413198,
          -0.05600989683300686,
          -0.027616196346747435,
          -0.08851031862079468,
          0.004623343636690385,
          -0.06335507718131259,
          0.18954842066868122,
          -0.07927386847689326,
          -0.10437727967726837,
          -0.03071767133253265,
          0.05591956762397211,
          -0.23505376658086505,
          -0.020202396091213624,
          0.07011149375275423,
          0.17831108031540158,
          -0.13779916084585347,
          -0.01095447565493569,
          3.748418575362278e-05,
          0.11918217566876206,
          0.07679106261425542,
          -0.023425206376896428,
          -0.021054949111342466,
          -0.09335081070067178,
          -0.026447185794337,
          -0.011679128064074151,
          -0.08790692587191816,
          0.008233239379021685,
          -0.00788572970866074,
          -0.0031500350215996386,
          -0.2464907644403633,
          0.07152734383460152,
          0.07159778944100899,
          -0.004126238124679513,
          0.022555826699197333,
          -0.144910472968722,
          -0.05337030801619165,
          0.037332322123695916,
          0.03799983020238565,
          0.11130775515038602,
          0.0985758220428893,
          -0.056615550052261314,
          0.1864082881776164,
          0.13188700767843242,
          0.07005029400249667,
          0.009980690200068318,
          -0.05723067981200377,
          -0.14203630238656384,
          -0.09722900946754351,
          -0.23883395497298676,
          0.021055302271798172,
          0.07616100283745444,
          0.03569337345622008,
          -0.07284551717952652,
          0.05554459580749549,
          0.013114366049098412,
          0.05237583525401859,
          0.20388053755148539,
          -0.10591949312771275,
          -0.13034587374459813,
          0.09352839465582688,
          0.17342535056965105,
          0.002338915652048441,
          0.0032459107407272095,
          -0.20278077435235087,
          0.016121693066669673,
          0.1092802193185658,
          -0.14552389656744608,
          -0.202020594791032,
          0.01429939142784791,
          -0.12401087977043235,
          -0.04342661787837885,
          -0.26536007170507725,
          -0.17105881051063007,
          0.11935976333116889,
          0.25153800942010457,
          0.04991637049740962,
          -0.06420101746708852,
          0.17292831751259002,
          -0.037272493010209344,
          0.1423161119369874,
          -0.06022400295748466,
          0.13614829154315458,
          -0.1144976684165091,
          0.06184604842641784,
          -0.1210503315571165,
          0.06899596092963717,
          0.003983737661237944,
          0.0009188526733265219,
          0.08703033124710546,
          0.0814179069073897,
          -0.006482329839409424,
          -0.06358159568280058,
          0.01815731182747658,
          0.024409392192335982,
          0.05855424568481664
        ],
        [
          0.022140502329880914,
          0.17525649302902552,
          -0.10832566441965148,
          -0.14285086123353138,
          0.08725155866232212,
          -0.08812616224499921,
          0.062401090349000966,
          -0.047180951444587456,
          0.14322201766225218,
          -0.001572818960270993,
          -0.21868061687831428,
          0.014295398195606508,
          0.07462085758491727,
          0.008418021782842008,
          0.13559588659142682,
          -0.04383780616516283,
          -0.04645157996941094,
          0.0750941907941856,
          0.02089297423068826,
          0.057827475620777904,
          -0.15419222508279254,
          -0.045903192885763715,
          -0.11865374805726675,
          -0.0697738635327973,
          0.05584429196393663,
          -0.054943007196416024,
          0.10889919582333382,
          -0.01084583951089704,
          -0.05365318225856538,
          0.054388770055089394,
          0.00453095776091376,
          -0.06148817773206007,
          0.049407365886013105,
          0.1631096272213866,
          0.07896305794921361,
          -0.07908737734145906,
          0.023644000577720828,
          -0.023049106609791425,
          0.022117641653420336,
          0.13243578158011074,
          -0.09965620924575098,
          0.012169342042797219,
          0.16963191388008086,
          -0.17280394706451205,
          -0.21028927995401295,
          0.13809496007939626,
          -0.0633320193324696,
          0.0925085893171945,
          0.21086667187496577,
          -0.16786702722504743,
          -0.07593304469139306,
          -0.012354174126015497,
          -0.04512542257101147,
          0.030493928326435292,
          -0.008188234140477217,
          -0.029004558682721632,
          0.10061323871636463,
          0.05921578245508134,
          0.11627081245519594,
          0.12434532853523768,
          -0.05768748672603007,
          0.008736649473429383,
          0.04870482122513315,
          -0.01867672205071834,
          -0.05964628361800993,
          0.02700478639028672,
          0.02243284653856676,
          0.18446629437748668,
          -0.1196484554627453,
          -0.017076258513454855,
          -0.06003485749419376,
          -0.03180338483262531,
          -0.030754277876463867,
          0.06147107233177226,
          -0.07244050370976465,
          -0.012666093188158905,
          0.17438997232791217,
          -0.04371816737958911,
          0.1350720851017688,
          -0.1349326732054395,
          0.058046052042698436,
          -0.08602612500168826,
          0.042278038934263726,
          0.09941013888336406,
          0.07492946811799531,
          -0.06302742974833839,
          -0.1555707813973742,
          0.08886049386740554,
          -0.09136574882668917,
          -0.06303791618721005,
          -0.0028086629940014484,
          0.005299728382836153,
          -0.042557480433445455,
          -0.1804806870506086,
          -0.12749399180780302,
          -0.1396723507745693,
          0.018865590551457024,
          -0.006887652701245445,
          0.00541516425045205,
          0.005172491617407287
        ],
        [
          -0.05700074669567517,
          0.13182165572821306,
          0.17202601340542473,
          0.01846613832172556,
          0.12920893332359518,
          -0.06634987164363977,
          0.025620636376067665,
          -0.03652150448069303,
          -0.032830284939231305,
          0.20847391723501854,
          0.1309428631555003,
          0.0802587926879348,
          0.26451809821770067,
          -0.09760127211853063,
          -0.023132304996307418,
          -0.05934656318455097,
          -0.03978281652542359,
          -0.07063747257603177,
          0.06303175783113872,
          0.11563612307095822,
          0.15706001920442336,
          -0.07312230964896617,
          -0.20518442176454096,
          0.04116967442848553,
          0.02523570599483685,
          -0.1538781827824411,
          -0.0722364967438883,
          -0.09973858625962388,
          -0.057780451546730636,
          0.032363698815081,
          -0.1400413877600976,
          0.1282047329043824,
          0.17191738176924015,
          -0.007909766815252761,
          -0.00952634250565242,
          -0.17804256650170572,
          0.05170888857099593,
          0.08702553320046873,
          0.017601179164829547,
          0.14663104728361373,
          -0.1401270471246367,
          -0.17566527707307367,
          -0.018614975069505126,
          -0.07548672275723402,
          -0.12053589593786662,
          -0.031747891814195364,
          -0.04519949010376139,
          -0.1088766657078884,
          0.11452499813586123,
          -0.14495079545091963,
          0.04821172147206326,
          -0.06976692778863092,
          0.019743419539892452,
          -0.2021904995381606,
          -0.10259441924106419,
          -0.29039020579594005,
          0.09655268921992942,
          -0.1620270287796754,
          0.06033532192719689,
          -0.057602988141725854,
          -0.05589930478527167,
          -0.024448171321322196,
          -0.10559038962629051,
          0.24987032422412594,
          0.08890508386877194,
          -0.06173076654665325,
          0.12333421607034173,
          0.08131237553822904,
          0.03622008781900235,
          -0.04084378750205058,
          -0.16985782249869796,
          0.09082316172756849,
          0.04443371079399299,
          -0.021524409719033646,
          0.07731646034073704,
          0.07304981459597222,
          0.1152803620312442,
          -0.051866020728274016,
          0.15380775036714042,
          -0.02051587322267634,
          0.06900002796589884,
          0.049772135994942,
          0.19864070793865934,
          -0.024436773205970472,
          0.02868263575348553,
          0.009224337545199395,
          0.06228605780924524,
          -0.09952558445155396,
          0.19381065064508024,
          0.08566978695116836,
          0.07938765459419773,
          -0.09294865360856414,
          -0.008846341179630917,
          -0.03705361757737032,
          -0.1357243837140436,
          -0.05315057018356742,
          0.06300774310540233,
          0.00953364983668086,
          0.11771154834776555,
          -0.033211945224101876
        ],
        [
          -0.009365910586770046,
          -0.020604856594548675,
          0.10391437749311981,
          -0.08941844530857128,
          0.21461290401079003,
          -0.005415452105502498,
          0.035446809298571455,
          -0.018467336147892383,
          -0.02903060053374357,
          0.00720169717379812,
          0.0017342318925809247,
          -0.08789435982342339,
          0.1546253277198573,
          0.07487003308430627,
          -0.12673674528697088,
          -0.09751949997059656,
          -0.0875601773980534,
          0.04245494982291322,
          -0.039636118658150615,
          -0.029430126236285926,
          0.013920286786791164,
          0.22493103952605203,
          -0.053405943802664994,
          0.022958607373069713,
          -0.042430743458708085,
          0.14367838294629084,
          -0.13522953305091776,
          -0.0481365320101977,
          -0.1947735551293797,
          0.049525123915070815,
          -0.05379424020656716,
          0.1357888473808949,
          -0.05380962332669954,
          -0.09423710278526927,
          0.1424872297316034,
          0.1353951053256807,
          0.03849796302385508,
          0.006903002798940932,
          0.01666094458133987,
          0.14189168082997786,
          0.1296458937703477,
          -0.11998107286781662,
          0.10431178374339699,
          0.024060316391121547,
          -0.2139622275214508,
          -0.13109273710417663,
          0.01204318078465704,
          -0.07709483970790916,
          0.026690051708333724,
          -0.0716100247947373,
          -0.13987470331206872,
          -0.014262009158023491,
          0.15108397961586234,
          -0.06030261317354649,
          0.05774022719957524,
          0.012659940492148851,
          -0.0697137593717385,
          -0.011408349079620286,
          -0.14320171225542533,
          -0.23533891990814565,
          -0.03203434649984299,
          -0.022175004805046195,
          -0.020604795473634547,
          0.0023351511973595633,
          -0.06100326159346083,
          -0.04380191629436506,
          0.00825517359591824,
          -0.007148325103053687,
          -0.18166417886455172,
          -0.07689420620614414,
          0.009645978890007222,
          -0.07988002408067078,
          0.06817208339847752,
          -0.06663006716314608,
          0.19833453937007506,
          0.04830715439080466,
          -0.12199284835549963,
          0.08890753348118453,
          -0.09504573752885266,
          0.022224942296363792,
          -0.07968854961647978,
          0.072162411350269,
          0.10918496523331234,
          -0.010141643838988234,
          0.01845390731245852,
          -0.04113792046892465,
          0.04667762124192658,
          0.21056488722040909,
          0.11712785508384961,
          -0.07411751619226578,
          0.060874343519916926,
          -0.030384309141672713,
          0.018177150341111562,
          0.014451959295664282,
          0.08705735960102554,
          0.013687709479902123,
          0.098720504405133,
          -0.0016792291377278527,
          0.050280431541952574,
          -0.11407977993709299
        ],
        [
          -0.08111760505502473,
          0.0004277442336207266,
          0.0435661307687398,
          0.12214219780860297,
          0.2668202813535295,
          0.11906181691456874,
          0.011039035104255052,
          0.05967838694119216,
          -0.01628617742364145,
          0.08635852367241674,
          -0.05125499949971767,
          -0.011873049694101618,
          0.08620359368246987,
          -0.031769091121713805,
          -0.024230322437879415,
          -0.06969102110283681,
          0.18184790234033232,
          0.08469275101502453,
          0.10997792739627588,
          -0.046100359520252224,
          0.0028739179880926426,
          0.17081093392917926,
          -0.010135537177911085,
          -0.20736604602606173,
          -0.1028745091732232,
          0.06582122907202376,
          0.030477479823064556,
          0.08942121481235395,
          -0.0560055907364948,
          -0.03708210670563982,
          -0.07425557193904492,
          -0.06296413533945537,
          0.12189759561988504,
          -0.025723509052062613,
          -0.014851511255663205,
          0.2881584173754545,
          -0.0707736783635253,
          0.14786956048996075,
          -0.029780843153075755,
          0.0672131266758182,
          -0.07227284455694415,
          -0.0002743235302842886,
          0.09393147120519436,
          -0.17116448146939564,
          -0.1074488124961265,
          -0.04251190739419471,
          0.20229503066438997,
          -0.12710358699367263,
          -0.08340309992290947,
          0.05528877727913182,
          0.15210035379393147,
          -0.00829151978021628,
          0.011154082592774686,
          -0.02313581307530837,
          0.02832034575898469,
          -0.06221680092527573,
          0.008764376984281542,
          0.1252957317753831,
          0.04926789848797636,
          -0.1542605666628133,
          0.14800679561035074,
          -0.11587422035092629,
          0.0883803865705589,
          0.15288578237353254,
          -0.10577735246633808,
          0.16527181259969273,
          0.030029830438144275,
          0.18879503975139728,
          0.011882855747323062,
          0.02182977439190517,
          0.18287693804571128,
          -0.07923940068631198,
          -0.1055519917533108,
          0.07780777583674611,
          0.12132556752114362,
          -0.14991360522464575,
          0.05099401660971689,
          -0.03326631628405847,
          0.06554384333957382,
          0.10213689877427462,
          0.05009165919518622,
          0.0020890628397196623,
          -0.0025795158173900373,
          -0.016630244904950214,
          -0.011454088841542668,
          -0.1006694910097268,
          0.01748166180962383,
          -0.07869017426954648,
          0.009212386910902173,
          0.045550879657265855,
          -0.07460998172280009,
          -0.13731051198305122,
          -0.07936301797817313,
          0.0711218017551978,
          -0.172530454976264,
          -0.031130619510751214,
          -0.0369490626726781,
          0.18517964012438864,
          -0.1076530891542664,
          0.034351751386007344
        ],
        [
          0.041389258255944555,
          0.016556673744240302,
          -0.045587975191457734,
          -0.016301299351320214,
          0.004944332420829031,
          0.03573478525217911,
          -0.030795233140732778,
          0.10521504667792288,
          0.07457307136293155,
          0.034242014368243076,
          -0.025158172745603755,
          0.1187746053563524,
          -0.014672034610456158,
          -0.008565027147798394,
          0.08524606906646978,
          -0.04048971477404396,
          0.020909888578380918,
          -0.000687639568761955,
          0.0046133206118856695,
          0.03841061013497568,
          -0.0002828218936210734,
          0.10499856716306309,
          -0.040400921211779385,
          0.050857499651980095,
          0.09288234404201501,
          -0.20013767884188763,
          -0.02096938614141313,
          0.07001620079026978,
          -0.021478240264431146,
          0.03607476054232169,
          -0.1303133027241172,
          -0.034976030677373496,
          -0.14080791383009175,
          0.0019227939541428304,
          -0.10656844483191373,
          -0.07878976672110459,
          -0.07008272346820987,
          -0.06312982608370253,
          0.11791597447964121,
          -0.09817414051717925,
          -0.027845917440301224,
          0.14911416252986157,
          -0.07636142139126846,
          -0.04866250801595999,
          0.04716238941041748,
          0.06962322114423601,
          0.05058569079777129,
          -0.017833833412308493,
          0.13910538852737694,
          0.10771396707521214,
          0.052278328802885674,
          0.00935482662775359,
          -0.09311463589058414,
          -0.06630197485378361,
          0.1701238810690964,
          0.18075051416658774,
          0.12284123236964853,
          -0.12487802039191802,
          -0.1534704480306241,
          -0.07556789518952818,
          0.031211773754259115,
          0.0514447324275655,
          0.1809315478592603,
          0.0821301457328799,
          -0.042037946265293745,
          -0.00581351480061653,
          0.03659118448749231,
          0.11589490313395015,
          0.26874450150701834,
          -0.13452347714339113,
          -0.04801462816596072,
          -0.09205160278731414,
          -0.19246166658911737,
          0.13231408206658646,
          -0.027392367592468856,
          0.04225716500399009,
          -0.04869522173038094,
          0.056092051600050104,
          -0.028119260352360658,
          -0.035149726329716205,
          0.07185304208929727,
          -0.07890491105296762,
          -0.17139101190597764,
          -0.21396710901209423,
          0.05866387364990104,
          -0.18059196442069264,
          0.010658010031455821,
          -0.03363554761194988,
          0.06589046443122451,
          -0.06693467230063756,
          -0.012568777968456117,
          -0.22029357875348382,
          -0.06906007951637584,
          -0.12271780253141727,
          0.025435125949768652,
          0.03104481941396548,
          0.09097435612660514,
          0.08141888494958108,
          -0.1484245673882447,
          0.08027125351326243
        ],
        [
          -0.07511964732602341,
          0.0038712612436548484,
          0.013107176151679849,
          -0.020194981881444234,
          0.18921319741102233,
          0.08311100058868359,
          0.1760118982286669,
          -0.058197102164885536,
          0.1092738358237886,
          0.08703464339741364,
          -0.05540597963188957,
          0.17571249648869475,
          0.008770209241943858,
          0.0122058142692016,
          -0.07231324955762591,
          -0.1132653283434697,
          0.08573810320884609,
          0.022481366703715852,
          0.004084994328810113,
          -0.06535864427090071,
          0.04465513003159209,
          -0.08501453922871208,
          0.17631253077931566,
          0.14028256375222836,
          0.027192713298898743,
          -0.04203402105782637,
          -0.018861425568705757,
          -0.12384773548345519,
          0.06467180067778402,
          -0.03393468726959454,
          -0.11403831853801774,
          0.09495626283208009,
          0.06322720368729773,
          -0.0889429115316543,
          -0.038236131449695496,
          0.07362306684797007,
          0.1004509888538108,
          0.19724761422788467,
          -0.03334333547881498,
          0.020258057807280048,
          0.08209169729689823,
          -0.0019365589546405874,
          0.06818999006319797,
          -0.007539282874333958,
          0.0025840468903298086,
          -0.02133434325694582,
          0.09131831178778883,
          -0.08895248551296528,
          0.07683856250960729,
          -0.11400501689239005,
          0.009955140296719026,
          0.013196151875098318,
          -0.07455197122441685,
          -0.09334232929727586,
          0.036402764910285795,
          0.03508204867018395,
          0.04590788556267784,
          0.16199862807392768,
          -0.1316942112002405,
          0.010279135681545351,
          -0.05500878675452582,
          -0.07663477181209162,
          -0.08993977785598059,
          -0.13580530012366893,
          -0.057297245376446225,
          -0.053738791972580725,
          -0.12804324638402895,
          0.13450965401837403,
          -0.05256477078668707,
          -0.004908827581667364,
          -0.0930303070566592,
          0.11543244996199906,
          -0.08959510357935233,
          -0.028688123232864796,
          0.17659361419023856,
          0.05322196952810559,
          0.042088282085141454,
          -0.03507188331296901,
          -0.06466614464299793,
          0.049005291276327974,
          0.021162509318546716,
          0.12805409150555377,
          0.10564969914492732,
          -0.07143261509335534,
          -0.14371291233450037,
          -0.005856217931826611,
          0.08822950467637165,
          -0.045798315021323324,
          -0.013782353191953428,
          0.1432041642074447,
          0.13560242946616727,
          -0.01832578265609674,
          0.09012313585644344,
          0.22087637001791344,
          -0.05188668350116707,
          0.13280676685624865,
          -0.015898591532520365,
          -0.06217127630278825,
          -0.08046528339704061,
          -0.01416553902620976
        ],
        [
          -0.11364466765221606,
          -0.2445139611256948,
          -0.05039872589691925,
          -0.11743793652040325,
          -0.12230826382957118,
          -0.214401065477646,
          -0.01638676156328782,
          -0.006546857625944429,
          -0.02477611497536509,
          0.20578564131401222,
          -0.09003332144255338,
          0.008909917748898707,
          0.03495179278781314,
          -0.1276319092742928,
          -0.11506915984887141,
          -0.11158286240572546,
          -0.09624167925215166,
          0.06921493290401995,
          0.016808602699237254,
          0.007231450189353064,
          0.031672735403274255,
          -0.0875809299203702,
          -0.13365391480147237,
          0.07500268196719316,
          0.0874195776135591,
          0.1872957579656105,
          0.0019597639146500872,
          0.031434779131738144,
          0.1425425737165814,
          0.019382305840699273,
          -0.13887406971370828,
          0.029609432993802157,
          -0.060284699158555825,
          -0.11495862381634105,
          -0.10071995230874786,
          -0.0791922445621603,
          -0.03390997617655166,
          -0.019933596349368924,
          -0.11997188619836663,
          0.10618432642563723,
          -0.10293605164675458,
          0.06929625622654953,
          -0.03767765511178469,
          0.028314353475891757,
          0.047956310027794435,
          0.21907369690938416,
          -0.044251515780162155,
          0.16013717978305217,
          0.006181496965474262,
          0.0032549894912506554,
          -0.08783643472099405,
          -0.0450127284535325,
          -0.14087699743847557,
          0.15036514680349833,
          -0.02416351414272488,
          -0.05271722681984137,
          -0.09786348985793276,
          0.020960515467751312,
          -0.06023158063317432,
          0.11052303545841613,
          -0.06847824952534444,
          0.15767765048109364,
          0.023693879719999172,
          -0.07585186765572045,
          -0.24177538486898184,
          0.023593745219308168,
          0.19917691646623825,
          -0.04895098528005531,
          0.03928507773149695,
          0.004241109130075533,
          0.050983941350491335,
          -0.018585659268105542,
          -0.13482781907088517,
          0.014650603076436895,
          -0.02060725557543318,
          0.08008954117335951,
          0.008424007791078585,
          -0.08480903904252958,
          -0.054337431743774985,
          -0.03542733592830406,
          -0.0056505587738867324,
          -0.06907669019090433,
          -0.008029275660420287,
          -0.1114864453076193,
          0.0686689936158031,
          0.18398497398848354,
          0.024050959798590708,
          0.0023570405453004423,
          -0.03224963095118866,
          0.0855990850529346,
          0.022665633413921003,
          -0.07767784437328738,
          -0.13230214291528455,
          -0.1305635693872125,
          -0.11808203459704493,
          0.04740976447451558,
          0.16713066471547056,
          0.07089597103189856,
          -0.09872012886161545,
          -0.06005999620503099
        ],
        [
          0.11154259982035648,
          0.10288856152537482,
          -0.02889549035664468,
          -0.09884961609502098,
          -0.014606542232820133,
          0.036497898733891206,
          -0.029815183323178535,
          -0.007588641312415873,
          0.06154517088792014,
          -0.050204408836863494,
          0.012868033561607164,
          -0.03828404045174786,
          0.00789631807410811,
          0.0011546116321221277,
          0.0742810549196475,
          0.07010312381220399,
          0.05105952035987083,
          0.023730913466719933,
          0.1572194606834988,
          -0.06177796693514242,
          -0.05058592164329656,
          0.05569296341587929,
          0.10881202241755683,
          0.09144494542774194,
          -0.00461435346857655,
          0.04188033450936093,
          0.15811594890028804,
          0.08252259440741994,
          0.1041711904876636,
          0.052721013190439744,
          0.09360364941185764,
          -0.1140141200052838,
          0.12354380996128735,
          0.0753555759639188,
          0.010469733943929263,
          0.08810480101796984,
          -0.014091602033048425,
          -0.1376928781668561,
          -0.04708688682390281,
          -0.034587201482589425,
          -0.07188911253948166,
          -0.12092624897585105,
          -0.041103402036638266,
          -0.023118104524519956,
          0.051757224618134305,
          0.03647096603160346,
          0.04197825663126043,
          0.12825721543935947,
          -0.056014733835414075,
          0.11324337449104523,
          0.006875357992927793,
          0.012735493402478237,
          0.045022174596024936,
          -0.0023834828334983356,
          -0.10148655463767742,
          0.03864314945071523,
          -0.06994742648599063,
          0.09987682212214409,
          0.0204165937698634,
          -0.040689293613599714,
          -0.02926860604219215,
          0.046119120623485096,
          0.07373676904733029,
          -0.14352421781169572,
          0.19615978637592205,
          -0.10100213123231226,
          -0.1037621650426122,
          -0.04087923292650796,
          -0.0519657064269643,
          -0.07068027443013376,
          -0.12107784358117957,
          -0.03516403789049663,
          0.17544972432820952,
          0.04142142119528723,
          0.08157326475197392,
          -0.12529838074797792,
          0.037297492725968245,
          -0.007421255831645057,
          -0.00815950275692402,
          0.15730109621893937,
          -0.06891414034838592,
          -0.00493034382099443,
          0.1080497578157475,
          0.08558347968379315,
          0.08293205495933814,
          0.09939528750036108,
          0.04848906712585751,
          0.013137760627493788,
          -0.06500196537293987,
          -0.16656079977747698,
          0.06396976937749783,
          -0.009875737722898606,
          -0.07792747198369247,
          -0.03620894225256657,
          -0.1093411238116126,
          0.030450921293721542,
          -0.03560284991780835,
          0.12253800078951518,
          0.06766010899723383,
          0.06816583017340375
        ],
        [
          -0.03493254999205325,
          -0.011019204332134077,
          0.14106052653069975,
          0.044869124170780435,
          0.04842319577832706,
          -0.04493143904829331,
          -0.05452408985482358,
          -0.08291670207101573,
          0.03520233471041709,
          0.06859378797451635,
          -0.0775548185578837,
          0.05687457022224221,
          0.24040496712754955,
          0.14566413480859738,
          -0.09728307617681488,
          -0.10091799506595,
          -0.06619164809711202,
          0.12786252477426918,
          0.012718684804979103,
          0.0015652869239778581,
          0.15830999162951237,
          -0.020687067532158907,
          0.05784945612485111,
          0.1363516732909469,
          0.011204344331976182,
          -0.2525640302142292,
          0.0010024954791563092,
          -0.03286031078502312,
          -0.036271304919883576,
          -0.1786362994524244,
          -0.09606912278439714,
          0.10431273137154037,
          -0.034627636479255805,
          0.15027480973779786,
          -0.0893832959564139,
          0.048373438525103146,
          -0.06725042394056958,
          -0.09055715212474123,
          -0.15785719122827757,
          0.02821529035320963,
          -0.005577329092565713,
          0.0016685932793071845,
          -0.21827315989103654,
          0.06866612897369069,
          -0.09980028756419304,
          0.23095836370929032,
          0.10357545238339677,
          0.06070377046412667,
          -0.016373198133304394,
          -0.029007393409628855,
          0.10755163949408714,
          -0.08475147033291008,
          -0.024152115188963753,
          0.04453768030737874,
          -0.12589429215735082,
          -0.06499892983703198,
          -0.1925839115110569,
          -0.01898235392230528,
          -0.0438255588244563,
          0.12159166028918358,
          0.006390205949748108,
          -0.014611199059177292,
          -0.1233739255280828,
          -0.08704428120696177,
          -0.13799569180339274,
          -0.01730542024044191,
          -0.12567995496635784,
          -0.15411574374666362,
          -0.021756229838233554,
          0.01752032550175196,
          0.08418665044585227,
          -0.10939431969484747,
          -0.1411839441112322,
          -0.08131992444499911,
          0.017208656885912017,
          0.06282800285812565,
          -0.022060341570110782,
          -0.023225793578748807,
          -0.24440388558070442,
          -0.14397899763397098,
          0.0017895325224215701,
          0.14490654248551582,
          -0.06270693943269308,
          -0.03761369218502085,
          0.2720319998598904,
          -0.032782968059890547,
          -0.08260809493778916,
          0.1205413504135577,
          -0.013056606231210185,
          -0.013481858175290927,
          -0.013668329288952213,
          0.11425106407317343,
          0.2633335227137315,
          0.13385505167020095,
          -0.07138357437376111,
          0.098267748106206,
          0.055239018414542956,
          -0.0819189238770716,
          -0.0380014438263496,
          0.07686218818180536
        ],
        [
          -0.07359773035863673,
          0.014334241036621589,
          0.0612987058317641,
          0.03331223657311002,
          -0.05412131780561814,
          -0.03469130655691599,
          0.036291525455215565,
          0.1558146621729475,
          0.16019171919747172,
          -0.03769497479657192,
          0.05296240736593119,
          -0.079179587255845,
          0.09315404541037046,
          -0.2554816684197739,
          -0.08781401000827381,
          -0.07700949421348181,
          0.0021667083000102808,
          -0.14990377335062438,
          0.0038047256478103792,
          -0.16512645950643676,
          -0.048099949947361796,
          -0.13942113378106372,
          0.014574536810601522,
          -0.2751524283714436,
          -0.11678790489480322,
          -0.03635005261779749,
          0.03247286675416569,
          -0.17218345416754557,
          0.014110277529974537,
          0.1625795393808848,
          -0.12186150475712743,
          0.027302682913002647,
          0.007664186188789787,
          -0.09486107968408279,
          0.05415225810293284,
          0.1328506850772216,
          0.08252963484846045,
          0.0026085702405827297,
          -0.10043820971055423,
          -0.053242357712319645,
          -0.05046922467493996,
          -0.038658350539066424,
          0.032480109835846156,
          0.03070334238036281,
          -0.10933919819611383,
          0.008798061295180813,
          -0.1977298274681465,
          -0.16836445666910496,
          0.14202023104483655,
          0.19280637488782768,
          -0.013382819031666228,
          0.10064511294390469,
          -0.012226320243638268,
          0.2762987538880493,
          -0.03118376830595741,
          0.01466592201129646,
          0.0703505572600472,
          0.04086416876091374,
          0.0431913527721981,
          -0.23613147998271233,
          0.16479672519174887,
          0.1278784827732925,
          0.19251194257700216,
          -0.0028181932530812847,
          -0.10082793535919174,
          0.10042597562443098,
          -0.056283649328465156,
          -0.10166221334588095,
          -0.08005559324985231,
          -0.030032645902099964,
          -0.015230732465758907,
          0.0602501685101372,
          0.0693219064484478,
          0.0068239223595365816,
          -0.022253518062032174,
          -0.04116411015878315,
          -0.006249556370727322,
          -0.15344042876354483,
          0.11390783890023612,
          0.1023707123583231,
          0.13476329224207884,
          0.024183827208503605,
          0.029990915784852107,
          -0.13125416744221216,
          -0.08845778235208225,
          -0.12918284621035303,
          -0.024150337655367782,
          -0.1638971407126801,
          0.038022763269741834,
          0.11049182299981568,
          -0.12324716454098573,
          0.025138530895667657,
          -0.10693791835260928,
          -0.06274189788827608,
          -0.04018521248628482,
          0.009452456705813045,
          0.023356832253861603,
          -0.10364579096400148,
          -0.03213696413427934,
          -0.03420935836407947
        ],
        [
          -0.13000907282405022,
          0.09577346103104659,
          -0.1317274420109168,
          0.09219640172898601,
          0.10637865176085394,
          0.05792606471509878,
          0.06904720168609119,
          -0.09857696963849964,
          -0.034133158751732874,
          -0.10009494888777683,
          0.023816660417946913,
          0.03622652548890453,
          -0.13127602083993317,
          0.1616518801823349,
          0.12337723764289325,
          0.18936348760130675,
          -0.21124322886461444,
          -0.04548588823087779,
          0.18607443836922125,
          0.045299539693074625,
          0.1420294396200643,
          -0.08276906285498266,
          0.0062156566852610015,
          -0.16612357702722394,
          -0.12162992630901868,
          -0.018655500491649307,
          0.017379460875803995,
          0.15178871628400487,
          0.06894995842529975,
          -0.11203901919867294,
          -0.08960535269370823,
          -0.02804927585255532,
          0.14509187778417104,
          0.031448315416343,
          0.17753628264215818,
          0.18788236474772518,
          0.03411283768781704,
          0.050346385351623876,
          -0.013479763269837797,
          -0.08467952573233274,
          0.04837392467103393,
          0.04706504040994438,
          0.0615158215142846,
          0.15153248591799476,
          0.048936240597468046,
          -0.01990868712897008,
          0.055659766020981924,
          -0.07551956968675323,
          -0.10870953087235372,
          -0.09587691437013618,
          -0.11921212702640505,
          -0.08006945105335522,
          -0.02524296872510651,
          -0.06509820308349577,
          0.10702892925330235,
          0.028509840841377032,
          0.11113275436542239,
          -0.04439126797753948,
          0.04351847059423706,
          0.03574315691901009,
          -0.15405021719603776,
          0.07934306159315306,
          0.09510106855117526,
          -0.14642658406053677,
          -0.0003632131020437349,
          0.2401508924619986,
          0.1612728312653817,
          0.036677191110555306,
          0.011052401086389352,
          0.0006790791342246171,
          0.0088745215472261,
          0.07920865891385918,
          -0.028688628857476826,
          -0.18212196989497265,
          -0.042217300352365615,
          -0.14646378812641905,
          0.23719183609317787,
          0.06903744090410371,
          0.026420467550569482,
          0.027383799867248256,
          -0.1852561297520799,
          0.10469849430682229,
          -0.12581308568664215,
          -0.07335493809948124,
          0.00837802717436591,
          0.12233262562568885,
          0.07800352294028862,
          0.03827699891212335,
          -0.16022252584403385,
          -0.00790890152859779,
          -0.26869971913234647,
          -0.14112843738295924,
          -0.2633915378056202,
          -0.1550224917956127,
          0.1998774090661901,
          0.1740959368850917,
          0.10355760623423792,
          0.10352310112075395,
          0.08933914214578095,
          -0.042162107776911775
        ],
        [
          -0.15349474523216955,
          -0.23766490732300832,
          0.06896192189871436,
          -0.017947627818374848,
          0.07049078317666824,
          -0.1744419168874363,
          -0.13039636091634832,
          0.06966171676483118,
          0.028967566135105736,
          -0.04222056148612183,
          0.12374417694007621,
          0.09397530727362774,
          -0.11342808505141563,
          -0.11357360691755579,
          0.01171362159621777,
          -0.1048898986351245,
          0.21505715658073646,
          0.03396631735574197,
          -0.12335772042062756,
          0.012208594595797284,
          -0.15863114826563476,
          0.023680083845770385,
          -0.11180935314036239,
          -0.08827046530517176,
          0.17222693899492286,
          -0.0887178161626825,
          0.1894129897877067,
          -0.02494268507127491,
          0.05175845355126064,
          -0.0008446904252357504,
          -0.10258075895746724,
          0.10373905003128632,
          -0.06155833223803597,
          -0.07227908994930055,
          0.15696930736823023,
          -0.004799900408308321,
          -0.2844580292570351,
          0.03349756368226612,
          -0.02009926514452328,
          0.022712314799316933,
          0.07911403255061415,
          -0.03610980322846316,
          -0.06388483996626905,
          -0.07712864558692167,
          0.06107659912329745,
          -0.010845478685466689,
          0.05106609955907231,
          0.030066871430888605,
          -0.054473332032844955,
          -0.011998804078269257,
          0.004790195407085157,
          0.1030005796322669,
          -0.011173750736307718,
          0.010535398445605111,
          0.008167563464670735,
          0.052925905857898595,
          0.0011328446014838207,
          -0.18162552387914319,
          -0.02632839963955087,
          0.10536939866313824,
          -0.005468523636662087,
          0.08147836985823367,
          0.20812558224610694,
          0.01582124375616774,
          -0.003117708777904476,
          0.09000270678773334,
          -0.0539194089704391,
          0.13239530052419715,
          -0.019986503055543923,
          -0.042619739440980214,
          0.19154109175472103,
          -0.000446890504624747,
          -0.027555680411158776,
          0.0910142300343421,
          0.06730407488063528,
          -0.17928173105561812,
          -0.17074133257296253,
          0.14590517434981312,
          -0.108229938132312,
          -0.06340315709022554,
          -0.06680610083665996,
          -0.0005523759440921045,
          0.07571513529921291,
          0.046204065468535685,
          0.0009207259124494681,
          0.18725301241072284,
          -0.04269530566433867,
          0.16864656241959844,
          0.003512627977962634,
          -0.07020781249534662,
          0.05702149600466158,
          -0.1489486256130731,
          -0.06472217956713451,
          -0.03962967585619864,
          0.11870528992290179,
          0.12849862277018742,
          -0.13332345318547395,
          -0.12290292618660732,
          0.13745802629813111,
          0.11963128278535856
        ],
        [
          -0.025530101367667174,
          -0.008846387726094555,
          -0.060553123786991424,
          -0.058674756558206614,
          0.041868390875281054,
          -0.11348031641869122,
          -0.026624966057528742,
          0.01666759756869836,
          -0.0803795915490626,
          0.0653451693796319,
          0.023678428858825224,
          -0.18694080381371847,
          0.18420810100813878,
          -0.07408092219284404,
          0.06187229438547641,
          -0.11023699141337537,
          0.12922191164123187,
          -0.032360929689805064,
          0.012105327829308557,
          -0.20199313923712942,
          0.10017459073262266,
          -0.1801128360320899,
          0.21691628787971198,
          0.19561653684927452,
          -0.0768964965602901,
          0.03673841755488324,
          0.03223124042779614,
          0.20258060644446374,
          -0.0047699896438511465,
          -0.2130540431536566,
          -0.06462749167551642,
          -0.02684672199283032,
          -0.05634745846356784,
          -0.09345006223934064,
          0.036871429942428514,
          -0.020416854998210915,
          -0.03612836110300552,
          -0.017675850049746616,
          0.0017843408654298273,
          0.20099777397555085,
          -0.10372514981959816,
          0.0800987007201789,
          -0.15943417972619048,
          -0.2190593389819119,
          0.0446689740457826,
          -0.11511468486513994,
          0.024968084733654493,
          0.046872047404675994,
          0.13425759382598548,
          -0.08273385781051319,
          0.1560879390593506,
          0.09542420369432386,
          0.014946218632682843,
          -0.04124179568023361,
          0.0332451043369841,
          0.10171042508932235,
          -0.21743940456330907,
          -0.134136244989155,
          -0.012591607667446108,
          0.04182856882153181,
          -0.10734944830704901,
          0.09805918528199427,
          0.05518158885286672,
          0.18627926628324948,
          0.15608043372562075,
          -0.09634783959309041,
          -0.10572632141682382,
          0.08959483129956052,
          0.14275806345170008,
          0.013429635006521225,
          -0.13036359743711837,
          0.029789551897169364,
          -0.022447359088973416,
          -0.04388105514415656,
          -0.02555483829703306,
          -0.06531737504476968,
          0.01932148698511349,
          -0.13443226177599932,
          0.0022692602911565255,
          0.01764014981659531,
          -4.907875122877341e-05,
          -0.10758847367832687,
          -0.09261174205077162,
          0.14871967307464004,
          0.08973903362719675,
          0.027654999568874825,
          0.009024335033702514,
          0.27438166095901856,
          0.016851756218324212,
          -0.0010594317566767542,
          -0.030892756257273436,
          -0.02325235246202703,
          -0.01262909849762785,
          0.24766611906353922,
          -0.02535479605510825,
          -0.14186631843766528,
          -0.0033616358186415994,
          -0.16676494751317747,
          0.028571212234106757,
          0.027866228854612277
        ],
        [
          0.16052379732586688,
          0.08652901149272005,
          -0.15299153320945977,
          0.0009476174708951794,
          0.019209723600941676,
          -0.05545355013818316,
          -0.07323462686484056,
          0.09351715871118466,
          0.02106066416910639,
          -0.023329362550940855,
          -0.010804973623582228,
          -0.043163411095178364,
          -0.06461757821972346,
          -0.08647691141588748,
          0.17967991083115706,
          0.0654494095690309,
          -0.15825311371811895,
          0.08982890581642619,
          -0.23770160671547175,
          -0.00897993380776141,
          -0.014616013067264167,
          0.0012835909298492252,
          -0.02797103611351618,
          -0.038871704243606246,
          -0.10543327087821754,
          -0.13953605522438128,
          0.0452310906077296,
          -0.11130534587932613,
          0.07642864632753861,
          -0.22120310578385646,
          -0.018541160873357884,
          -0.05334597542596229,
          -0.02026846016270158,
          0.031916225500113866,
          -0.09660764853884075,
          -0.04204087659330827,
          0.008177218952694507,
          -0.034292560840522845,
          -0.05998238635828567,
          -0.15819126669413627,
          0.07040456565107839,
          0.14881827930418107,
          0.10528926598799014,
          0.05656240470369159,
          0.02169801367349899,
          -0.10948887552612646,
          -0.10376193420929469,
          0.0041029574320742435,
          0.08548752547205994,
          0.1152638799608961,
          0.07775246955120774,
          -0.07654840344051804,
          0.0872553210535807,
          0.003324425788408775,
          -0.18078713250470121,
          -0.10084236400176574,
          0.18214825724357012,
          0.2585298033131192,
          -0.11205623098386824,
          -0.020883060448218693,
          0.07597730483185293,
          0.01351548329285218,
          -0.056003939282410396,
          -0.03650300092447699,
          0.0067463779983667855,
          -0.054710736981653164,
          0.07556681955794016,
          -0.06640509426754918,
          -0.08920894355367105,
          -0.12173450519577184,
          0.06912977967726151,
          -0.03133054074325253,
          -0.031320438801041836,
          0.18554313425919963,
          0.015023295111026591,
          -0.05518346116722748,
          0.12657593419186747,
          -0.044529894955640664,
          -0.0007562406337805439,
          -0.11722901704099696,
          -0.18955740672567264,
          -0.024909817718394674,
          -0.12406135538291285,
          0.1590395036558216,
          -0.1250471428375655,
          0.07101794693577097,
          -0.0713809219360412,
          0.15639113277466296,
          0.030236577550845724,
          -0.11002211516166786,
          0.15674263544965608,
          -0.09062353922638017,
          0.12004704933173567,
          -0.07434512918504213,
          -0.051852653410164325,
          0.119683389940202,
          0.051342064958696754,
          -0.0768222637922461,
          -0.04647063847079194,
          0.01496702928356026
        ],
        [
          0.16972582316852147,
          -0.037151662971938094,
          -0.08070271518254009,
          -0.013083573117718945,
          -0.06701737356796782,
          -0.09978379214037551,
          -0.08269420873559777,
          0.06080629703223401,
          0.0727350992953631,
          0.17115206817387116,
          0.007433802018483414,
          -0.08895229093609147,
          -0.049528451405993434,
          -0.08047529381231043,
          0.025481360374677305,
          0.0087434894044815,
          -0.1019808953913323,
          0.04995362042909652,
          -0.009783935762092195,
          -0.05814460294166538,
          -0.05982239549180553,
          -0.0523794714526431,
          -0.10397145164817241,
          0.1325001934990339,
          0.004530639254793944,
          -0.21176121937605857,
          -0.12722631393123582,
          0.12213133055596867,
          0.21025177643024948,
          0.09500763398865436,
