{
  "hidden_layers": [
    {
      "activation": "relu",
      "biases": [
        [
          9.488399292644281e-05,
          1.3402098603372327e-05,
          6.224006131767932e-06,
          0.0002634960963807323,
          0.0002883167846239825,
          -0.0005113971422324075,
          3.571159749421656e-05,
          0.00035810267462868186,
          9.540408315506862e-05,
          -0.00027417131751962607,
          0.0003134653550238874,
          0.0006876241875113065,
          0.00020933134967820728,
          0.0001657030070240155,
          -5.621666356572573e-05,
          0.00031919786708763613,
          8.058090654562054e-05,
          1.3781998850885144e-05,
          6.988449171295462e-05,
          0.0004113133665605129,
          6.610585552635173e-05,
          0.00010455810815266212,
          0.00017907073963793863,
          -4.37479991562708e-05,
          -0.00021538604902147647,
          -6.79546229716495e-05,
          0.00019983189826179457,
          -0.00036297375930626565,
          -0.0003728475459034072,
          0.0005542163172206105,
          0.0001744484972945796,
          0.00012809929247347063,
          -0.00021309202680190392,
          0.0005040751258690773,
          0.00022577253154472483,
          -0.0002861936668920769,
          -0.00030498787742661,
          0.000313751609116026,
          -0.00031486636639017093,
          -6.176670479957969e-05,
          -0.00027103577376047657,
          8.174626459291995e-06,
          0.0002633614912998186,
          5.773329128443955e-05,
          -3.166785928239129e-06,
          1.5446079298637753e-05,
          -0.0002635022495223745,
          2.0407171053366068e-05,
          -0.00023325028932284688,
          0.00014369325877020082,
          0.0005195910418097202,
          0.00023567071162002492,
          -0.0006625460707455719,
          -0.0003487940693597558,
          0.00013650184642958124,
          0.0005172112232894729,
          0.00012213090762409722,
          0.00017407144609482255,
          -0.00020074691572304532,
          0.00020630021110182176,
          -0.0002263066090946847,
          0.0005008487484519668,
          -0.0006823408191045683,
          -0.0002618875501328357,
          0.00027236228771304437,
          0.0003677978870575736,
          -6.446068875947048e-05,
          0.0006138377693898485,
          -2.3873196677790156e-05,
          -0.00016692382201315237,
          -0.00036003851229467437,
          0.0001011792024307482,
          -0.0006074825432441085,
          0.0002078640310706918,
          -0.0005752795364712824,
          0.0005457373187207392,
          -0.00011676289168993771,
          -0.0005609355638854524,
          0.00011769164743343165,
          -0.0004050075589233479,
          0.00016670947594669597,
          0.00022775013334110412,
          -0.00016972058748355306,
          0.001020755329044468,
          -0.0002787035096165076,
          0.00028777907752971946,
          0.0003127690617571169,
          0.0004092811938661657,
          -0.000246001655925767,
          0.00024609312227358515,
          0.0003979732443493924,
          0.00030965934293940013,
          -0.0004700616895143019,
          -5.466058862208459e-05,
          7.958887271552615e-05,
          -0.00025481905857957277,
          0.00031469887222841284,
          2.529037853342684e-05,
          -0.00039046987660562837,
          0.00023919009570916275
        ]
      ],
      "weights": [
        [
          -0.14672828118567777,
          0.14592152071879988,
          0.041185560645352816,
          0.028472147257741765,
          -0.08892456287630372,
          0.18343988911684062,
          0.08508076752464246,
          0.14912465657249557,
          -0.22759600319636145,
          0.032181831353483126,
          0.10698449165495405,
          0.020573647199135212,
          -0.07582921184653008,
          -0.03272514837014294,
          0.006390760026280973,
          0.013433879789521354,
          -0.06401609925450062,
          -0.05120213779244845,
          0.01695961923359022,
          0.040508971453982606,
          -0.1324060713062523,
          0.015444046510014856,
          0.1572224748699128,
          0.04985802296886278,
          0.08289964971778196,
          -0.06406983632710743,
          0.014490028579814027,
          -0.25273586069174764,
          0.2688329732101598,
          -0.06629210772472373,
          -0.13380913502717365,
          -0.1076571290149817,
          -0.03523136503143353,
          -0.03272824311550403,
          -0.05786525475943877,
          0.0566203630069336,
          -0.04092004311507552,
          -0.029717748772372144,
          0.06427565235924391,
          0.15226969194728424,
          0.05444184718578121,
          0.12300590318490601,
          -0.13395163497657298,
          -0.04998041133780445,
          -0.1654446556587884,
          0.006237103210565316,
          0.09465328186172499,
          0.07205168634488267,
          -0.14716522096807036,
          -0.1639195528371501,
          -0.10449039572576087,
          0.26299768264817547,
          0.0814404561309464,
          -0.021037684332953,
          0.10399132604747624,
          0.03780109106517648,
          -0.03806087455482332,
          0.14032112343675263,
          -0.10864291670519291,
          -0.05440318912047937,
          -0.12223065828801004,
          -0.06244040559345511,
          -0.16070120508856495,
          -0.04336435040866374,
          0.10131621925282036,
          -0.04657832716480067,
          0.0818186487890356,
          0.16024090458503315,
          -0.14195124712057142,
          -0.10440336034803044,
          -0.03685473552269139,
          0.020748003176972143,
          0.07656365684882316,
          0.08849861018410093,
          -0.11276847347085964,
          0.0611054084747112,
          -0.042564417760392305,
          0.12031259896182665,
          0.1451038363034751,
          -0.061750629396086325,
          0.10188524738830498,
          0.0659416516944391,
          0.1872149276814309,
          -0.037011904280550144,
          -0.007460866150014557,
          0.016379327683565297,
          -0.09313185789237681,
          -0.032256389042611494,
          0.12135981817031843,
          -0.01208896108554406,
          0.0796395886587829,
          0.018820271358745384,
          0.07335701000912208,
          -0.03744652491560261,
          0.012768695965165614,
          0.15754844688194478,
          -0.11584141672650705,
          0.03764363740814249,
          -0.017439806776371424,
          -0.03440885014165339
        ],
        [
          0.008930940931097038,
          0.17356489072504472,
          0.06431416981314668,
          0.06229735336592105,
          0.15725217029167915,
          -0.12596334020520408,
          0.06662061514268532,
          -0.18594307985893985,
          -0.006454603304057359,
          0.07137015521908802,
          0.04146378640056423,
          -0.006221733146280332,
          0.047922219360523696,
          0.036552458443746494,
          -0.09234235827249819,
          0.14306591745996075,
          -0.18991420697229966,
          0.08648529783403838,
          0.05412975539027192,
          0.12540292786773863,
          0.03780438594133037,
          -0.005756300323607064,
          -0.05933660651913663,
          -0.018325008582041117,
          -0.03673657144778822,
          0.09719874558903736,
          0.035171811553038036,
          -0.06862122484256857,
          -0.14293255668067417,
          0.09125079537599914,
          -0.04093037696537359,
          0.0650807066756306,
          0.20719612288583378,
          -0.3711252953637769,
          0.008391404346854701,
          -0.002871475077135269,
          0.0057764630083319895,
          0.08584144053405884,
          -0.12497941837782518,
          0.06266027894632867,
          0.041124062229095336,
          0.2908202315424339,
          -0.07872396043547086,
          -0.04417298461725419,
          -0.04728963205741441,
          -0.15365786749494348,
          0.10198170250028249,
          0.05413040257537142,
          0.11241064546495466,
          0.03839659678969208,
          0.09394186774548513,
          0.21917803235940167,
          -0.11612835930722726,
          -0.11021018156487102,
          -0.011628168599979616,
          0.10419529531657688,
          0.007070001897609374,
          0.05180551464639023,
          -0.040174194194905394,
          -0.15504261278079837,
          0.002699210768373388,
          0.004262825594648743,
          -0.021269359433821015,
          0.0726703404770966,
          0.09333720953848414,
          0.07669353894756108,
          0.07040107907264358,
          0.13592143006190413,
          -0.015472991201946862,
          -0.05653436485913595,
          -0.027761553175361182,
          -0.08468723831517572,
          -0.006027923127680596,
          0.035484233176153394,
          -0.059834854771337855,
          0.009353489162027476,
          -0.0760333225907219,
          0.04729694036139698,
          -0.06753056121254825,
          0.03104575198553025,
          -0.011977685228221594,
          0.0030789044837807606,
          0.10396848778424556,
          -0.0112084300809498,
          -0.08376970640900763,
          -0.10821272179593011,
          0.02097915028777201,
          0.026713358549762006,
          0.04338997724840961,
          -0.21292983768787677,
          -0.20221857410675598,
          -0.027735113882355857,
          0.08278065317288219,
          -0.043154850129810914,
          0.10644068031371512,
          0.030252044166355713,
          -0.10846567414488745,
          -0.1016205637864385,
          0.110627924535253,
          0.08869631966588003
        ],
        [
          0.040086544822323926,
          -0.15891717631570793,
          -0.09775936718477919,
          0.017391472961225694,
          -0.06713586962414626,
          0.11991409250691379,
          0.06740494079564362,
          0.05992723433472094,
          -0.03955560306339659,
          0.14152934599230477,
          -0.008362469639758549,
          0.05502212384512054,
          -0.08775194892637395,
          -0.05110688852732921,
          0.09857998481479631,
          -0.01807449405269693,
          0.06642707133197766,
          0.0625295263113306,
          0.059823902688949764,
          0.13579050931423597,
          -0.10102738411127164,
          -0.08802718888214188,
          -0.07746955979992626,
          0.09560798884727731,
          0.05454367697790422,
          0.061118056562914094,
          0.1124027068976939,
          0.0948749700267044,
          0.06781829613128235,
          0.10448682496331346,
          0.08220143334275805,
          0.07403712879431733,
          0.03412193009308861,
          -0.1600243376371528,
          -0.1831582363800406,
          -0.03460235100167275,
          -0.039172073833890084,
          0.050585007666010096,
          -0.07221597781232829,
          0.20363241507027852,
          -0.06623944323540754,
          0.019323509089622888,
          0.027933083938883354,
          -0.1688820773132418,
          -0.020540122419150614,
          -0.09825591302024672,
          0.14714416852753617,
          -0.05271475825338184,
          -0.025664658533320256,
          0.05387689411834708,
          -0.07964096262880306,
          -0.03401425955647721,
          0.23951980233502268,
          0.03999524437479754,
          0.03015636889906368,
          -0.038404171807663735,
          0.14574004265315718,
          0.03214748538870978,
          -0.10761437343645806,
          0.05262411278764456,
          0.04067540209428576,
          -0.02724849734328278,
          -0.08846626400387753,
          -0.23452850023649768,
          0.12363123510087251,
          -0.019032262618924933,
          -0.05308812111552977,
          -0.14126415867727823,
          0.03402062917209805,
          0.11148192855904933,
          0.001105051406599622,
          0.0016483379439621263,
          -0.00837990912376807,
          0.052267304334198406,
          -0.07436556688461718,
          0.04788171976507444,
          -0.0036448550956947566,
          -0.03058079198869474,
          -0.0051804816087677626,
          -0.07525655320801761,
          -0.014500180545606462,
          0.0010970661147887124,
          -0.055726476341969325,
          0.2547395805659859,
          0.044677079047808356,
          -0.036330126850834636,
          -0.02230680414429911,
          -0.08981274466751672,
          -0.03680036518050333,
          0.08501044191271591,
          -0.022867929455964095,
          -0.007493571930388632,
          -0.08496020617805326,
          0.07464650577736516,
          -0.049407738636562885,
          -0.025923555569236468,
          0.06620590314563578,
          -0.06031254920799392,
          0.09798616460696345,
          -0.047708313361816156
        ],
        [
          0.026177704436701518,
          0.06190828555833015,
          0.09990423939335658,
          -0.0009490441513036444,
          0.16191905790618366,
          0.15343748794297896,
          0.07399630660053111,
          -0.0820728085922798,
          -0.1451348490125947,
          -0.17509809121737258,
          -0.00879022366482567,
          0.031359022864700485,
          -0.12756270205479942,
          0.031204679487553223,
          -0.06799794002545978,
          0.02873894814334775,
          0.010066418644712513,
          0.004526524133171344,
          0.01421330051671689,
          -0.10213369939508514,
          0.0018740245378428804,
          -0.03294665937053437,
          -0.041561980206291135,
          0.08669833918225027,
          0.08770845898939884,
          0.13070712939612059,
          0.012068145056149164,
          0.060432646603602855,
          0.032092053553119254,
          -0.04197449188260794,
          0.04626689553023736,
          0.18921391494901105,
          0.06892249687122647,
          -0.008345421358665749,
          0.019849602937272004,
          -0.01990035473574363,
          -0.08987608638063643,
          0.07623186522888226,
          -0.04070809427418679,
          -0.07336141341374967,
          0.012151550710217908,
          0.09611849051845005,
          -0.027817236275877417,
          0.09132615841346187,
          0.07061342828296391,
          0.0017735921068640723,
          -0.07799828011944224,
          0.012958806522579079,
          -0.14335882894254418,
          -0.09726080995934903,
          -0.03808555252862375,
          0.03817998523528713,
          -0.020246087257909648,
          -0.04903359235224483,
          -0.115748007732113,
          0.054953950116336886,
          -0.05278016720004363,
          -0.10029853651064313,
          -0.022120661349549153,
          -0.07001564939003854,
          -0.004706247339932914,
          0.18447866795476445,
          0.08032551001058899,
          -0.07986199474023802,
          -0.1173230484143585,
          -0.0882815144742204,
          -0.030355530797981867,
          -0.02544948649150883,
          -0.11877238168820692,
          0.1075107428650277,
          -0.06906572269475317,
          -0.110905411502018,
          -0.05265268890516672,
          0.04470353740581484,
          0.15533372434369835,
          0.1758264869330753,
          -0.09507913046450905,
          -0.11739984837972567,
          -0.013178284526113705,
          0.10302600952878058,
          0.06782560713887549,
          0.04607712355919797,
          -0.009422962186221755,
          -0.10374032565326273,
          -0.07228391716950017,
          0.01355686243501911,
          0.12809246604962832,
          0.1731259048271792,
          0.12279459435673097,
          0.02632174312955968,
          -0.16067336273852073,
          0.07579980711772225,
          0.017701899585036613,
          0.05503285539333243,
          0.08451763829927267,
          0.04603137989204799,
          -0.09335935239382198,
          0.0023662326960277387,
          0.03315149566521272,
          -0.12812880057668014
        ],
        [
          0.06068026064629985,
          0.08134463971139234,
          -0.005116168278311019,
          0.06887145043832772,
          -0.017779512981931058,
          -0.06028964597879797,
          0.18740763914985492,
          -0.09383429134672519,
          0.11422536691102012,
          0.04624653127958516,
          -0.1267924838476863,
          -0.05316034330547504,
          -0.02629456858841581,
          -0.013437574071622839,
          -0.12949921237379608,
          0.08276918176335987,
          0.04954867487780992,
          -0.09007038904531868,
          0.04520620450895241,
          0.14742074180401554,
          -0.1767563901650149,
          -0.12096970808396348,
          -0.12696748086305493,
          -0.12385656610746955,
          0.007964572627023388,
          0.09032295774808673,
          0.026455690889835355,
          0.17746343701049977,
          -0.12286956777707331,
          0.0043081206166975215,
          -0.04455294878977919,
          -0.045769288040516665,
          -0.09322151687028808,
          -0.04167207615669592,
          -0.01283372228191234,
          0.08268382031252221,
          -0.14469607284908903,
          -0.051063446618166856,
          -0.011825822198428653,
          0.07235268418416839,
          0.02019684671335217,
          0.07915192814300026,
          -0.03691196991713918,
          0.016062862460230268,
          0.02546924177677721,
          0.11827145007511018,
          -0.014605581840053703,
          0.09671036421605965,
          -0.07179403492369299,
          0.009629047603768327,
          0.06704318149485966,
          -0.12379392869435622,
          -0.025339431231722415,
          -0.11699232951152748,
          -0.03515777470297679,
          -0.041517489805524645,
          -0.003663982255613327,
          -0.03909293981682355,
          0.14501593885129868,
          -0.09103417070211559,
          -0.21839284839078676,
          -0.07915742521092325,
          -0.017478449897626584,
          -0.03002299867064712,
          0.06459152948582986,
          0.17960533083386787,
          0.14954384463090298,
          -0.02799843193754663,
          -0.005066571012074048,
          0.22246781172399271,
          -0.137700713015748,
          0.027888380539356515,
          -0.0585844684102477,
          0.04832347683300129,
          -0.05852665541904811,
          0.04234053467197204,
          -0.22487386422364936,
          -0.1159427399347152,
          -0.08414758253869786,
          0.1279999222924442,
          0.025584843351680008,
          -0.015609297868509094,
          0.15951702614235932,
          -0.24028452822317017,
          -0.03951332456677883,
          -0.05915681615867703,
          0.0998205336232386,
          0.04745802605874887,
          -0.15537950120845836,
          -0.026439768180618002,
          -0.04440621887932028,
          -0.19134993051546484,
          0.18459520924379336,
          -0.044831520455741784,
          0.2153317414347075,
          0.029076562290542243,
          -0.14790124600600985,
          0.03904237798991857,
          -0.13225804589098838,
          0.2357841754829696
        ],
        [
          0.038589918481715,
          -0.04011217147511089,
          -0.036724420627914874,
          0.10935825424727252,
          -0.00600121203953491,
          0.1024484310071141,
          -0.03537325653022147,
          -0.005684220080403605,
          -0.005877385757510324,
          0.026128724432530746,
          0.03428853025231596,
          0.049445498254710264,
          -0.031210815475313364,
          0.13681358337908436,
          -0.01565290849098131,
          -0.0059261560190985475,
          0.07284164267970553,
          0.012519182230421044,
          0.046041828528957766,
          -0.19355020105236898,
          0.08469789514591526,
          0.13278042123116662,
          -0.0751847198890455,
          -0.04506817128848195,
          0.03182746820420555,
          0.008997109936449374,
          0.15247685814481474,
          0.008142757231986994,
          0.28925043298682296,
          0.00038695568508402984,
          0.016244400419509433,
          -0.009947049307212168,
          0.06851492820471959,
          0.08733024529541436,
          0.03199125763246823,
          -0.038109845386257064,
          0.15342904829849097,
          0.08770786345242945,
          0.01695016503528085,
          -0.03081112223117346,
          -0.1664799006684755,
          0.18137133306466768,
          0.06464569729269384,
          -0.00462523403445615,
          0.18686964041989237,
          -0.01442566175438631,
          -0.22174295876074335,
          -0.15095216292200456,
          0.12342633496543494,
          0.031185936456140966,
          -0.292514965153544,
          -0.25629584233641,
          -0.10322618114173576,
          0.01256502411177254,
          -0.01290570839271407,
          0.09837985557153116,
          0.031545691964856175,
          -0.035264365466915845,
          0.015092875876503134,
          -0.039095713489257305,
          0.046821206749121394,
          0.059815088541273646,
          -0.04628455528607967,
          -0.1381275152388045,
          0.08658413770170023,
          -0.32556339669681156,
          0.03810505781775793,
          -0.06710280266623397,
          -0.02594893381184885,
          -0.06209384373268694,
          0.00842859910705647,
          0.08468793939697362,
          -0.10519259673626555,
          -0.09276523124913377,
          0.054926595006723394,
          0.1380483098437053,
          0.06107944679413212,
          0.09544483794982411,
          0.07714989902134649,
          -0.018697194814200534,
          -0.040063743722217694,
          -0.04381655315922103,
          -0.035116052034595086,
          0.021088585646077074,
          0.17395001879646657,
          0.01122305591790706,
          -0.10320731556354261,
          -0.05135062021914757,
          0.16593829130361462,
          -0.03411583534041234,
          0.040108306358362,
          0.18125124514784582,
          0.14268143043114612,
          -0.2157974297287759,
          0.03495312610719726,
          -0.02280387380942424,
          0.14621531278347605,
          0.08306554923986538,
          0.030456785804586342,
          -0.17994019472622574
        ],
        [
          0.05901437786166901,
          0.040104360457554805,
          0.12007521933658628,
          0.07947228535774649,
          0.11783342602120254,
          -0.006436800491580402,
          -0.12907736063242148,
          0.036420508822857314,
          -0.2117471581650167,
          0.07977714722180931,
          -0.03162085381665602,
          -0.1692187285298567,
          0.0373087175084407,
          0.25168714216089,
          0.026313685114641067,
          0.13862316426197502,
          -0.05149064334425456,
          0.012742765895953256,
          -0.030160677417796638,
          0.10621074943369811,
          0.12767517201726708,
          0.08751138610030446,
          -0.1456354951441721,
          -0.08474156048390269,
          0.07580127510209313,
          0.02621198297131851,
          -0.07349937422514675,
          -0.029065217939877375,
          0.23876194057001796,
          0.06007272747288855,
          -0.10299610660808517,
          -0.07495228749173279,
          0.05997864780578162,
          0.10123799625656442,
          -0.07847165767923112,
          0.08486582441246421,
          0.13214262734325385,
          -0.16298021022138634,
          -0.010400511381719189,
          0.07169318015604643,
          -0.007229580509053674,
          0.09986792625759669,
          0.07815598371730387,
          0.06337101661242012,
          -0.09968018186662896,
          0.02243238011341603,
          0.0591511171885698,
          0.10159164273162567,
          0.10105189510211385,
          0.10262550938050448,
          0.06072349833001985,
          -0.024817239633233262,
          -0.10770079647043114,
          -0.047303866353932904,
          -0.023926709652852544,
          -0.061527415121337255,
          0.03305704060383803,
          -0.037195458662405444,
          -0.06554303296625279,
          -0.010733514492723244,
          -0.019380428158682746,
          0.05858570478966051,
          -0.015462985852681056,
          -0.006716612392453437,
          -0.13265501388934697,
          0.07283693736790338,
          -0.085461501325614,
          0.15575817720464497,
          0.20206657372984146,
          0.08113001513272956,
          0.014658649591716881,
          -0.18470885720763727,
          0.1388902412366422,
          0.1291756415510445,
          0.2013936675041825,
          0.2915780584547954,
          -0.06332525066743035,
          -0.03269583647196425,
          0.24490804154251514,
          -0.07461706688820492,
          0.027783673970505032,
          -0.11799331804985327,
          -0.15070248495492242,
          -0.15380743375734385,
          -0.13899433730837474,
          -0.0013563534322975528,
          0.058879905545908565,
          -0.04818169407399592,
          0.1330817683594781,
          -0.18382761245382725,
          0.1239081821571013,
          -0.08772637031953753,
          0.16845572285047697,
          0.010599391310762825,
          0.07169455944258148,
          0.07590083357066382,
          0.23512918106703182,
          -0.040860470759491695,
          0.025158681475305127,
          0.05111530598822622
        ],
        [
          -0.08064642398759993,
          -0.08827251617809045,
          -0.022103872602841627,
          -0.10237370695061351,
          0.10866794706774868,
          0.12242552310204353,
          -0.06190991807794579,
          0.10795397948163657,
          0.11780261916605234,
          0.22187976990471012,
          -0.03995352389844766,
          -0.015881260842724808,
          -0.17620371320497175,
          -0.06985147413649308,
          -0.04701486262130026,
          0.024935806596250124,
          -0.14796184223031492,
          0.24561532577200326,
          0.07077221773559152,
          -0.044653937596080315,
          -0.03939396967450586,
          0.15808204791889277,
          0.017446198060317032,
          -0.010341636213423688,
          -0.05617834520771751,
          -0.006656577145696114,
          0.22030078374063347,
          -0.004662163286973082,
          0.07391837649892871,
          -0.05501799890782798,
          0.06222530408776223,
          0.09085291249100434,
          -0.10543828617019835,
          0.062283634541716044,
          0.022143850367035645,
          -0.0702992378618575,
          0.031191789374267635,
          -0.10377526087861952,
          -0.11516430192377414,
          -0.05407633348716852,
          -0.055434306417961744,
          -0.1626120105333177,
          -0.1762057472244747,
          0.07170277058842213,
          0.1370243371199164,
          0.09906777373754606,
          -0.045037042058475724,
          0.1408278167779422,
          0.18598450658714513,
          -0.04047023082884549,
          0.015526268050248352,
          0.17053093007056808,
          0.052643286958332314,
          -0.018710345654642305,
          0.1275374660813785,
          -0.03289343429370066,
          0.0784618173527773,
          -0.0896148746844511,
          0.010995955576109983,
          -0.11986678992435781,
          -0.002426913049793242,
          -0.20935835481823262,
          0.03889031221185712,
          0.146637805370376,
          -0.003066572956811846,
          0.09237057398832074,
          -0.012680607422806401,
          0.005452856079537774,
          -0.1798256526707279,
          -0.022048683298251954,
          0.1676995705905245,
          -0.02516593665913052,
          0.014221365132594706,
          0.19451027890413694,
          -0.07154882634431405,
          -0.02160362825714165,
          -0.10859104409661484,
          0.05034970382839992,
          0.030402168252739222,
          0.01743423453757584,
          -0.022632095539359555,
          0.062789548945262,
          0.06080580573138491,
          0.040215782777866624,
          0.14906250863936754,
          0.0355762864868633,
          0.14649931809703287,
          0.00423733123933655,
          0.007430560943027919,
          0.21056116481917644,
          -0.011256541700617642,
          0.2045295835454262,
          0.07668650698084994,
          -0.1758319885932442,
          -0.13462598246360605,
          0.19402988593977546,
          -0.11887699331324801,
          0.18369990434221356,
          0.06413543408578572,
          0.13684193739820724
        ],
        [
          -0.1621378367911023,
          0.0014927932474206027,
          0.0300256610222096,
          -0.03595504859951907,
          -0.011312974112981638,
          0.0740222658771755,
          0.0034130933189522087,
          -0.10826407893432374,
          -0.21674455584514077,
          0.004649166638884207,
          -0.01732451571126668,
          -0.059100005111656716,
          0.13839044111266302,
          -0.1601100404270043,
          0.02036221543155753,
          0.057471149928280785,
          0.05915013127614635,
          0.02687104298807717,
          0.028173907399650294,
          0.040186254227706934,
          0.0617321152079143,
          -0.03229249276038658,
          0.06716153428454692,
          -0.14136350272283188,
          -0.022642096400217516,
          0.14599582598402192,
          0.026858562781715126,
          0.019567856845800848,
          0.0830510592248049,
          -0.08221085430281387,
          0.00945981800612166,
          -0.02254342363835716,
          -0.06667773196909264,
          0.03061052315351091,
          -0.015586375814374586,
          -0.028511379495919763,
          0.1253582565236375,
          0.16357914288016423,
          -0.05395149066553916,
          -0.06710787039147498,
          0.021563463691244338,
          0.13404656924612154,
          -0.08555700575311365,
          -0.02181759189059677,
          -0.010380399201133086,
          0.07663482803335943,
          -0.05000207285025221,
          -0.02971963223844543,
          0.03333287598793981,
          -0.07295761656856634,
          0.1784763831838348,
          0.1158715716535458,
          -0.09026771418179538,
          0.07215512235512132,
          -0.11172524492840832,
          -0.000448228016888318,
          0.0035576732223606762,
          0.007134839241360812,
          -0.0361807497654509,
          -0.009331262033757674,
          0.01447141019874776,
          -0.060389459655902845,
          -0.014979002236659943,
          0.19284605806694124,
          0.06596256274322358,
          -0.030249829287972266,
          -0.16735446571338328,
          -0.024867603394658704,
          -0.1537523730459366,
          0.13931176801973888,
          0.10112881272195218,
          0.025652421331946267,
          0.012144950862126776,
          -0.03765588511669427,
          -0.06951254577534624,
          -0.14373464732931754,
          -0.10091111146728644,
          -0.019431708034867417,
          -0.07780128399870814,
          -0.01797767110953196,
          0.09403858373867574,
          0.049283538627483595,
          0.11860882249877143,
          0.01559716631228438,
          0.09500846959057618,
          -0.03597062159044023,
          -0.08803177124316544,
          0.020812372540578532,
          0.014952481425652725,
          -0.007559226203907028,
          -0.04302988627032872,
          0.06878853662544598,
          -0.10657135294763913,
          0.01901891328920142,
          -0.042264619072348956,
          -0.09373778584623396,
          -0.0019304393605839387,
          -0.08763084536201093,
          0.0011916176147646442,
          0.03183193694431167
        ],
        [
          0.003479632285449759,
          -0.014532949152116576,
          0.01846478389528773,
          -0.06518596066699661,
          -0.09629277290467213,
          0.07171916703407308,
          0.11770655509705799,
          -0.00827355839493228,
          -0.03602122480427573,
          0.05931776101339576,
          -0.056860997477871086,
          -0.025711122310647393,
          -0.14630054857959138,
          0.04692301642343854,
          0.15385414490572136,
          0.24825986084034332,
          0.1563103885395251,
          0.02019783247645867,
          0.05603160319398086,
          -0.17855071062704267,
          0.10823932221861027,
          0.03251650052334372,
          -0.07070842821955114,
          -0.04252513784537139,
          0.03289385067144181,
          -0.016447828854718932,
          -0.21554817977432064,
          -0.007544019903934796,
          -0.016297799944988457,
          -0.0428465536969034,
          -0.12603146990847755,
          -0.13259636229167113,
          0.1993395323832182,
          -0.03789948639834087,
          0.0010423978242213537,
          -0.11737090308364265,
          0.003480321766896729,
          8.917307949834597e-05,
          -0.0820413230453551,
          -0.15976783669899758,
          0.05543757798171089,
          0.15435680154908787,
          -0.018487026247063196,
          -0.006443494217715416,
          -0.06934306523762805,
          0.03746752859174662,
          -0.08405997643442982,
          0.027506231847341342,
          0.22118979926935986,
          -0.06182136309609916,
          -0.05211668571484469,
          0.037049747825889476,
          0.015078041069889313,
          0.09228154748092356,
          -0.04813417857965169,
          0.016460804159702518,
          0.006093792417388918,
          -0.21315894681786887,
          0.157716595130667,
          0.04639925614184245,
          -0.031755320737895325,
          0.09892998944389084,
          -0.20142247588173878,
          0.01763577370610692,
          0.007704793013244287,
          0.18758984812947307,
          0.038984430178991725,
          -0.01707405305927831,
          0.1897284203993852,
          0.06845853406442912,
          0.1384918973599953,
          -0.08300201623232442,
          -0.1398360073211245,
          -0.07643050024190494,
          -0.05818626411611302,
          0.16032916247791465,
          -0.036406067189487336,
          0.012668171888867975,
          -0.01786814654410904,
          0.155712092580521,
          -0.006904893416606712,
          0.09610913328647887,
          -0.0007428052731802794,
          0.019334966331512153,
          -0.014744245501035222,
          0.0418660528338421,
          -0.08970973821531256,
          0.14494337074965982,
          -0.22724813176056863,
          0.038737154718744275,
          0.03188318748332736,
          -0.010902292301430564,
          0.04879261492597225,
          -0.07322590817621445,
          0.12071124246579144,
          -0.04063533447663462,
          0.014075877040684642,
          -0.11719458482957443,
          -0.07225723113456392,
          -0.044154937280134816
        ],
        [
          0.2346266780014087,
          -0.13431992280331556,
          -0.04186173446941491,
          -0.21549306447737482,
          -0.0819010043037705,
          0.017720346881875335,
          0.01741252077048002,
          0.028010652893973795,
          0.1341242280590157,
          0.0879924648129857,
          -0.19258300532390327,
          0.025554387918642982,
          -0.08108874251823411,
          -0.07406572302434529,
          -0.06468050968351861,
          0.020997377710788242,
          0.0831976864625963,
          -0.10216632019072244,
          -0.1006981721501353,
          -0.08950159114477088,
          -0.08088228994173711,
          0.0661545243372519,
          -0.004879988376264299,
          -0.03445780409673504,
          -0.020421388416900128,
          -0.14991909192972855,
          0.047405031922371735,
          0.15021036291970222,
          -0.07956941863050275,
          0.05479238280672444,
          -0.05712591446402226,
          -0.06417709093650284,
          -0.09380202192779978,
          0.0839433426853666,
          -0.06769993421987802,
          -0.11705717696008591,
          -0.09281271748617605,
          0.04557181303759595,
          0.19273322024199474,
          0.176773553472693,
          0.08136846712911562,
          0.0867957139514441,
          -0.1786276893585641,
          0.026413379042118015,
          -0.004139075376492102,
          0.03789182248405177,
          0.0734270079582272,
          -0.0765752619649496,
          -0.07866484127563458,
          0.00018482145965222587,
          -0.13387722610947475,
          0.19485945402533747,
          0.07605392272237053,
          -0.013148160468587612,
          -0.07875080572137994,
          0.02743668087921316,
          -0.14591536690956916,
          -0.12053515451451448,
          0.04234110425527962,
          -0.16954125632889316,
          0.05605368845625241,
          0.17563183121533096,
          0.000805221054297204,
          0.03182482206827653,
          -0.0454510648951405,
          -0.08031238168472599,
          -0.03443524179746081,
          -0.12497241197464032,
          -0.02595923374066241,
          0.04455448815899323,
          -0.09445951397272197,
          0.13487539507398721,
          -0.13213401507157443,
          -0.12958430614215977,
          0.06359871683730176,
          -0.1385617166010414,
          -0.006628448850562355,
          -0.1533960118482237,
          0.10801766913066149,
          -0.01915879885824976,
          0.028376609243949656,
          -0.06791324665637771,
          -0.01779843032760388,
          0.15087277378559177,
          -0.008193764174321794,
          -0.1425856780461589,
          0.04594098816721311,
          0.053918773576558755,
          -0.09187396981913525,
          0.027453582598401003,
          -0.05095702927689991,
          0.19745273880483316,
          0.06510760344948305,
          0.04798169086515752,
          0.04888224643762513,
          0.11184483450707021,
          -0.12301573408300738,
          0.01180185992785129,
          0.024614913204351555,
          -0.09326519698754673
        ],
        [
          0.0009360437456619103,
          -0.024551276681577073,
          -0.0032972829180831,
          -0.013267168769865775,
          -0.05175211702384123,
          0.10850068315814747,
          0.07942490665188295,
          0.029429304436499642,
          0.03304171489699603,
          -0.09290515676702835,
          -0.013731161170227532,
          -0.0634770451523379,
          -0.0735770671334411,
          -0.19876538991185294,
          -0.06565253160467772,
          -0.062024906741959596,
          -0.0824840835653268,
          -0.01285842607664834,
          0.1229175645134013,
          0.020573547726786556,
          -0.06079083018588585,
          0.054677539257119524,
          -0.2171550731277096,
          0.04517512293105859,
          0.07817087975143734,
          0.1287158280528262,
          -0.012391792807327037,
          -0.04885043967202539,
          -0.07857653531786656,
          0.04730512068047825,
          0.10677047371738271,
          -0.06791172396045361,
          -0.08461061858413799,
          -0.13146737195430244,
          -0.004304236462044441,
          -0.09834382107455462,
          -0.041082538857464455,
          0.061004032048278346,
          0.004799411991473172,
          -0.08807566156339237,
          0.07597896136347097,
          -0.0525871257540622,
          -0.04467980189030276,
          0.0943354700644712,
          0.05049471119754543,
          -0.173382382153224,
          0.0433870341826527,
          0.05229612132272279,
          -0.01714782346844227,
          -0.0029491806531768017,
          -0.1610163065873172,
          -0.11586866569108542,
          0.13201273175753123,
          -0.08155243592028531,
          -0.0036876326348572893,
          -0.23453931765320457,
          0.004635666574730308,
          0.021131559379433704,
          -0.0700022151528504,
          0.03487324314306272,
          -0.061803388309933774,
          0.04632730112737463,
          -0.1055623055069349,
          -0.07895252990779307,
          0.013020013765447562,
          0.0649375708956726,
          -0.07088717178530189,
          0.0817027909976859,
          -0.015973608211491713,
          0.06949513894088544,
          0.03346796730779214,
          -0.11242788833554704,
          -0.05919844208145852,
          -0.024094485256388153,
          0.04296963621904108,
          -0.10595366954000425,
          0.20955961072137586,
          0.049143443094718575,
          0.11958697383717053,
          -0.03747849798236541,
          -0.09243377404509279,
          -0.1251580780793791,
          -0.06865323332778535,
          -0.05042787597670543,
          -0.1950162067740807,
          -0.06059327033637567,
          0.13599218055842527,
          0.21095868695100078,
          0.13940547500783776,
          0.0073474319692647,
          0.005546423956106255,
          -0.16754222386101605,
          -0.11183715224767539,
          -0.06403203066619938,
          -0.1739572886498962,
          -0.11319682471020834,
          -0.10376386880054254,
          -0.073359439254598,
          0.008425596958893014,
          -0.0892134107652304
        ],
        [
          -0.12245252850493932,
          -0.05733784485066516,
          0.07286834722849163,
          0.20709453290446359,
          -0.022649457417357827,
          -0.05328811977187891,
          -0.23088162605277615,
          0.03856505488737365,
          -0.033115273762049986,
          0.06774557072464406,
          -0.16831550417070273,
          0.048044600011815194,
          0.10095401664577515,
          0.08278020633394541,
          -0.0023720159733650603,
          0.05100094546123756,
          -0.04751800267097729,
          0.0508466398044779,
          0.009394717467437643,
          0.01157582482937091,
          0.08871706277009093,
          0.11922142172944748,
          0.08991411321963912,
          0.004900605892754337,
          -0.049808801252639937,
          -0.1288198699962512,
          0.12064644292141792,
          -0.02546173714256156,
          -0.06922558150731309,
          -0.05676886558531597,
          -0.06819955321828032,
          0.08333490908377812,
          0.07090594899677236,
          0.11689625965971652,
          -0.03669437131029643,
          -0.12680125778951495,
          -0.06798462543489708,
          -0.10894325269386196,
          -0.0035186485990724207,
          -0.0025974377827000707,
          -0.0009700529240984273,
          -0.03495431408406483,
          0.029832852280679608,
          0.08142198871885932,
          -0.05631052017049248,
          0.06427866272361966,
          0.02287678802848548,
          0.06405392336042255,
          -0.053679977065440296,
          -0.1002536480261363,
          -0.021806453859627727,
          0.10353581448365294,
          0.2127943955095846,
          -0.02393611145744698,
          -0.053717826367727116,
          -0.13562342028363697,
          0.05586704561433113,
          -0.0757848626169454,
          -0.048267716256398994,
          -0.1296682817936002,
          -0.19706447146586906,
          0.07377717143743379,
          -0.034292335958102264,
          -0.057273518004282806,
          -0.10427667847373748,
          -0.01631649049128976,
          -0.022012367987420012,
          0.03330145044192187,
          0.12372482807108591,
          -0.03412049761844842,
          0.015282441925594088,
          -0.009693415362679784,
          0.0020309443730120425,
          0.05815986098845446,
          -0.10119327242502361,
          0.016617506267201973,
          -0.27374424552874915,
          0.002522983774649603,
          0.08816759361078703,
          -0.0859846403150059,
          0.012695675979371516,
          0.03537281148724429,
          0.13692337742526217,
          -0.08256352536943673,
          0.041858832832222546,
          0.050372881396965614,
          -0.07925508645640682,
          -0.057305256923859176,
          0.07222106678909909,
          -0.08003281786650253,
          0.00445459565072564,
          -0.11504968313089955,
          -0.0468939847576737,
          0.1081331489592384,
          0.026534751543469765,
          -0.013152103656680743,
          -0.11056582623925633,
          0.007807306948244823,
          0.06207484663093596,
          0.0802799139026098
        ],
        [
          -0.0023318806151311935,
          0.11421452192231883,
          -0.11119730588476469,
          -0.06068348003058929,
          0.05294355786757436,
          -0.024723109014606823,
          0.03321664805636962,
          0.05521262061793682,
          0.007428912116699649,
          0.09557696128267806,
          0.13003234885031006,
          0.05985683189270808,
          0.041465729072447464,
          0.1653008604471139,
          0.08103641943834539,
          0.006850939784257358,
          -0.016683097130366576,
          -0.17704124440462182,
          0.06551839023639101,
          -0.08335319263380686,
          0.09135165888035994,
          -0.14441458998968346,
          -0.04971128881496099,
          -0.02909244340967408,
          0.022087957011876262,
          -0.0038044563879923764,
          -0.04894547784166905,
          -0.1380203386434007,
          0.05497612962046814,
          0.004485666295558455,
          0.01608442597584847,
          -0.0006627793393665951,
          0.08626058888923914,
          -0.05506618028894664,
          0.06731935968640955,
          0.012074721427496403,
          0.04427604177937126,
          0.0617523908785699,
          0.03277136030251436,
          -0.05906655030565459,
          -0.1836889435078727,
          -0.16282155723096756,
          -0.2799812613021106,
          0.12733532919784607,
          -0.07609361439244153,
          -0.0008858417771672734,
          -0.14196956813667772,
          -0.09103255206338103,
          -0.09171623660809557,
          -0.009958344511487872,
          0.011719799832248471,
          0.009594082289383632,
          0.04021057657450036,
          -0.1081059233717947,
          -0.11206563234008451,
          0.03493760458038081,
          -0.0689019492764752,
          0.06338772836502897,
          -0.01929190887979055,
          0.1727448448070308,
          0.0671514060836923,
          0.203958487229238,
          0.05200418187451888,
          0.12620935811099823,
          0.07579424689806896,
          -0.14815554168686676,
          -0.07793041585805191,
          -0.1732786081760941,
          0.1909380882652406,
          0.11812532172923834,
          -0.15116056969217107,
          -0.1119814771456562,
          0.004595460648862707,
          0.0853704223165634,
          0.039080962963720885,
          0.0006976397160996705,
          0.027433418620841383,
          -0.07093645938649017,
          0.1732698300334928,
          -0.04868299597704057,
          -0.07365819167235241,
          0.03145210211407968,
          0.17608123050619132,
          -0.1266231161213918,
          -0.005769741822596427,
          0.00897807911256113,
          -0.027126164689742372,
          0.05362326070324634,
          -0.046369934413299674,
          0.01033532522778717,
          -0.0007305327297606347,
          -0.013671319472035306,
          0.009350323141994564,
          -0.05557794857729851,
          -0.06313761613881672,
          -0.06168948250334813,
          0.09061407046471934,
          -0.12185769461678048,
          -0.05093079852942564,
          -0.013904341145176937
        ],
        [
          0.19248304686982923,
          0.1511924664975855,
          0.010271191470529368,
          0.08674551485462209,
          0.05047807485813447,
          -0.058867549028713474,
          0.05888525214096824,
          -0.034510059214331076,
          -0.04528236648476465,
          0.10061545488768288,
          0.0018636306402114097,
          0.01781059553487475,
          0.1899070272654805,
          -0.12913411340442885,
          -0.016474287588754168,
          0.13909583597115238,
          -0.0170032584057016,
          0.12398317868032714,
          0.08909889790282384,
          -0.1816378580702596,
          0.037881129944726484,
          -0.1711006324658137,
          0.03430622042768497,
          -0.08822385242556273,
          0.16106891717229257,
          0.13947595761465578,
          -0.09406249681323774,
          0.01661343723619302,
          0.08922533952664687,
          -0.02534047815817222,
          0.03601954390555717,
          -0.07447161944962559,
          -0.1324806510549784,
          0.13096125736787706,
          -0.08444600488586969,
          -0.07213908037196694,
          -0.0652454517141918,
          0.07276534461292046,
          -0.011515652549032983,
          0.04796633185225333,
          0.01973021665931524,
          0.03700023619047285,
          0.02286648205644452,
          0.11019178690272437,
          -0.007400170765885785,
          0.004743797765676142,
          0.04888926019769225,
          -0.012160707483503223,
          -0.03762637419509384,
          -0.0208472800511822,
          -0.0019783513961808643,
          0.10152693950544206,
          -0.0792807566301824,
          -0.09556003418895344,
          0.0261223226436411,
          0.018017145230420327,
          -0.1092591693332856,
          -0.14322124649574944,
          -0.013411901390924573,
          0.08155116098813622,
          -0.002099662523876806,
          0.0721064324508925,
          0.0885470713072219,
          -0.15332034118971233,
          0.011347876370710403,
          0.020662702150905227,
          -0.1047324911752725,
          -0.2654342139200327,
          0.019603678289656937,
          0.02397162448995038,
          0.051067656668258306,
          0.04132819321089693,
          0.02912669422396465,
          -0.03725080159148894,
          0.010221336526111867,
          0.09357587092963729,
          -0.11682615269859067,
          -0.13351196792144288,
          0.07750767890761298,
          0.06279918499772331,
          0.10995377527576061,
          -0.12834276452645033,
          -0.02390543107356692,
          0.02749033070632469,
          0.008469994682754308,
          0.052551745631184324,
          0.00998004454234197,
          -0.07472514966335668,
          -0.17155685649305616,
          0.0939764977426011,
          -0.07575214291531161,
          0.17018265081551767,
          -0.04841893482326712,
          -0.08069558420809611,
          0.027452102791530115,
          -0.03440133245773446,
          0.08097897875122462,
          -0.01911841772128436,
          0.10747678088290104,
          0.08950332960901716
        ],
        [
          -0.019173651475816986,
          0.0021258301612998055,
          -0.012931050485037102,
          -0.0671998127140405,
          0.05330113906823294,
          -0.05562860184712222,
          0.04923401388123307,
          -0.14278809414135468,
          -0.179975673848531,
          0.024997096401615414,
          -0.06429103864285195,
          0.16750845535730333,
          -0.09135517818690504,
          0.05392425128388073,
          0.06141010816371193,
          -0.11585535637490547,
          0.15110160825744914,
          -0.06683217120685207,
          -0.0666359232745801,
          0.007945073165075612,
          -0.07439158727956532,
          -0.03133587990948089,
          -0.010571134903316771,
          -0.010308795656623378,
          -0.0002077293696243345,
          -0.009057401070574815,
          -0.050567180823365,
          -0.007224778358201956,
          -0.08227507806013282,
          0.045103607294264374,
          0.0165484434438632,
          0.029646104870138867,
          0.06894789294391246,
          -0.08336452345476561,
          -0.017996897502617567,
          0.0972160272087237,
          -0.028230936372321283,
          0.005927885485075803,
          -0.0630755898379084,
          -0.01649181690533454,
          -0.1553619976566962,
          -0.08715626982963734,
          -0.0771815795067782,
          -0.06526515510351934,
          -0.10061734753627903,
          -0.11938177701406896,
          -0.05536387560803438,
          0.12935475109252756,
          -0.008260775193226115,
          -0.005397707852332997,
          -0.010903384360747295,
          0.0026782023523857926,
          -0.05951874202274999,
          0.11981835269509734,
          -0.04428340895294061,
          0.09214035359665267,
          0.11297350353337102,
          0.02169344936408497,
          -0.05151144935223568,
          0.013181031339445596,
          -0.15250412073000874,
          -0.10109921052096334,
          -0.020790578660243027,
          -0.17011512991005337,
          0.1229241051249587,
          0.16534608457656227,
          -0.02813430275289838,
          0.0795331387871964,
          0.1431684477140762,
          0.10587841339067657,
          -0.14700723559960457,
          -0.095202032364653,
          0.01679446666273597,
          -0.09457637584151976,
          -0.1345280886929455,
          0.10609080667091952,
          -0.025697602837704035,
          0.034724423959509795,
          -0.09018913943371605,
          0.2644869133561142,
          0.1676394887254561,
          0.10594204928509099,
          0.026994676604852264,
          0.09135324204706113,
          0.07103578698412598,
          0.03704836759396731,
          0.014811065690505726,
          0.18188809284496366,
          -0.029452069902785344,
          -0.06565823296346952,
          -0.11479777116307696,
          -0.024916807725598972,
          0.07842821214668874,
          0.038808842158636586,
          0.10994099501379498,
          0.05745626233207812,
          -0.004726813521054591,
          0.11377030413576916,
          0.02827000147480323,
          -0.0840165211191426
        ],
        [
          -0.08436256209869673,
          0.12445291313894047,
          -0.05214837700797461,
          -0.0927600067272513,
          -0.007369997605700792,
          0.08033656010849612,
          -0.04819182597340018,
          -0.052813924185149644,
          0.027921207889338894,
          0.0354475878981991,
          0.008351989638061554,
          -0.15385782107650772,
          -0.13238057176873916,
          -0.22106727238416193,
          -0.1497201841824899,
          -0.09415661126720153,
          -0.001765171013989647,
          -0.05750674398963305,
          0.01723077643483965,
          -0.11877346394971372,
          -0.08573928206803816,
          -0.09762492127485077,
          -0.062416959844627785,
          -0.005029014559070026,
          0.043872051374658036,
          0.04998099967703235,
          -0.19187909701562633,
          -0.1344492915418284,
          -0.1321539287709631,
          0.14757687743240788,
          -0.0656534468978953,
          0.11995718520334256,
          -0.10520411325154581,
          0.1218661209284211,
          0.13548460100648202,
          -0.1002445566019767,
          -0.09660257284940675,
          0.007522777003678475,
          0.15453795133479914,
          0.19866749749246837,
          -0.1310315236589971,
          -0.024906408072342914,
          0.15439289467567147,
          0.09395547436436731,
          -0.12576182917276574,
          0.048992869084905556,
          0.14712696147491902,
          -0.018896906939929296,
          0.059458831301300114,
          -0.0022842261429650754,
          -0.09353713574197088,
          0.06059781057387851,
          0.10066278047421773,
          0.006251361791358589,
          0.04159595208760528,
          -0.08923960356198452,
          0.14912785063188624,
          -0.23474341309250457,
          -0.06674339387963552,
          0.10025588612593168,
          -0.04777592927722702,
          0.1330128703204694,
          0.09312539088344772,
          0.042296679017862514,
          -0.04746903495018085,
          -0.022214853355475853,
          -0.021512364488850872,
          -0.04761210754328018,
          0.0901923413992884,
          0.032828440915783,
          0.19114759678697782,
          0.020496229309299265,
          -0.02830051421238515,
          0.024587878981307165,
          0.138524634908076,
          0.016367832514549475,
          -0.1330123558746585,
          -0.005434158066772607,
          -0.10682882861911974,
          -0.026300137594290295,
          0.06484337383930225,
          -0.0136650450328093,
          -0.034805331974441515,
          -0.17176837811365536,
          0.11418695184334139,
          0.11931551019921344,
          0.20539083782579518,
          -0.083088515852651,
          0.0103270544233573,
          0.2203535453072043,
          -0.014145205669374487,
          -0.0832503909328428,
          0.025322257898445222,
          0.13245796560550688,
          -0.014688710851961837,
          -0.12959641178726733,
          0.0029618545730194573,
          -0.0018981763794147521,
          0.08796172989519964,
          -0.07356953151002932
        ],
        [
          -0.07011706889116343,
          -0.1025991602351448,
          0.04333281049070466,
          -0.018901239656222337,
          -0.012784224473164048,
          -0.022406578605870458,
          -0.011587996638766388,
          -0.014200916858636847,
          0.06098361983533371,
          -0.057093866401657825,
          0.08099975672402339,
          -0.10074747664274986,
          0.1456110569569654,
          -0.08150579036753701,
          0.009972687277953371,
          0.05421313562106511,
          0.15649933278218212,
          -0.006343611122208116,
          0.00873373831423248,
          -0.059790264300397696,
          0.0036984026798553087,
          0.006891325844872407,
          -0.10964308480108773,
          -0.1611656416191625,
          0.1706380190084832,
          -0.005088332783929283,
          -0.09475998571057569,
          -0.006043994574542993,
          0.04192235689874143,
          0.017451495310117696,
          -0.08770428314643529,
          0.023003546684059933,
          -0.040347896784986584,
          0.06410943523853269,
          0.09291649258823294,
          0.08656504876562048,
          -0.08008550434188208,
          -0.1271943710148755,
          0.00519325381499656,
          -0.0017517569626554986,
          -0.018632972050449597,
          0.014976882484803805,
          -0.11036227467436291,
          0.04015835649056418,
          -0.07694071382290134,
          -0.09300076378806167,
          0.015902276516542215,
          0.0007596560094482105,
          0.09048308736475338,
          -0.009592005660267912,
          0.15097245352902922,
          0.03070076267599629,
          -0.06496125290559492,
          0.028340901483990547,
          0.1060312225684016,
          -0.09396906392471577,
          0.0073594967759223135,
          -0.005841075181309079,
          0.06814613781864576,
          0.08783978152139078,
          0.0366396888715957,
          -0.13856760940069812,
          0.0009560001556302581,
          -0.07406085339562427,
          0.08741813229279868,
          0.016955111428532572,
          0.006894847570518529,
          -0.02970418210232921,
          -0.19396572550273553,
          0.07324253946999823,
          -0.14744598914502727,
          0.04982855460370023,
          -0.034424507560649735,
          0.1117528979850039,
          -0.027615283233238884,
          0.3605659076425789,
          0.1125818150048029,
          0.06698858238511424,
          0.07180163505104678,
          0.23850857452519947,
          -0.027954118690909174,
          0.14801181183775153,
          -0.03677070817080426,
          -0.010405872087633565,
          -0.03162466120028195,
          -0.05768695826468495,
          0.03273349841040282,
          0.16470718596224357,
          -0.1834763422169906,
          0.08619299422468901,
          -0.15533980462610178,
          0.06106516417511834,
          -0.06902449339796513,
          -0.005534240552707186,
          -0.18555836218476818,
          -0.10713309805660357,
          -0.0782066353258151,
          0.10876046212566585,
          -0.03575810609640235,
          -0.09098418304863619
        ],
        [
          -0.05989400198770579,
          -0.13968340040778254,
          0.05427073630920853,
          0.054463763026896775,
          0.07375054481685253,
          0.07308504681295865,
          -0.021623057098394582,
          -0.11429410992688717,
          0.13885317689385612,
          0.00596867524566345,
          0.09663799957985456,
          -0.006309721816423745,
          0.045932758639626044,
          -0.09190588920416558,
          -0.027044014065063456,
          -0.018355393113867573,
          0.1853526447966135,
          -0.24802406407817876,
          0.13335452172426532,
          -0.10580958042027976,
          0.1850706871850334,
          0.1529142455672599,
          -0.015437887282669847,
          -0.03370997913276954,
          -0.11907547692234736,
          -0.04356414834492282,
          -0.08155686780932915,
          0.1477033882446671,
          -0.10037656361784698,
          0.03555390208894987,
          -0.07115154356029339,
          -0.03316974907933545,
          -0.04383173016583397,
          -0.005983113723426987,
          -0.1965996088855889,
          0.009109475120989497,
          -0.09858269906390904,
          0.10685378031837175,
          -0.08328382101723433,
          0.048032878119187064,
          -0.07811726415555212,
          0.06940909950062178,
          -0.04802397516636759,
          0.11141912654329916,
          0.1798087659449337,
          0.11913668089569106,
          -0.085489717447708,
          -0.21783554659020052,
          -0.1466250676002267,
          0.002523968145151572,
          -0.0019844944297893108,
          -0.2507367878289475,
          0.05227815231235703,
          -0.019268456634665594,
          -0.024566751866341646,
          0.10562270109490336,
          0.13308275666514763,
          -0.0021152914971759814,
          0.10901653317165931,
          0.06317073575222386,
          -0.14700261916630808,
          -0.10837230912571369,
          0.08082048927681852,
          -0.16687841573042198,
          0.014690714446689433,
          0.0628176772001553,
          -0.0859905467920443,
          -0.13809236466301625,
          -0.026896589066571056,
          -0.05762468906826471,
          -0.11517885647922171,
          -0.11625696429951322,
          0.009002196044676856,
          -0.07458351614974539,
          -0.05134273933818846,
          -0.02364174449485528,
          -0.08309499380384838,
          -0.014142396630269657,
          -0.013311791375939847,
          0.10035526566530739,
          -0.005855559506709192,
          -0.04215123077502035,
          -0.13039951194517632,
          0.07125256310859435,
          0.03686617449847841,
          -0.019766176976753664,
          0.20683545143831752,
          -0.1347078662456684,
          -0.008480265569231845,
          0.035140572495310524,
          0.24437201438830697,
          -0.20800035908992925,
          0.04446783262077997,
          0.03802451812244362,
          -0.06352285128528226,
          -0.0794769667902043,
          0.04642982399159409,
          -0.04548054310745297,
          0.13030147271014536,
          0.044134880628491746
        ],
        [
          -0.029966510911349026,
          -0.1089955267034076,
          0.13494453540732881,
          -0.021730095035080502,
          -0.18137485949506302,
          0.14329409235447896,
          -0.09173660311131922,
          0.07516864988140817,
          -0.00536959794207674,
          -0.031801839788187666,
          0.19661926666138088,
          0.06101385396137815,
          -0.033681319612190494,
          -0.02202242542114106,
          0.015628287137493032,
          -0.08652794980879511,
          -0.1112549705378187,
          0.16453133690088984,
          -0.09158265109947188,
          -0.06024406151182864,
          0.010578965561103878,
          -0.08264512482900803,
          0.05563804271288876,
          -0.06757176393190907,
          -0.14061693696672678,
          -0.2822755939969283,
          -0.02927775347612093,
          0.15887713026751638,
          0.0993565811251247,
          0.02616544235351602,
          -0.030845336670744752,
          0.09037225707018143,
          0.05492494816861078,
          -0.023057206067445414,
          0.045311590380140584,
          -0.027363499956649776,
          0.09512100856693899,
          -0.07475149176577094,
          0.041254424010971825,
          0.0268029108595541,
          -0.16437965226558413,
          -0.0001986448390584777,
          -0.04068811993411496,
          0.06689951396781031,
          0.031073084060968138,
          0.03164195349832444,
          0.11095522968592067,
          -0.04038177718368204,
          -0.21503054662539367,
          0.06436287518722887,
          0.15244416367676142,
          -0.009907684399307691,
          -0.02757270799016108,
          0.021779820498037346,
          0.05155048725305015,
          -0.05836760075764407,
          -0.11479075682941083,
          -0.0039272088943340605,
          -0.16540595105581155,
          -0.0491274961219734,
          -0.10485736962772077,
          0.061451610694679186,
          -0.11619215501161648,
          -0.10782581372733101,
          -0.08094971486679939,
          0.08526003739440001,
          -0.133667953444633,
          -0.035129092554089844,
          0.11617512255156222,
          0.07813041620397045,
          0.012664807675131935,
          0.04737314687184772,
          0.07264409535378279,
          0.05754497516233601,
          -0.07325284528896289,
          -0.10369140319056991,
          0.18610851630652808,
          0.08232096697248988,
          0.111160952446847,
          0.09084777792346937,
          0.0038430027357134375,
          0.04154261649857059,
          0.0061468158585401686,
          0.07770323378486209,
          0.049692563140095874,
          0.06778231264053391,
          0.04120784243125989,
          0.1126802846076176,
          -0.13149888559032075,
          -0.08965663901307029,
          0.0015646223138709228,
          -0.06084263650762941,
          0.07329635002149097,
          -0.00489238553421869,
          -0.1345606492752829,
          0.050735878279039436,
          0.02339913058630646,
          -0.06559986382377077,
          -0.007626285826048836,
          0.05133371294525614
        ],
        [
          0.08371053362920516,
          -0.08032510408320202,
          -0.025581080201424217,
          0.059013907285335364,
          0.028067693704146624,
          0.12337763591673177,
          0.06532144513875356,
          -0.059528318565539834,
          -0.08056252837598518,
          -0.10457313135309199,
          0.16232001816914338,
          0.1446785197284601,
          0.16355561507356245,
          -0.054359731918030924,
          -0.1768364249449431,
          -0.14019113373594347,
          0.06660938664373393,
          -0.021547902145724735,
          0.2020416606200925,
          -0.10495073599266128,
          0.20592941072159837,
          -0.0007655275307430592,
          0.038300014926962694,
          -0.14811396028289525,
          -0.20375707111325533,
          0.06435905993803775,
          -0.15507694190284907,
          -0.11985805745119163,
          0.008876159123162865,
          0.002805914263314525,
          -0.0758129233936219,
          -0.05429078287594707,
          -0.15207048897040307,
          -0.07043835305936821,
          -0.04032359149448229,
          -0.05006991957762191,
          0.058648601996847134,
          -0.013579492003918007,
          -0.1384274006664369,
          -0.12968327279871827,
          0.11031005159510977,
          -0.1407479070555144,
          0.0463995611974773,
          0.19223900460380433,
          -0.03715381737658854,
          0.029373004451922164,
          0.23686281272847262,
          -0.07289571099142182,
          -0.17671888513877435,
          0.2364929110166656,
          0.039479193135252055,
          -0.14274091803556793,
          0.06459254776389764,
          0.08252583804957724,
          0.08748663786666455,
          0.08774432508330521,
          0.17607987646587386,
          -0.21025986309810052,
          -0.04436338891515146,
          0.0917918143703302,
          -0.06817243943748888,
          -0.008064990687601043,
          -0.01363030106051464,
          0.17456864049217918,
          -0.06196224811492578,
          0.10211978218637852,
          0.006055765747154425,
          -0.07583691953541069,
          -0.08362081729145861,
          0.08475213880035999,
          -0.17647195822555498,
          0.039892772104191676,
          -0.0023833292572955373,
          -0.02975777908437803,
          -0.02596888493065622,
          -0.01597208926693758,
          0.026345079808908378,
          0.07310424745181378,
          0.023447155933210888,
          0.09579335773876016,
          -0.048834339583906455,
          0.11711736456812152,
          0.1289781585380915,
          0.06541199333938578,
          0.11700795481269846,
          0.06717564931545271,
          -0.04220899408255103,
          0.03456472010000964,
          -0.05584096160865893,
          -0.25993744162857474,
          0.127713211531571,
          -0.0626226925626335,
          -0.0578268768042634,
          -0.06495919295435482,
          -0.12982106282203534,
          -0.00739960360593128,
          -0.29928857278350174,
          -0.12153849291213445,
          -0.002426986245293447,
          0.04532994685565603
        ],
        [
          0.23939349482261194,
          0.0019654864532575433,
          0.08621532217660549,
          -0.0703351439245485,
          -0.043574504502472376,
          0.0013125834217236343,
          0.01804717391775599,
          0.16065952292065272,
          0.0647206584341844,
          0.2105787115044261,
          -0.015872962924057564,
          -0.03488289083594484,
          0.01514741618564568,
          0.03440278172150952,
          -0.061366454876156315,
          -0.0372091637271413,
          0.025696967356488503,
          0.09281104162154048,
          -0.11852460486534977,
          0.055393066417694335,
          -0.06166374619875058,
          -0.15624246719781099,
          0.020081294249416633,
          -0.11291789726806152,
          -0.14097546707746533,
          -0.28261975449916465,
          0.010125108069855648,
          0.15085849761699419,
          0.034473886048156405,
          0.0660096470728011,
          -0.1739183463576194,
          -0.07641396687447263,
          0.014500949271828087,
          0.06132012861590564,
          0.1225139040314944,
          -0.0582439246614774,
          -0.07943290699814777,
          -0.12021332471569324,
          0.1839748447041355,
          0.19868535124643333,
          0.10673504688882701,
          0.15025368481082169,
          0.05915781271404989,
          -0.003988001643036447,
          -0.15694363385989077,
          -0.09523101373244698,
          0.07059357323957562,
          0.004879982094013509,
          -0.09557444865485226,
          0.04486355887833455,
          0.15787379134099672,
          0.11675099651964695,
          -0.18790386705742815,
          -0.11665901479274825,
          -0.1519921110442011,
          -0.004143577390443313,
          -0.020509257467858553,
          -0.06538534949921994,
          -0.10247719456819047,
          -0.03449148182413845,
          -0.15113204450716164,
          0.03530162268435889,
          0.07994455464690566,
          0.10542336748526719,
          0.09833152865971291,
          -0.14361644640208188,
          -0.007866581066717464,
          0.08192905193950445,
          -0.126105061135561,
          0.228744937541381,
          0.11535293541983467,
          -0.05271095606998784,
          0.16952184853960817,
          0.007443241433156264,
          -0.023859459210658834,
          -0.004161167667421003,
          -0.056597411628608464,
          -0.04818876015140673,
          -0.08883783690633,
          -0.056203132012549895,
          -0.08202823027393168,
          -0.022940517083066995,
          0.007799045262817407,
          -0.05504572424790559,
          -0.03265648518053657,
          -0.024902551771016745,
          0.09912284082781385,
          0.07319529344743658,
          -0.1701689182503521,
          0.1263893040666075,
          0.007184509707724633,
          0.02839685930278867,
          -0.10311400307323249,
          0.10045594647025204,
          0.1155196075494617,
          0.05257372833687289,
          0.10884183014745219,
          -0.08495579466388681,
          -0.049342625733040414,
          0.04334020316546711
        ],
        [
          0.00031807146456892685,
          0.04102670128449161,
          -0.055376686183995986,
          -0.13035721060840713,
          0.036597302542093084,
          -0.017455385441305902,
          -0.02463897558611882,
          -0.027764919800415358,
          0.1089076566770834,
          0.04535800083384582,
          0.04527896177289694,
          0.16627116195982053,
          0.1105353261308911,
          0.017430908934703632,
          0.19219447164344533,
          -0.08825645514724846,
          0.017339276551392887,
          -0.16140628002057156,
          0.19582066535956347,
          0.17186326848730538,
          0.008423916943051312,
          -0.10673143498709593,
          0.27940163853463196,
          0.06238666295229775,
          0.19963075315504614,
          0.0076558726933240485,
          -0.0811598867010393,
          -0.0018808213958023583,
          -0.11925189067235552,
          0.15944082358078313,
          -0.06473452673154989,
          -0.03274163732829419,
          0.0979832850571176,
          -0.08617181807506448,
          -0.001202426451311458,
          0.0031148312010205142,
          0.09256488539745186,
          0.0226003993504577,
          -0.02663863906964109,
          -0.17453273645214634,
          0.041429675515037775,
          0.03061235017516044,
          0.15348104257479944,
          0.06723121371971694,
          0.1557716735591267,
          0.03970987504402845,
          0.0673528982951363,
          0.03426767083503709,
          -0.02457076431762202,
          -0.12170077657722972,
          0.07865000514108962,
          0.02435597886464304,
          -0.18732219122351593,
          0.01598101846691918,
          -0.11116643369444673,
          -0.08590061400834591,
          -0.06313577436535837,
          0.04072484957571794,
          -0.11974351462490103,
          -0.10593290700629932,
          -0.08109467661248208,
          0.006823500171429101,
          0.23194504564760426,
          0.19033710027708783,
          0.023525797235871455,
          0.0057847260440875405,
          0.023376762033925406,
          0.21177261786644058,
          0.05389118515318244,
          0.00636362940076763,
          0.03601195766596674,
          0.06334592484717036,
          0.006115900491209114,
          -0.06555837768697169,
          0.08405280592734297,
          -0.006356025193127499,
          0.04372769539006716,
          0.11682272077104361,
          -0.014366059324937704,
          -0.10794343892081257,
          0.04704102545502459,
          -0.02044458969596202,
          0.009780423364510528,
          0.018090867805720442,
          0.06765057650416866,
          -0.07110771594464182,
          -0.06552488010628758,
          0.20187127120939313,
          0.09758692306719699,
          -0.07823803956310314,
          0.1146294154609977,
          -0.012065529760621523,
          0.03524011775793957,
          0.0367633919496867,
          0.13700767512295925,
          0.03417317509758344,
          -0.10628789843712683,
          0.18704665557821082,
          -0.041642728638996346,
          -0.12757383266448444
        ],
        [
          0.0408874082276944,
          0.15789669650478694,
          -0.05839982545919641,
          -0.016075948729131068,
          -0.19962620089305755,
          -0.1123222291748568,
          -0.02608980618953392,
          -0.14601383122966008,
          -0.05727453679481559,
          -0.028358285587047984,
          -0.20448626107849527,
          0.16710692028065655,
          0.022952955563722698,
          -0.08624006590753244,
          0.0853261155637677,
          0.12907438720560657,
          -0.10677388999489913,
          -0.06484616632906655,
          0.024597757646696305,
          -0.0067995502016709435,
          0.05790882674808936,
          0.06845097431492055,
          -0.0939887082220123,
          -0.052146638599632124,
          0.09430312741794938,
          0.13509316118906736,
          0.024348637485713576,
          -0.00475711491553678,
          -0.13828502088308411,
          0.29357658128936126,
          -0.11537216165186129,
          -0.05212200306349445,
          -0.08903437692878201,
          -0.08746445058850752,
          0.043067796796394206,
          0.015816421638575134,
          -0.03794025585620297,
          -0.011766340419479356,
          -0.046507449866128044,
          -0.05304340952665779,
          0.019864575177532446,
          -0.05591011685522275,
          -0.0038484827951450642,
          0.0800266894223989,
          -0.1789035970332568,
          0.06594821973570358,
          0.04870668579228302,
          -0.05264164047336865,
          0.03882292055860051,
          0.1537523646571699,
          -0.08821176278311676,
          -0.10467933602581962,
          0.14246452839311977,
          -0.0720559271569448,
          -0.11468291650758826,
          0.02325258023402029,
          0.07148424656248752,
          0.04770745799310209,
          -0.11520825012456752,
          0.0853851647381547,
          -0.12129907628788826,
          0.04885262482789401,
          -0.12212186009177342,
          0.11892674685939768,
          0.012123622067120856,
          0.04809324969220165,
          0.1361751684388375,
          -0.2548551755143808,
          0.17678592158504225,
          -0.12029663899418108,
          -0.032932501816506386,
          -0.1825856130456806,
          -0.04924952248076942,
          -0.01746291685776001,
          -0.010326327314544914,
          0.017841337107272526,
          0.04711682983470154,
          -0.006032657148882619,
          -0.038881276299892714,
          -0.02394064693948092,
          -0.026100605099406975,
          0.13760795443280327,
          0.032389848648114276,
          -0.1178585853887968,
          0.013432742148822207,
          -0.09454293366649631,
          -0.05610512859354062,
          0.02337702499070373,
          -0.12404294994646714,
          -0.01016095668582403,
          0.047182493498067385,
          -0.013749798145654621,
          -0.050648230382919775,
          -0.05773859360339106,
          0.17297347791885356,
          0.07318242418957123,
          -0.10801702575682451,
          0.017869019004766767,
          0.13028034764398172,
          -0.03207752382395282
        ],
        [
          -0.027002726384431717,
          0.020948085954562618,
          -0.05582350830637427,
          -0.001151903146332259,
          0.2047111728626877,
          0.030784164530333252,
          0.028284188071468562,
          0.13909095502105956,
          0.05402223100234063,
          -0.03131661554280147,
          0.019587543082610404,
          0.2678442306980574,
          -0.0031374286893171774,
          0.025025790815634455,
          0.07503581081373167,
          -0.129693297295269,
          -0.15087286865172952,
          0.02988552633887134,
          0.0003358282960691987,
          0.04792768117337113,
          -0.07429414692144254,
          0.02553163291397909,
          0.07131704103467128,
          0.011508077959931865,
          0.17846482256667787,
          -0.22050327779239975,
          0.232375743539981,
          0.06473367964136621,
          0.03255785967614921,
          -0.2556908458805891,
          0.013497048294325955,
          -0.05201347001094957,
          0.020599147380423843,
          -0.026502909049974425,
          -0.09789737443774589,
          0.025399266544210052,
          0.1451085669853577,
          -0.06121196474647677,
          -0.1020174556760223,
          0.01745310958528173,
          -0.08012262251559425,
          -0.050719638245617975,
          0.12238966113381541,
          0.10866952512388292,
          0.024694157895676225,
          0.059015641613842824,
          0.09286435202522711,
          -0.08590577924689309,
          -0.04113829416443776,
          0.11254951428341953,
          -0.09232089018344516,
          -0.008773804993233445,
          0.07630045916935504,
          0.03356268068945607,
          -0.07706374980776516,
          -0.0574870876643037,
          0.0993959832225478,
          -0.006390610708489322,
          0.004013107751350978,
          0.027147754073119725,
          0.07979821112731518,
          0.09697971676007135,
          0.05021608893190252,
          0.1007227526427894,
          0.010518565954460482,
          0.06398527465123119,
          -0.2178357873366791,
          0.07793244368382211,
          0.06391321326505235,
          -0.02362832611571061,
          0.009178691584423098,
          0.08366330214646349,
          -0.08495700077426946,
          0.15153403751923167,
          -0.047660518737525984,
          -0.006879105424433302,
          0.09843870763481502,
          -0.08316211750732642,
          0.07573239043462021,
          -0.009558623292577994,
          0.08446581432288361,
          0.033031648319379964,
          0.06589352860942316,
          0.013943874231925488,
          -0.04678799402921681,
          0.12460674017060264,
          0.17289220548431034,
          0.13016877052210712,
          0.10099591321707341,
          -0.05134720079077226,
          -0.04932479818708617,
          0.014319611176646794,
          0.01436762440615129,
          0.15606663053901698,
          -0.046275802297334134,
          -0.03336586625784272,
          0.004209125134145215,
          0.12711441300548088,
          0.052478192645848576,
          0.03738501892003194
        ],
        [
          0.074205156097481,
          0.0025176540007239272,
          0.013098225239999909,
          -0.09289211120911377,
          0.03540960829234346,
          -0.07382850909807841,
          0.10075519157049195,
          -0.0032918936627174887,
          -0.026581038162529887,
          -0.15568838654977257,
          0.12201078160238797,
          -0.11845020630882908,
          -0.0322234823617649,
          -0.15769754085187107,
          -0.22439227651419077,
          -0.07490289503806294,
          -0.0531793828154277,
          -0.07256870945985171,
          0.14827825602345887,
          0.041037928511577136,
          -0.05818323968979312,
          0.13625682806686387,
          -0.1038327023887389,
          -0.13943505111033455,
          0.05188057033523901,
          -0.1546168000230591,
          0.15098576602950287,
          0.03997988449137277,
          -0.2381846724174988,
          -0.031642794637686836,
          0.04983727678220579,
          0.12054349053302123,
          -0.07673540683037638,
          0.05465123025723537,
          -0.10558521143810957,
          0.0973886068387418,
          0.08414119857519695,
          0.11136297388885769,
          0.19800088868596852,
          0.007712097554002358,
          0.029547994679606226,
          0.1949426782259387,
          -0.04058201730424246,
          0.11845382289026625,
          0.0658454828990978,
          -0.1564038080620875,
          0.10627598528118878,
          0.005363328424008901,
          0.023303340382919674,
          -0.002684494162820625,
          0.13200827173641064,
          -0.1664147725363665,
          -0.07696990724858904,
          0.18261460906452232,
          0.006295228351956821,
          -0.022553660429037767,
          0.10894941198228698,
          -0.011782733414547934,
          -0.005455732575163957,
          -0.037084490878547934,
          -0.05988905372847304,
          -0.07253409630474154,
          -0.12179684228154034,
          0.05186849529258364,
          -0.09882690401513673,
          0.015905637329298734,
          0.054319864741120466,
          0.07952236053094801,
          -0.015449941622359084,
          0.0433427959599189,
          -0.11496683429035577,
          -0.07482644827141442,
          0.02634750002912078,
          -0.034660472170654454,
          0.05079171763873824,
          -0.05846167682508357,
          -0.13390986223362708,
          0.17036427927141612,
          0.10112608164136667,
          0.014370095526652873,
          -0.1936924641670822,
          -0.12313422862962989,
          -0.12711270887003262,
          0.10889683764046287,
          -0.016146604931706103,
          -0.13120029732519448,
          0.027262568436594466,
          0.2034284631922288,
          0.005954010451046114,
          0.004041087498996453,
          0.10351179168876841,
          -0.061705471949551366,
          -0.21199582460178878,
          0.05588451392244329,
          -0.1394011753745697,
          0.12046292566013145,
          -0.08214400599659609,
          -0.10964594435582747,
          0.10659160636573904,
          0.01827745083226925
        ],
        [
          0.0947559483705205,
          0.04183211152285432,
          0.13782990702824235,
          0.08544813887723723,
          0.13352331544084534,
          0.0216082943559907,
          0.08111420880444178,
          0.11781884607249114,
          -0.13913798661503457,
          0.05462596773327808,
          0.03932537133597815,
          0.06564405714313716,
          -0.21266583409471826,
          0.19511453559040948,
          0.11062968744559215,
          0.030995447614434058,
          -0.22016008059687825,
          0.12392346237367072,
          0.07704333567006083,
          -0.005000712859545958,
          -0.17498667125262596,
          0.020155644951753274,
          -0.0006436203627742165,
          -0.115064679766823,
          0.028691929734834073,
          -0.15257970313334512,
          0.003702375824324845,
          -0.037350268389103436,
          0.045376402632410114,
          0.1169475239515738,
          -0.083214272822328,
          0.05929367696370835,
          0.024582860722770494,
          -0.06488558375933934,
          -0.1655122220251828,
          -2.011690744391149e-05,
          -0.0006072143716442341,
          0.06966387956469097,
          0.07705752542466715,
          0.07329406238656737,
          0.12224379083509469,
          0.06965250368561021,
          -0.14397803729208344,
          0.047461294830380515,
          0.10753701720114597,
          0.14320018717288996,
          -0.04604926168071297,
          -0.168344742109504,
          0.13351581826263814,
          -0.12455793824772701,
          0.12800171812130368,
          0.06871196176891167,
          -0.11828711178150889,
          0.030184072314165995,
          0.07539707315205381,
          -0.04279506438369113,
          0.04334826449022002,
          -0.16216877710199612,
          0.05343799146570654,
          0.23407843470630044,
          -0.1272650600521122,
          -0.06696078181004685,
          0.018801665938453088,
          0.04157011521549927,
          0.08538443127920592,
          0.03689143750061706,
          0.10701950345032095,
          0.13797734796477032,
          0.14114889402076677,
          0.07425653078734287,
          0.007535467575493317,
          -0.20666816913475064,
          -0.1143761822143665,
          -0.051756491465591165,
          0.14859613858226892,
          0.028007747741488682,
          -0.01727133364363122,
          0.004855803021708947,
          -0.09275194180551262,
          -0.11918810331687371,
          -0.005393262509242021,
          -0.08994650873147497,
          0.10350764667628626,
          0.011297870339779838,
          0.02767271547074761,
          -0.0793190347308622,
          -0.1224056228211214,
          -0.004996325743196212,
          0.03447870488439085,
          0.10050994817536466,
          -0.169603478681633,
          0.05594015744186377,
          -0.11052729413349985,
          -0.011338990752083345,
          0.08093449621629697,
          0.04690617306799481,
          -0.036961422025157974,
          0.0027153183985101272,
          0.06317308073259885,
          0.0751595418433186
        ],
        [
          0.027203611874993556,
          0.1441170898264175,
          -0.10581317106788773,
          0.11370320759764818,
          0.2089455860804789,
          -0.1478467366406039,
          -0.2720061379985958,
          0.08683742060691292,
          -0.060835302412720185,
          -0.014939314674919369,
          0.10234896638576481,
          -0.043213460659382585,
          -0.05332963409687809,
          -0.0119110983141561,
          0.20853852592416178,
          -0.000472118255201304,
          -0.06719212713694132,
          0.08690040884310919,
          -0.01719269178568569,
          -0.06029505167082344,
          -0.11433067218924187,
          -0.033419751192132044,
          0.05854213244598852,
          -0.04850921489577788,
          0.053576148324741196,
          0.15000108467679393,
          0.0875946842201873,
          0.04130910767671419,
          -0.0491747542472792,
          -0.04122097915762577,
          0.048350149602240884,
          0.03898433237834724,
          0.09737862670942861,
          -0.02343488038263685,
          0.11494002518452817,
          0.07700692851380012,
          0.07965053996383063,
          -0.13345832341681194,
          -0.00176231169666809,
          -0.0552940573929726,
          -0.13049805780975027,
          0.05207246853554164,
          0.11514933082212116,
          -0.027804200439715532,
          -0.058656750230117516,
          -0.1336144551834831,
          -0.05747568291145642,
          0.02050512574134866,
          -0.015022291233284586,
          0.1501338189881647,
          -0.09936939790555993,
          0.09473691922297894,
          -0.019212511632028,
          0.003985156238183596,
          0.06947714513271452,
          0.1007075816469138,
          0.03104347783312781,
          -0.07511524766865407,
          -0.03394386088858889,
          -0.023628776014204322,
          0.11711867273754464,
          0.0746269093549551,
          0.0038150743385599708,
          0.1916287016843682,
          0.20086177406636338,
          -0.013030662071863281,
          -0.03339366956234144,
          0.04681579049924528,
          -0.05308248959670919,
          -0.12315721456073916,
          0.2844491450309961,
          -0.05391637833209526,
          0.08872772919506898,
          -0.145770128495134,
          -0.02238127919989519,
          -0.014649732901753448,
          0.04533352856570504,
          0.06845486758507804,
          0.06899810134072723,
          0.021578560097631018,
          0.04443046833052241,
          -0.01315340386114852,
          0.07784782531474671,
          -0.1076565246827121,
          -0.03408537366696001,
          -0.029326649188085155,
          0.07130326543550747,
          -0.009746387591947667,
          0.1568194897935148,
          -0.06308581461937161,
          0.02642874383081738,
          0.041461013010092106,
          0.029739685241385108,
          -0.07467349342748864,
          0.03224678006587245,
          -0.13226796231932086,
          0.09231580579988673,
          -0.038620810259247566,
          -0.08527862762898836,
          0.0498507886930888
        ],
        [
          0.05191875098081257,
          -0.0665390499239171,
          -0.018939743307741272,
          -0.11717042267001797,
          -0.07510914977333333,
          0.04682114678855958,
          0.04518885170474143,
          -0.06308257634583829,
          0.06265946522437936,
          -0.0526584705200452,
          0.00904941702394588,
          -0.026376810629391324,
          0.001221823742384413,
          0.026478233588312194,
          0.08495805203799409,
          0.05646676472590483,
          0.11148996215378554,
          -0.048186400541946346,
          -0.03204574471160778,
          0.05267710146712717,
          -7.40420512758078e-05,
          0.020072949994125407,
          0.05308397977092092,
          0.08497018597546303,
          0.13707649141969483,
          -0.0632379025981009,
          0.017299396924118825,
          0.04100412444047776,
          -0.07008525771600976,
          0.004627821139627602,
          0.01767275802297447,
          -0.015562705083597295,
          -0.21074561645040496,
          -0.07717696375579527,
          0.03051779709167754,
          0.012861434893914524,
          -0.13244810694360387,
          0.2858443797271542,
          0.06211619117800502,
          0.10314823701560467,
          -0.1350918675560326,
          0.12219402105878077,
          -0.053748047110822844,
          0.07713233589799545,
          -0.0006674062656390155,
          0.14983258529793206,
          -0.197552957150548,
          0.11728402702855274,
          -0.1295044744945367,
          -0.08395995145213955,
          0.017631772810879503,
          -0.09622374911861738,
          -0.1339799271931647,
          0.0701594335230745,
          -0.015677776994192327,
          0.005484337111979191,
          -0.18705874859008823,
          -0.048764685383891074,
          0.11287257411068229,
          0.16727500848618893,
          -0.025718596079999847,
          -0.0054369758614438,
          0.0586118529138417,
          0.13885105366658526,
          -0.21041340739465217,
          0.029292913838487845,
          0.21553257369160628,
          -0.1058592306318821,
          -0.019292202075819602,
          -0.05087922182432808,
          0.14791511198842364,
          0.0352018453499593,
          0.02954711961649878,
          0.06617457811362464,
          0.1682417774218912,
          0.0024853050398071464,
          0.0010277666905486437,
          0.06472635876491525,
          0.04228591736849721,
          -0.036600942101940925,
          -0.0055400432209124694,
          0.06789093189495833,
          -0.1074309039886464,
          -0.08924169455758235,
          -0.13094656557131287,
          -0.016492569382965668,
          -0.08841874267349081,
          -0.017419984850383898,
          0.020733293435020957,
          -0.10282134921921482,
          0.15656328565842076,
          -0.06680500874573735,
          0.10952002191216458,
          -0.15176195313101976,
          -0.05731980052858452,
          -0.19797279198960877,
          0.041014997128383565,
          -0.2979546308535217,
          0.07167383319629943,
          -0.06471712862930822
        ],
        [
          0.024885574698751807,
          -0.07003402930810307,
          -0.06964839127918401,
          -0.07543845340962688,
          0.02605902407755517,
          -0.052682198450479695,
          -0.2636830575148293,
          0.06902093557059298,
          -0.05448027755954254,
          0.005446947451988609,
          0.024047461113771415,
          -0.09581829435570965,
          0.015960263787196012,
          0.039166291109709025,
          -0.073542073929365,
          -0.1055958297435145,
          -0.14256697748872402,
          0.009183731637389387,
          -0.0213841586587267,
          0.0399520744668013,
          -0.13127650333569071,
          -0.01511747423518212,
          0.08204064292945351,
          0.1161559082707003,
          -0.028304398690408922,
          -0.15277466974413384,
          0.03898984807964851,
          0.07065999154977498,
          -0.10994188044245512,
          0.12355067340975914,
          -0.03888810936449526,
          -0.018435021191494618,
          0.22324802161493162,
          0.23783605398563515,
          0.0300897562418044,
          0.03528612064737644,
          0.1343356908143211,
          -0.06542411299703489,
          0.019502096392799612,
          0.08665072869780152,
          0.020943323567095967,
          -0.012384001971725313,
          0.0656256044360797,
          0.04691836940004534,
          0.23677681196759995,
          0.15211178851706617,
          0.025691673286578863,
          -0.20151750340195898,
          -0.11057098784322242,
          0.0019062743151651155,
          0.07743011111432725,
          0.18488545763190187,
          -0.19881396708815194,
          0.03786319104157978,
          -0.15396215385881176,
          -0.009773355988114714,
          -0.11269024071073508,
          0.013295162825516361,
          0.17034588384256422,
          0.02672375828107105,
          0.0905092152804326,
          -0.06373807674117696,
          0.030259488320986683,
          -0.0737476645615122,
          0.16268522919219514,
          0.04500333261079054,
          0.026044554681401107,
          0.07840752941719999,
          -0.15082317422543778,
          0.17041161408945688,
          0.1699361392970047,
          0.0770125679281646,
          0.1761028786506973,
          0.10151742390382856,
          -0.013052274085312073,
          0.21262928485660437,
          0.05953366782616353,
          -0.06570070833548482,
          -0.1700391561494752,
          -0.027774028233808316,
          0.10782964683269888,
          -0.011446560972486367,
          -0.027719700964726552,
          0.0023921078088412154,
          -0.06976706996396885,
          0.01649295959402116,
          -0.09692299247766528,
          0.00785242385648908,
          -0.04685278990693394,
          -0.09866086736595114,
          -0.11669029213230134,
          -0.0039447571442768475,
          0.1411699321011909,
          -0.08390348018858602,
          -0.04222686613619424,
          0.05255588922740705,
          0.06279763226398105,
          0.05083042018672405,
          0.13809445254304198,
          0.03572369093960225
        ],
        [
          -0.015506978843003578,
          -0.05318852017907707,
          0.0744093067936656,
          0.0914773687616054,
          -0.004789108564982167,
          -0.051836494412405856,
          -0.0901928292826604,
          -0.09338790274660459,
          0.09338340831941816,
          0.03374950411437573,
          0.05488607596092306,
          -0.002920678386884465,
          -0.16717335748171006,
          -0.01658055482178912,
          -0.10224051471365662,
          0.0004903662245468174,
          0.03897220267107974,
          -0.0428875845722329,
          -0.07779990338621885,
          0.049761666608158985,
          -0.08764573453673109,
          0.10983866974754347,
          0.0845809532755308,
          -0.020754307331595258,
          -0.15173755086244733,
          -0.046692240283168776,
          -0.01632881115304464,
          -0.07139881494559035,
          0.08944169471639349,
          0.024366709110314737,
          -0.20554932889447197,
