{
  "hidden_layers": [
    {
      "activation": "relu",
      "biases": [
        [
          0.00010352170384711753,
          3.3501485312487446e-05,
          4.919064681374262e-05,
          0.00020042917277139467,
          0.00022656725143647304,
          -0.0005044037678337091,
          1.4039925266704547e-05,
          0.0003013817453998964,
          0.00010980783711325467,
          -0.00025602133586846834,
          0.0002516761379914638,
          0.0005727553027409398,
          0.00025468062062388455,
          0.00013640323961782076,
          9.73368284472767e-05,
          0.00034696584292583847,
          7.495468277578485e-05,
          6.182476112384655e-05,
          6.052397796407121e-05,
          0.00040641760162389774,
          -1.9126103248953413e-05,
          7.601161858859807e-05,
          0.00016490043604001223,
          -5.152805202739172e-05,
          -0.0002499219904888385,
          -4.1805739987169756e-05,
          0.0001098398986854914,
          -0.0003979518750124981,
          -0.0002576744280447789,
          0.00036190869498677264,
          0.0002272081633231159,
          0.00018565409756045103,
          -0.00015955833651475383,
          0.0004308416284143955,
          0.00023002056724009644,
          -0.00022538675197795273,
          -0.00031230515676670533,
          0.0003980622019581342,
          -0.00040034780604339713,
          6.424903031188296e-05,
          -0.0001551507409410274,
          4.959827414530937e-05,
          0.0001914664861423456,
          3.085550346520874e-05,
          1.3259226609617748e-05,
          -1.1152536258362639e-05,
          -0.0003045955039943741,
          -8.14066309589881e-06,
          -0.00010385150732179459,
          9.28528969876094e-05,
          0.0004911218131847571,
          0.00016001977846037698,
          -0.0005405224588868935,
          -0.00037639914300867795,
          0.00012760227034942033,
          0.00040724130530989854,
          2.2704274980648262e-05,
          0.0002491246805532663,
          -0.00022678730078651188,
          0.00014023822137777833,
          -0.0002116710411091522,
          0.00041050957090694816,
          -0.0007015275272162127,
          -0.0003232728700093072,
          0.00023147904876462438,
          0.00026240171953079486,
          -1.116589675402384e-05,
          0.0005917374607498936,
          6.111827252938484e-05,
          -0.00021900126181899148,
          -0.0002558980354645551,
          4.009202133272038e-05,
          -0.0005396852892069521,
          0.00016689652384663343,
          -0.00036995531650071235,
          0.00048094765810420965,
          -0.00012470768186982728,
          -0.0005543576205740634,
          8.626174496905585e-05,
          -0.00040575308926415636,
          0.00016717097155741808,
          0.00013029009177006678,
          -0.00017761705469509863,
          0.0008657157552597805,
          -0.00017052403260580417,
          0.0003124059642402238,
          0.00027817752056894597,
          0.0003613784288264976,
          -0.00035731178683857354,
          0.00027360984237658305,
          0.0003264737678630616,
          0.0002402969330197632,
          -0.0004859894941989125,
          2.4955264535792364e-05,
          5.1317864540733216e-05,
          -0.0002915520490784824,
          0.00035194154120882345,
          2.459687583158741e-05,
          -0.00036261626307818897,
          0.00021244983872900828
        ]
      ],
      "weights": [
        [
          -0.14672828118567777,
          0.14592152071879988,
          0.041185560645352816,
          0.028472147257741765,
          -0.08892456287630372,
          0.18343988911684062,
          0.08508076752464246,
          0.14912465657249557,
          -0.22759600319636145,
          0.032181831353483126,
          0.10698449165495405,
          0.020573647199135212,
          -0.07582921184653008,
          -0.03272514837014294,
          0.006390760026280973,
          0.013433879789521354,
          -0.06401609925450062,
          -0.05120213779244845,
          0.01695961923359022,
          0.040508971453982606,
          -0.1324060713062523,
          0.015444046510014856,
          0.1572224748699128,
          0.04985802296886278,
          0.08289964971778196,
          -0.06406983632710743,
          0.014490028579814027,
          -0.25273586069174764,
          0.2688329732101598,
          -0.06629210772472373,
          -0.13380913502717365,
          -0.1076571290149817,
          -0.03523136503143353,
          -0.03272824311550403,
          -0.05786525475943877,
          0.0566203630069336,
          -0.04092004311507552,
          -0.029717748772372144,
          0.06427565235924391,
          0.15226969194728424,
          0.05444184718578121,
          0.12300590318490601,
          -0.13395163497657298,
          -0.04998041133780445,
          -0.1654446556587884,
          0.006237103210565316,
          0.09465328186172499,
          0.07205168634488267,
          -0.14716522096807036,
          -0.1639195528371501,
          -0.10449039572576087,
          0.26299768264817547,
          0.0814404561309464,
          -0.021037684332953,
          0.10399132604747624,
          0.03780109106517648,
          -0.03806087455482332,
          0.14032112343675263,
          -0.10864291670519291,
          -0.05440318912047937,
          -0.12223065828801004,
          -0.06244040559345511,
          -0.16070120508856495,
          -0.04336435040866374,
          0.10131621925282036,
          -0.04657832716480067,
          0.0818186487890356,
          0.16024090458503315,
          -0.14195124712057142,
          -0.10440336034803044,
          -0.03685473552269139,
          0.020748003176972143,
          0.07656365684882316,
          0.08849861018410093,
          -0.11276847347085964,
          0.0611054084747112,
          -0.042564417760392305,
          0.12031259896182665,
          0.1451038363034751,
          -0.061750629396086325,
          0.10188524738830498,
          0.0659416516944391,
          0.1872149276814309,
          -0.037011904280550144,
          -0.007460866150014557,
          0.016379327683565297,
          -0.09313185789237681,
          -0.032256389042611494,
          0.12135981817031843,
          -0.01208896108554406,
          0.0796395886587829,
          0.018820271358745384,
          0.07335701000912208,
          -0.03744652491560261,
          0.012768695965165614,
          0.15754844688194478,
          -0.11584141672650705,
          0.03764363740814249,
          -0.017439806776371424,
          -0.03440885014165339
        ],
        [
          0.008930940931097038,
          0.17356489072504472,
          0.06431416981314668,
          0.06229735336592105,
          0.15725217029167915,
          -0.12596334020520408,
          0.06662061514268532,
          -0.18594307985893985,
          -0.006454603304057359,
          0.07137015521908802,
          0.04146378640056423,
          -0.006221733146280332,
          0.047922219360523696,
          0.036552458443746494,
          -0.09234235827249819,
          0.14306591745996075,
          -0.18991420697229966,
          0.08648529783403838,
          0.05412975539027192,
          0.12540292786773863,
          0.03780438594133037,
          -0.005756300323607064,
          -0.05933660651913663,
          -0.018325008582041117,
          -0.03673657144778822,
          0.09719874558903736,
          0.035171811553038036,
          -0.06862122484256857,
          -0.14293255668067417,
          0.09125079537599914,
          -0.04093037696537359,
          0.0650807066756306,
          0.20719612288583378,
          -0.3711252953637769,
          0.008391404346854701,
          -0.002871475077135269,
          0.0057764630083319895,
          0.08584144053405884,
          -0.12497941837782518,
          0.06266027894632867,
          0.041124062229095336,
          0.2908202315424339,
          -0.07872396043547086,
          -0.04417298461725419,
          -0.04728963205741441,
          -0.15365786749494348,
          0.10198170250028249,
          0.05413040257537142,
          0.11241064546495466,
          0.03839659678969208,
          0.09394186774548513,
          0.21917803235940167,
          -0.11612835930722726,
          -0.11021018156487102,
          -0.011628168599979616,
          0.10419529531657688,
          0.007070001897609374,
          0.05180551464639023,
          -0.040174194194905394,
          -0.15504261278079837,
          0.002699210768373388,
          0.004262825594648743,
          -0.021269359433821015,
          0.0726703404770966,
          0.09333720953848414,
          0.07669353894756108,
          0.07040107907264358,
          0.13592143006190413,
          -0.015472991201946862,
          -0.05653436485913595,
          -0.027761553175361182,
          -0.08468723831517572,
          -0.006027923127680596,
          0.035484233176153394,
          -0.059834854771337855,
          0.009353489162027476,
          -0.0760333225907219,
          0.04729694036139698,
          -0.06753056121254825,
          0.03104575198553025,
          -0.011977685228221594,
          0.0030789044837807606,
          0.10396848778424556,
          -0.0112084300809498,
          -0.08376970640900763,
          -0.10821272179593011,
          0.02097915028777201,
          0.026713358549762006,
          0.04338997724840961,
          -0.21292983768787677,
          -0.20221857410675598,
          -0.027735113882355857,
          0.08278065317288219,
          -0.043154850129810914,
          0.10644068031371512,
          0.030252044166355713,
          -0.10846567414488745,
          -0.1016205637864385,
          0.110627924535253,
          0.08869631966588003
        ],
        [
          0.040086544822323926,
          -0.15891717631570793,
          -0.09775936718477919,
          0.017391472961225694,
          -0.06713586962414626,
          0.11991409250691379,
          0.06740494079564362,
          0.05992723433472094,
          -0.03955560306339659,
          0.14152934599230477,
          -0.008362469639758549,
          0.05502212384512054,
          -0.08775194892637395,
          -0.05110688852732921,
          0.09857998481479631,
          -0.01807449405269693,
          0.06642707133197766,
          0.0625295263113306,
          0.059823902688949764,
          0.13579050931423597,
          -0.10102738411127164,
          -0.08802718888214188,
          -0.07746955979992626,
          0.09560798884727731,
          0.05454367697790422,
          0.061118056562914094,
          0.1124027068976939,
          0.0948749700267044,
          0.06781829613128235,
          0.10448682496331346,
          0.08220143334275805,
          0.07403712879431733,
          0.03412193009308861,
          -0.1600243376371528,
          -0.1831582363800406,
          -0.03460235100167275,
          -0.039172073833890084,
          0.050585007666010096,
          -0.07221597781232829,
          0.20363241507027852,
          -0.06623944323540754,
          0.019323509089622888,
          0.027933083938883354,
          -0.1688820773132418,
          -0.020540122419150614,
          -0.09825591302024672,
          0.14714416852753617,
          -0.05271475825338184,
          -0.025664658533320256,
          0.05387689411834708,
          -0.07964096262880306,
          -0.03401425955647721,
          0.23951980233502268,
          0.03999524437479754,
          0.03015636889906368,
          -0.038404171807663735,
          0.14574004265315718,
          0.03214748538870978,
          -0.10761437343645806,
          0.05262411278764456,
          0.04067540209428576,
          -0.02724849734328278,
          -0.08846626400387753,
          -0.23452850023649768,
          0.12363123510087251,
          -0.019032262618924933,
          -0.05308812111552977,
          -0.14126415867727823,
          0.03402062917209805,
          0.11148192855904933,
          0.001105051406599622,
          0.0016483379439621263,
          -0.00837990912376807,
          0.052267304334198406,
          -0.07436556688461718,
          0.04788171976507444,
          -0.0036448550956947566,
          -0.03058079198869474,
          -0.0051804816087677626,
          -0.07525655320801761,
          -0.014500180545606462,
          0.0010970661147887124,
          -0.055726476341969325,
          0.2547395805659859,
          0.044677079047808356,
          -0.036330126850834636,
          -0.02230680414429911,
          -0.08981274466751672,
          -0.03680036518050333,
          0.08501044191271591,
          -0.022867929455964095,
          -0.007493571930388632,
          -0.08496020617805326,
          0.07464650577736516,
          -0.049407738636562885,
          -0.025923555569236468,
          0.06620590314563578,
          -0.06031254920799392,
          0.09798616460696345,
          -0.047708313361816156
        ],
        [
          0.026174380243464874,
          0.06190836665654504,
          0.0999042569251457,
          -0.0009493603486571127,
          0.16191993349827044,
          0.15343981462351242,
          0.07399409017462436,
          -0.08207467730029062,
          -0.14513557034802663,
          -0.1750985216712033,
          -0.008789769355567623,
          0.031358308418895406,
          -0.12756323361950833,
          0.03120574847689549,
          -0.0680057667128921,
          0.02873576648419223,
          0.010066062158024622,
          0.0045253707815643045,
          0.014209956380581857,
          -0.10213524941187056,
          0.0018747440387477153,
          -0.03294654468393932,
          -0.0415619645842613,
          0.08669945095843441,
          0.08771287098608575,
          0.13070528342077364,
          0.012069306174733037,
          0.060431710456679326,
          0.03208961507592764,
          -0.041974708513222304,
          0.04626568499101051,
          0.18921041666073535,
          0.06892107425082872,
          -0.008344710860246924,
          0.019847618093456188,
          -0.01990279941647425,
          -0.08987517865974785,
          0.07622819676543476,
          -0.04070322930627684,
          -0.07336511528782445,
          0.012146201526879136,
          0.09611850181414563,
          -0.027814450919698162,
          0.09132630992012179,
          0.0706149206333428,
          0.0017718727443281406,
          -0.07800074731935175,
          0.012958860137674824,
          -0.14336173771701005,
          -0.09726095877768859,
          -0.038088200025961624,
          0.03817977685866846,
          -0.02024462300406255,
          -0.04903165943423817,
          -0.11574674364549585,
          0.05495582249573891,
          -0.0527800702497308,
          -0.10030138123799875,
          -0.022118414830233107,
          -0.07001327493028238,
          -0.00470649556647964,
          0.18448036158166103,
          0.08032594249519893,
          -0.07985860615224125,
          -0.11732374551333222,
          -0.08828384235352464,
          -0.030360209109465047,
          -0.0254519784599353,
          -0.11877482093133146,
          0.10751514752385559,
          -0.069066220505005,
          -0.11090582702372676,
          -0.05265127652660005,
          0.04470362710176829,
          0.15532826593279728,
          0.17582651953359354,
          -0.09507591611520662,
          -0.11739595860898482,
          -0.013176552547231303,
          0.10302676629766816,
          0.06782528445040234,
          0.04607814587320308,
          -0.009421954702809274,
          -0.10374033796783637,
          -0.0722835962546467,
          0.013555716442286815,
          0.12809187265212107,
          0.1731262590399252,
          0.12279743275245285,
          0.026320137758990763,
          -0.16067439067884354,
          0.07580155734314617,
          0.017702827740244897,
          0.05503092509686805,
          0.08451718628678062,
          0.04603401935925852,
          -0.09336070532163401,
          0.0023681270575619915,
          0.03314989097949608,
          -0.128131265478811
        ],
        [
          0.06067137581445995,
          0.08134490246909556,
          -0.005116292631245544,
          0.0688703176298066,
          -0.017777254268193262,
          -0.06028318076283046,
          0.18740200906732551,
          -0.09383885491231773,
          0.11422350745162546,
          0.046244961497698266,
          -0.12679129381876275,
          -0.05316235463231132,
          -0.026296038958497105,
          -0.013434754550841465,
          -0.1295196352007534,
          0.08276078398863516,
          0.04954706671286385,
          -0.09007343134103082,
          0.04519766322707024,
          0.14741670931281187,
          -0.1767545046910604,
          -0.12096943749855657,
          -0.12696738793247678,
          -0.12385377331225422,
          0.00797550648632066,
          0.09031770063699586,
          0.026458772953373778,
          0.17746111492684688,
          -0.12287622052495578,
          0.004307882826412223,
          -0.04455603890687911,
          -0.04577880153971427,
          -0.09322566348698376,
          -0.04166986461105187,
          -0.012838743646416375,
          0.08267733846105858,
          -0.1446942473711916,
          -0.05107403004784465,
          -0.011813040219805355,
          0.07234315848521632,
          0.020182288213839585,
          0.07915202837503676,
          -0.03690432011803274,
          0.016063214978723695,
          0.02547313254146692,
          0.11826679520733253,
          -0.014612355823149214,
          0.09671071077600975,
          -0.07180163810498931,
          0.009628601667331697,
          0.06703638572329504,
          -0.1237942324503623,
          -0.025335827155742296,
          -0.11698695830765314,
          -0.03515489659721735,
          -0.041512158410492286,
          -0.003663386917853027,
          -0.03910053148336013,
          0.14502198451761225,
          -0.09102818195466982,
          -0.21839317680583775,
          -0.07915279696724507,
          -0.01747728573984497,
          -0.030014139061270585,
          0.06458977002161016,
          0.17959941999699394,
          0.14953166085004124,
          -0.028004915065096437,
          -0.005073281932820183,
          0.22247967296285434,
          -0.13770228548602423,
          0.027887392228703876,
          -0.0585811863171569,
          0.04832344461154755,
          -0.058541087454978984,
          0.042340562613516375,
          -0.2248651392541808,
          -0.11593225114947829,
          -0.08414313059662121,
          0.128001747735517,
          0.025584047018933603,
          -0.015606426697677723,
          0.15951951431865774,
          -0.24028423266943016,
          -0.039512929745882615,
          -0.059159600799666485,
          0.09981929607394956,
          0.04745953659798377,
          -0.1553719678926252,
          -0.02644389904378857,
          -0.044409045790620265,
          -0.19134471628068597,
          0.18459792623042423,
          -0.04483638150957823,
          0.21533083298504438,
          0.029083441355663,
          -0.1479045517392328,
          0.039047365562525374,
          -0.13226204560779273,
          0.23577735004626554
        ],
        [
          0.03856768974582598,
          -0.04011009375226021,
          -0.03673292743398474,
          0.10933755511462158,
          -0.006004124567046177,
          0.10247741583538668,
          -0.035366519508416634,
          -0.005667452980683615,
          -0.0058785703882414,
          0.02609589523355023,
          0.0342904926661571,
          0.049435752110452494,
          -0.03122089264967855,
          0.13681524946787893,
          -0.015667297748510046,
          -0.005940699679984421,
          0.0728008064184804,
          0.012512936231479909,
          0.04605117148865876,
          -0.19355200321164878,
          0.08470179957363352,
          0.13277567302390625,
          -0.07518137339614622,
          -0.04507571375832688,
          0.03179559100663273,
          0.008962342227725559,
          0.15248188840392227,
          0.008151964670718881,
          0.2892257808180548,
          0.0004087777894886583,
          0.01624617210412723,
          -0.009980210802355843,
          0.06848626043654785,
          0.08735720534279734,
          0.03200027268543521,
          -0.03812225168853809,
          0.1533934917181204,
          0.08763736723403981,
          0.016965488428608247,
          -0.03081084284922366,
          -0.16653574645319513,
          0.1813748786206432,
          0.06467780479595418,
          -0.004623965237070129,
          0.1868723115975541,
          -0.014436890587204286,
          -0.22176906903258994,
          -0.15093680990662298,
          0.1234177228888539,
          0.031182645782683684,
          -0.29251432112606934,
          -0.2562820072025368,
          -0.10323988194070761,
          0.01259012846801221,
          -0.012933793145010053,
          0.098411797067135,
          0.03156731014266624,
          -0.03527858141123096,
          0.015109863213924829,
          -0.03910550781368261,
          0.04684241307693084,
          0.05982790739665483,
          -0.04627945221502675,
          -0.13811987390021682,
          0.08658377754933626,
          -0.32555816415388245,
          0.038097001335479226,
          -0.06710718233967096,
          -0.02597473928750269,
          -0.06206536369866076,
          0.008404271426113016,
          0.08469257487478515,
          -0.10521679312897704,
          -0.09278487607637276,
          0.05490432396904282,
          0.13804763431079853,
          0.061104444826783844,
          0.09547132277962532,
          0.0771468580267934,
          -0.01870515396254549,
          -0.04006403025714508,
          -0.043808081209701075,
          -0.03512056431735158,
          0.021110849998050397,
          0.17391977536873726,
          0.011236362545181204,
          -0.10318535338241783,
          -0.05131218804997577,
          0.16595339290556993,
          -0.03411678861146314,
          0.04009828551134509,
          0.18129587477628833,
          0.14270743260340757,
          -0.21579249974796247,
          0.03496721106185085,
          -0.022797660865374193,
          0.14622626676338663,
          0.08307336758882918,
          0.030470518991735134,
          -0.17997173375269535
        ],
        [
          0.058969975192922026,
          0.04010089603144941,
          0.12004305351375016,
          0.07940856065914084,
          0.11782192440989056,
          -0.006367173321933388,
          -0.1290414098743509,
          0.03649800045603854,
          -0.2117460221375678,
          0.07967570957978043,
          -0.03161565984834563,
          -0.16923331790760554,
          0.037281715759715124,
          0.25168654319285233,
          0.026323692370126314,
          0.13859444160819168,
          -0.05161176134518133,
          0.012737180947809693,
          -0.030108262002913576,
          0.10621425317384435,
          0.12768568400067878,
          0.08749647074140607,
          -0.14562352670912865,
          -0.08478098433510185,
          0.07565572716424672,
          0.026114443081298264,
          -0.07348733388256663,
          -0.029018554141059447,
          0.23869735705295594,
          0.060152672797501305,
          -0.10298168919532436,
          -0.07504223824830507,
          0.05989743939703572,
          0.10133077000419226,
          -0.0784282880385157,
          0.0848395958797024,
          0.13201455396789485,
          -0.16318212584371075,
          -0.010389496103360653,
          0.07171740635427482,
          -0.007373485874675222,
          0.09987475015384248,
          0.07824354233004992,
          0.06336897653771598,
          -0.09967768139111838,
          0.022413759535475426,
          0.0590791391243015,
          0.10163791659856632,
          0.10104504546761942,
          0.10261889224787002,
          0.060755871814761095,
          -0.02476814945762373,
          -0.10776779461408299,
          -0.04724036868835655,
          -0.024023591811563914,
          -0.06142997106904098,
          0.03311850559452596,
          -0.037223250621172634,
          -0.06550059432429198,
          -0.010768621557535489,
          -0.019314633362060026,
          0.05861497713240306,
          -0.015456811512082787,
          -0.00670941146679899,
          -0.13264853058203002,
          0.07288589910570321,
          -0.08545000719083397,
          0.15576761775383074,
          0.20199420716571054,
          0.08119051589429714,
          0.014579584667204586,
          -0.18468862612133857,
          0.13878431636700095,
          0.12910771998506784,
          0.20134901170203653,
          0.29158552662271586,
          -0.06326638548431071,
          -0.03264490757654328,
          0.24488932753879486,
          -0.07465144211961548,
          0.027786390344773867,
          -0.11797444677639245,
          -0.15073333607096204,
          -0.15371302840573772,
          -0.13909426357331553,
          -0.001302178553862941,
          0.05895724356836741,
          -0.04805194696564201,
          0.1331122937795863,
          -0.18382004692967022,
          0.12388828079861607,
          -0.08759254499679467,
          0.16852908832117613,
          0.010629974726045129,
          0.0717447983500025,
          0.07590352142530192,
          0.23518420699632392,
          -0.040857018107255304,
          0.025212261029999454,
          0.05103871980399612
        ],
        [
          -0.08075601677833043,
          -0.08828064383334773,
          -0.022173375658587017,
          -0.10249066544905833,
          0.1086559333188356,
          0.1225722879367253,
          -0.06185964443483609,
          0.10809368226324075,
          0.11780105340791616,
          0.22168793297780676,
          -0.039941652502301785,
          -0.0158999254810388,
          -0.1762573195006252,
          -0.06984166190791449,
          -0.047070449499981584,
          0.02485693711073571,
          -0.1481919488607873,
          0.24559094998381603,
          0.07083530703224113,
          -0.04466867252297491,
          -0.03936586332604896,
          0.15805950396651713,
          0.017475238980421373,
          -0.01041243466448087,
          -0.056419147738764726,
          -0.00684847515766176,
          0.22033425693611328,
          -0.004575183570145301,
          0.07377335432382802,
          -0.05486127212632844,
          0.06223853525655192,
          0.09064661049541374,
          -0.10560493765448073,
          0.062463936769509225,
          0.022204885402025004,
          -0.07037087579979816,
          0.030956114490001154,
          -0.10419855791364191,
          -0.11510153329439334,
          -0.05407004104931018,
          -0.05575105707880546,
          -0.1626018148017458,
          -0.17602111662641526,
          0.0716977695999371,
          0.13704067981436727,
          0.0990223919947977,
          -0.04518402608993666,
          0.1409082752069115,
          0.18594338321127876,
          -0.04048016132764801,
          0.015575342149988401,
          0.1706254217658044,
          0.05252673128806006,
          -0.01857311382275564,
          0.12736675355137841,
          -0.03268321499202537,
          0.07857875083724146,
          -0.08969222721322723,
          0.011096658285896725,
          -0.11991387496270302,
          -0.0023071612284078077,
          -0.20927979288977783,
          0.03891249008287623,
          0.14669168268982066,
          -0.003060894127050746,
          0.09245883482516278,
          -0.012698777884424629,
          0.005451302135252995,
          -0.1799971183506803,
          -0.021894584570672143,
          0.16755485908149437,
          -0.025128386695471912,
          0.014027575739801961,
          0.19438739670903143,
          -0.07169752566848132,
          -0.021589592593201506,
          -0.10845424424759464,
          0.05048026111295511,
          0.030387045392753165,
          0.01737701740965974,
          -0.022633094449389442,
          0.06284646075603731,
          0.060747331184691736,
          0.04040652711584795,
          0.14887303701576765,
          0.03566206767755502,
          0.14663642205434155,
          0.004485082829498068,
          0.007511836921545736,
          0.21055274795944556,
          -0.01129763964560754,
          0.20479417593225244,
          0.07683252528168406,
          -0.17579638468241543,
          -0.13452617768175443,
          0.19405891625828858,
          -0.11878092699638772,
          0.18371221440916602,
          0.06421676177597488,
          0.1366850610501035
        ],
        [
          -0.1622853122576824,
          0.001429508126237589,
          0.029905606301556347,
          -0.03608109126600131,
          -0.011256092351746369,
          0.07418287681523225,
          0.0033983462944606273,
          -0.10810710751440161,
          -0.21676160082227383,
          0.0044795340477534655,
          -0.017300464490798965,
          -0.05907781072743583,
          0.1383532276695983,
          -0.16005247179315152,
          0.020143669864791804,
          0.057298140395449365,
          0.058924431199325715,
          0.02687908874223651,
          0.028132883669388896,
          0.04012420972268796,
          0.061771015726201424,
          -0.0322840309471474,
          0.06719355950444487,
          -0.1414492679642534,
          -0.022840119260353123,
          0.14578253344942424,
          0.02694771305084051,
          0.019673320294985537,
          0.08284529967067052,
          -0.08202340720469492,
          0.009455747746424,
          -0.02286493209310184,
          -0.06689540389875663,
          0.03085622196296088,
          -0.015580963912701336,
          -0.028649843980603884,
          0.1251075346817854,
          0.16304993570005152,
          -0.053807502161991275,
          -0.06718625311457586,
          0.021169185251567132,
          0.13404743918678164,
          -0.08530052031749845,
          -0.021877101548091967,
          -0.010299814601410814,
          0.07656020573788201,
          -0.05025046168803038,
          -0.029667776655581738,
          0.033250412266808756,
          -0.07296334477840817,
          0.1785495303361727,
          0.11598643791302221,
          -0.09040788803372872,
          0.07230717654447055,
          -0.11183668798437797,
          -0.00014842042810912757,
          0.0036346078673090304,
          0.00696116630013351,
          -0.03600512316230155,
          -0.00923069491776102,
          0.014558322155467781,
          -0.06024932579553823,
          -0.015005435522939925,
          0.19301576582076413,
          0.0659911924891761,
          -0.03011950448552071,
          -0.16744375448502252,
          -0.02487726773301947,
          -0.15402821387639434,
          0.1395996298587164,
          0.10097770355706835,
          0.025704216710203225,
          0.011877572327815692,
          -0.037795359066621834,
          -0.0698409432492286,
          -0.14368374915135945,
          -0.10067162010728399,
          -0.01924274120446239,
          -0.07774350027301828,
          -0.01803771344934214,
          0.09406089645511101,
          0.04939263255903856,
          0.11849629593340137,
          0.015911038643378207,
          0.09484302009241898,
          -0.03589929336266033,
          -0.08791576262903757,
          0.021122454729762274,
          0.015103326492916356,
          -0.007587259518965254,
          -0.0430821464357975,
          0.06911328775565594,
          -0.10646376508033922,
          0.019039805416466177,
          -0.0421436351571527,
          -0.09364908246512595,
          -0.001798477302211715,
          -0.087639574723226,
          0.0011984790527385736,
          0.03167235691050838
        ],
        [
          0.0032622605865283544,
          -0.014643347412493818,
          0.018259730415654797,
          -0.06540893923209856,
          -0.09620556363923737,
          0.07197011582521907,
          0.11770682247497473,
          -0.007988624296066008,
          -0.036050360282234704,
          0.05902763908307667,
          -0.05682560528961014,
          -0.025677023147959672,
          -0.1463599546127767,
          0.047005484609189824,
          0.15359014792818482,
          0.24799637576907,
          0.1559163475345836,
          0.0202371878054973,
          0.05601488970376574,
          -0.1786295747179263,
          0.10828946000459294,
          0.032528167700866584,
          -0.0706602202798612,
          -0.042690667478324736,
          0.03249461422994454,
          -0.016803380356739204,
          -0.2154087503841866,
          -0.007361125887991434,
          -0.016619806828609984,
          -0.04253232355885506,
          -0.1260151301499829,
          -0.13309577827603467,
          0.19897932884783526,
          -0.037482861503995164,
          0.0010852343235486432,
          -0.11757440868667202,
          0.0030355198760741607,
          -0.0007675691167462462,
          -0.08185740402844392,
          -0.15984303158136381,
          0.054830984580445156,
          0.1543665574850945,
          -0.01807776797763055,
          -0.00654501716332555,
          -0.06922151006981217,
          0.03735602807360139,
          -0.08447712986329807,
          0.027600630430941724,
          0.22109414266885088,
          -0.061834301736108016,
          -0.051966836956459005,
          0.03724706933465986,
          0.014818382518703627,
          0.09251679315657244,
          -0.048347577086914666,
          0.016943972860027984,
          0.006225758969526637,
          -0.21342163290659927,
          0.15799377601049583,
          0.046545548243848434,
          -0.03159575782220866,
          0.09914401900040613,
          -0.20148028166086193,
          0.017873915543564784,
          0.007766779588430891,
          0.187826812678162,
          0.03889177509665404,
          -0.01705384533464661,
          0.18929707069162494,
          0.0689030413378993,
          0.13823157978880132,
          -0.08290875823728694,
          -0.14030798151886809,
          -0.07668204989265702,
          -0.058657371343850746,
          0.16041335805335916,
          -0.03603031743108219,
          0.012939622994303143,
          -0.017798099610992265,
          0.15559719805378625,
          -0.006854005620155718,
          0.09627303468085151,
          -0.0009390815273453917,
          0.019862741517003086,
          -0.015031641837072344,
          0.04201420525287239,
          -0.08950040722739667,
          0.14547844839893725,
          -0.22702145369086466,
          0.038727163923529345,
          0.03179470589004089,
          -0.010361731179080902,
          0.0489635280996055,
          -0.07315585855118871,
          0.12092089706580801,
          -0.04051639230996203,
          0.014318282610339468,
          -0.11722685885295062,
          -0.07221798816570081,
          -0.04440717438894332
        ],
        [
          0.23434450674317445,
          -0.1343907986827406,
          -0.042089775989940126,
          -0.21584450346402362,
          -0.08188553796791856,
          0.018096898625444308,
          0.017526663120222635,
          0.02841696966067278,
          0.13409567356397767,
          0.08748159739166986,
          -0.1925530125415719,
          0.025528586636037198,
          -0.08122046971778328,
          -0.07402717198534697,
          -0.06478763326509425,
          0.02074345814574432,
          0.08256100655713004,
          -0.10215221930578951,
          -0.10052172201568046,
          -0.0895331979306706,
          -0.08082159648233128,
          0.06610524663729905,
          -0.004826695054493199,
          -0.034694746642984144,
          -0.021137754256563897,
          -0.15045692022456936,
          0.04752205806820547,
          0.1504560694489343,
          -0.07997299932763231,
          0.055223437769238694,
          -0.057062658334796984,
          -0.06474802893830833,
          -0.09427745144084718,
          0.08449147222347556,
          -0.06752741815072985,
          -0.11725515438487663,
          -0.09348393212554468,
          0.044427780204290244,
          0.1928737385994581,
          0.17681579371424866,
          0.08054782847156162,
          0.08683032793696002,
          -0.1781056314128784,
          0.026359593402716156,
          -0.004059489672910408,
          0.03776771822544621,
          0.07293268599157249,
          -0.07636132599763598,
          -0.07873304280315295,
          0.00015097584258545984,
          -0.13369602569027744,
          0.19513660957780415,
          0.07567305372595066,
          -0.01280534720709779,
          -0.07920300933526901,
          0.028030534827174793,
          -0.145635327897628,
          -0.12078336545828859,
          0.04264940282493981,
          -0.1695679122215246,
          0.056366367970712025,
          0.17585028204285932,
          0.0007965825122875826,
          0.03197873697998223,
          -0.04538903740601408,
          -0.08003194538116391,
          -0.03445346399810864,
          -0.12492194361335783,
          -0.026442611336156288,
          0.04501681710658935,
          -0.0948781894529706,
          0.13499588907207277,
          -0.13274669829284838,
          -0.1299662865716465,
          0.06320519991632949,
          -0.13849547669040574,
          -0.006210362121828817,
          -0.15307603973304326,
          0.10798469949489381,
          -0.01933636131523562,
          0.02841806904220782,
          -0.06775617581457533,
          -0.01799716222814618,
          0.1514732821963774,
          -0.00870072304447291,
          -0.14231384570362396,
          0.04631124720318029,
          0.05465523138253842,
          -0.09162639942601801,
          0.02748761144536564,
          -0.05108498712209698,
          0.19819782504305292,
          0.06545032052040067,
          0.04813089961215613,
          0.049162272397857545,
          0.11192428906480317,
          -0.12269990208202118,
          0.011793462466527472,
          0.02482472159339336,
          -0.09366703999886272
        ],
        [
          0.0005012219967862351,
          -0.02461055200866362,
          -0.0035678671215356897,
          -0.01378413435647824,
          -0.0517848187273895,
          0.10904689606598761,
          0.07960593854666795,
          0.029957511307701027,
          0.032981305101965376,
          -0.09368580637302742,
          -0.013697922493699785,
          -0.06353530613643742,
          -0.07380957946728099,
          -0.19875650843569811,
          -0.06574885471256946,
          -0.06237071064643561,
          -0.08337601895857548,
          -0.01286942814418338,
          0.12324497014518886,
          0.02055088876884023,
          -0.06068965894909391,
          0.05455312538416681,
          -0.21710248533603407,
          0.04483827562272283,
          0.07713807860964193,
          0.12791974447944757,
          -0.012265348737568255,
          -0.04852028564551093,
          -0.07914448020916841,
          0.04787722530464969,
          0.10686453473947051,
          -0.06867068639545543,
          -0.08524044714075078,
          -0.1307048200126334,
          -0.004023255864239033,
          -0.09860237395755539,
          -0.0420144148765479,
          0.05946056813759447,
          0.004988751494575235,
          -0.08799406780356966,
          0.07477313782679194,
          -0.05253850640918755,
          -0.0439507240857223,
          0.09433600872623162,
          0.05058254848244394,
          -0.17353354864192086,
          0.04271096932893213,
          0.05264414311244423,
          -0.017243390471893633,
          -0.003003453792982655,
          -0.16082918060662818,
          -0.1154960692152318,
          0.13146890876885167,
          -0.08105718399865931,
          -0.004386049133330921,
          -0.23375071376974643,
          0.005050703223063651,
          0.020823431687019573,
          -0.0695818647093147,
          0.03475913237344771,
          -0.0613346064255237,
          0.04658128360317761,
          -0.10552409105697842,
          -0.07879291920856182,
          0.01307301764152391,
          0.06525637949389371,
          -0.0709172020974897,
          0.08175488913140602,
          -0.016596072673438315,
          0.07008027079084803,
          0.03283100446749506,
          -0.11228072337773433,
          -0.06000223522946476,
          -0.024656382426486337,
          0.04251453270195025,
          -0.10587213334314481,
          0.21010962506509792,
          0.049578031708457496,
          0.1194778722858671,
          -0.03771950302330029,
          -0.09240906299122031,
          -0.12500028262832066,
          -0.06885030484736743,
          -0.04966967178258971,
          -0.19577803645507225,
          -0.06018716147190222,
          0.1365378725819803,
          0.21196393026335494,
          0.13976703173046928,
          0.00739867738209108,
          0.005359156048199877,
          -0.166526212640791,
          -0.11128047174523656,
          -0.0638287365645543,
          -0.17361197571008372,
          -0.11309069556749984,
          -0.1033618441048311,
          -0.07333064595731473,
          0.008799857171350435,
          -0.08982042454035931
        ],
        [
          -0.1229581764995848,
          -0.057431771268739336,
          0.07260185035741659,
          0.20662482828208903,
          -0.02262109104803271,
          -0.05275729757513163,
          -0.23081459119869668,
          0.0390073207703858,
          -0.0332114631271536,
          0.06702902834587676,
          -0.16826638605741823,
          0.048055930551969904,
          0.10071929708209128,
          0.08282792033181147,
          -0.002756247106843339,
          0.05054300041875851,
          -0.04827218825824463,
          0.0508202162116188,
          0.009559992393395294,
          0.011482177545125098,
          0.08886491651672912,
          0.11910746123448905,
          0.08995254481084908,
          0.004592483526763154,
          -0.0506218658172553,
          -0.12959363759352352,
          0.12082000540746311,
          -0.025151178606218665,
          -0.06985104901012272,
          -0.05622550582314538,
          -0.06816747809889075,
          0.08249213864556859,
          0.07030997819114328,
          0.1176615400239091,
          -0.03652170637089311,
          -0.12714343382452317,
          -0.06879689570841337,
          -0.1104346650055988,
          -0.0031813001749867367,
          -0.0027004961655787653,
          -0.0022680094376835184,
          -0.03494172541118286,
          0.03060301164025779,
          0.08142455530927771,
          -0.056153191935420385,
          0.06412345677021965,
          0.02216379168864963,
          0.06435767843931924,
          -0.053882074102758935,
          -0.10028996181958895,
          -0.02168964901715266,
          0.1038808417116529,
          0.21227790648984893,
          -0.023444813670930778,
          -0.05428494199043635,
          -0.13480695781287078,
          0.056202079940535755,
          -0.07618631719436582,
          -0.047780318208772946,
          -0.12960338936303464,
          -0.19668646213821933,
          0.07406805597168502,
          -0.03425994073823376,
          -0.05696257307098733,
          -0.1042439615260518,
          -0.016044684358108435,
          -0.022207131297208763,
          0.03328675064473441,
          0.12303560116072768,
          -0.03343731130882892,
          0.014656097177900113,
          -0.009564365959266621,
          0.0012814969658836665,
          0.057637545818625034,
          -0.10186842953805837,
          0.01674578965500962,
          -0.2731277040417189,
          0.0030143176424200693,
          0.08814542330680464,
          -0.08617999403144991,
          0.012699369618270331,
          0.035553030379153513,
          0.13675684210782968,
          -0.08177365564645932,
          0.04116589602338152,
          0.050705254790510655,
          -0.07878794519697783,
          -0.05636772694460939,
          0.07268968957293763,
          -0.08006063458510584,
          0.004281451304413171,
          -0.11408837797299178,
          -0.04636807092364751,
          0.1082355478950999,
          0.02682141017142951,
          -0.012941537511285378,
          -0.11021828009784965,
          0.007853625142444545,
          0.06234864099350159,
          0.07969227075753013
        ],
        [
          -0.0027453106993518303,
          0.11395954014797342,
          -0.11144958440027454,
          -0.060987383400333155,
          0.05318148960483798,
          -0.024359629288416836,
          0.033055526567622395,
          0.05554318364190184,
          0.007362701761919252,
          0.09519395217830444,
          0.13012806865202578,
          0.05999033125701248,
          0.04131901202078092,
          0.1654932662473847,
          0.08022281046860429,
          0.006224808590494589,
          -0.017021675551977623,
          -0.1770065799129429,
          0.06526864526950817,
          -0.08356296048492012,
          0.09155937614604477,
          -0.14445710088630587,
          -0.049720715646052384,
          -0.02926671430697403,
          0.021748062097942285,
          -0.004358870859231846,
          -0.048653102138034185,
          -0.13769519026471985,
          0.05436761486544983,
          0.004997872502634287,
          0.016011343184592595,
          -0.0016246859338801675,
          0.08575421371403125,
          -0.05434551355601199,
          0.06720765554937086,
          0.01159653369495674,
          0.04373485772569559,
          0.060524882021052606,
          0.03326429442960775,
          -0.059473795689598846,
          -0.1848392199264511,
          -0.1629098270963789,
          -0.2792105391856452,
          0.12716191173510263,
          -0.07576489033885918,
          -0.0010544849066412292,
          -0.14265601203481262,
          -0.09088799067451546,
          -0.09205508619427483,
          -0.009960496405167146,
          0.011872705641761393,
          0.00987790786420536,
          0.039768870954665615,
          -0.10775320448877689,
          -0.11219648501692639,
          0.03573553383413462,
          -0.068851701811262,
          0.06278378562880416,
          -0.018762267840520416,
          0.1733233818460654,
          0.06722039825108451,
          0.20427851114869214,
          0.05184230871147992,
          0.12678291432978223,
          0.07586578722305753,
          -0.14783019980301698,
          -0.07830268184739027,
          -0.17337611419313906,
          0.19017451543269762,
          0.11892045011818687,
          -0.15170226296190284,
          -0.11185559114760087,
          0.003813661155350267,
          0.08500336945444603,
          0.03799505572390481,
          0.000977075945199113,
          0.028142130371486218,
          -0.07044621152907511,
          0.1735128140345616,
          -0.04880033540164434,
          -0.07363311574967969,
          0.031668678293885644,
          0.1757826924164463,
          -0.1256809616842622,
          -0.006120068489154394,
          0.009126432945529962,
          -0.026860907502664257,
          0.05437037911965007,
          -0.04581232164446842,
          0.010166057367318218,
          -0.000805258236161912,
          -0.012866763778339264,
          0.009603238812180644,
          -0.055610157927510506,
          -0.06297157686233144,
          -0.0613608222967321,
          0.09092455030186558,
          -0.12187147219835402,
          -0.050977189451882024,
          -0.014274564769564199
        ],
        [
          0.1920885984521956,
          0.1509141421816337,
          0.010091285256491278,
          0.08652318879421876,
          0.050790632072892174,
          -0.05851256088672846,
          0.058616449880515155,
          -0.03430311425104416,
          -0.04530375672945194,
          0.10038725044425933,
          0.0019915937776745266,
          0.017878668912431235,
          0.18978761325087556,
          -0.12886052902388953,
          -0.01757173781258345,
          0.1383914025527901,
          -0.017169591698774623,
          0.12397881988496558,
          0.08861709939457858,
          -0.1818922586963652,
          0.0381184139592062,
          -0.17112858600123895,
          0.034264646343199444,
          -0.08823280221682502,
          0.1610813846164439,
          0.13900369207286792,
          -0.0937241269400949,
          0.01689838729749115,
          0.08862922728569658,
          -0.024865780773116877,
          0.0358763949891791,
          -0.07549695804265717,
          -0.13296447116885676,
          0.13160183554044463,
          -0.08472308144085298,
          -0.07269904253423493,
          -0.06562004869276802,
          0.07162804752205465,
          -0.010883261469730272,
          0.04739702804561763,
          0.01859809397629535,
          0.036876340205313565,
          0.02366444982669552,
          0.1099437849855149,
          -0.007000111572621386,
          0.004507505640493319,
          0.048256778409935634,
          -0.012060683245495571,
          -0.03807956915602415,
          -0.020853805397016284,
          -0.0018937808482008128,
          0.10175625231963575,
          -0.0795825793215716,
          -0.09523220029791671,
          0.026212415659118613,
          0.018766002143928935,
          -0.10930150166762366,
          -0.14393651707475455,
          -0.012886667760996815,
          0.08231900214403598,
          -0.002167078413912874,
          0.07242962826313687,
          0.08831037234291506,
          -0.15264584353379473,
          0.011408009579690834,
          0.02090430148899669,
          -0.10525019319564667,
          -0.26565685908514275,
          0.018840888240665432,
          0.024833543502304208,
          0.05055236856589865,
          0.04143201379355629,
          0.02842413939910696,
          -0.03750385511766397,
          0.00894131960547848,
          0.09389305445025853,
          -0.11605800552904602,
          -0.13293893055838027,
          0.07788583632662006,
          0.06274144424695247,
          0.10997062079923364,
          -0.1281257010215665,
          -0.02422664402193653,
          0.02837740080419169,
          0.00831425449272721,
          0.052582811861152615,
          0.010156954896105831,
          -0.07412223732395345,
          -0.17096666251264211,
          0.093705988164461,
          -0.07579806387617845,
          0.17094328077808435,
          -0.0482596859926928,
          -0.08082200058999299,
          0.027528605799951793,
          -0.034011434312607794,
          0.08120044245084301,
          -0.019068882563571567,
          0.10727713519178593,
          0.08915886061392465
        ],
        [
          -0.019693092794580137,
          0.001936522884859684,
          -0.013065998559913248,
          -0.06749809844321965,
          0.053508899936655974,
          -0.05513563743933651,
          0.04903602821654079,
          -0.14258234740961412,
          -0.18001156079008945,
          0.024575333015262747,
          -0.06416002899848006,
          0.16748949686985454,
          -0.09156195666418171,
          0.05414438420032065,
          0.06031761485501109,
          -0.11655694305139878,
          0.15078019079232935,
          -0.06693598571038424,
          -0.06698326882493809,
          0.007718731779297405,
          -0.0741235738631392,
          -0.031438205851578874,
          -0.01060492823181933,
          -0.01032004690208736,
          -0.0003035565968050479,
          -0.009688727130801628,
          -0.05026617290675545,
          -0.006942697125923932,
          -0.08294660067219338,
          0.04561835374319626,
          0.016407368898811673,
          0.028581170370554142,
          0.0684153276546623,
          -0.08267990693617712,
          -0.01818896801201563,
          0.09664545738147383,
          -0.028704157842832444,
          0.004609996103366402,
          -0.06239302503663526,
          -0.017031742633048484,
          -0.15675429974148314,
          -0.08726203359446846,
          -0.07629383799669992,
          -0.06539832544690433,
          -0.10026900897489231,
          -0.11963550635448705,
          -0.05601340538858867,
          0.1295647876530958,
          -0.008760746078577587,
          -0.0054183115756557005,
          -0.010922142118821863,
          0.0029265746935440116,
          -0.05983587848401661,
          0.12026637706364991,
          -0.044377029119827625,
          0.09292949757632439,
          0.11307380035452408,
          0.02101202087487377,
          -0.05097059713334216,
          0.013746677520808255,
          -0.15244361056147482,
          -0.1007876736857083,
          -0.02091324372023633,
          -0.1695005953075598,
          0.12292367943476777,
          0.16549396944644362,
          -0.028692886521383486,
          0.0792549211230393,
          0.1424055378717849,
          0.10673844963019832,
          -0.14764068954295884,
          -0.09511568030537729,
          0.016135494732665175,
          -0.09489261845474821,
          -0.1357591390386485,
          0.10636814496341948,
          -0.024921627102307595,
          0.03538732299797344,
          -0.08990709910434816,
          0.264416666212078,
          0.1676024946574658,
          0.10612201055387066,
          0.026781670817407097,
          0.09216211553112139,
          0.07070760911596229,
          0.037139443389408756,
          0.015101070089314194,
          0.18256233795574006,
          -0.028824134475323004,
          -0.06594272900011902,
          -0.1148811502090579,
          -0.024041437180919834,
          0.0787889579416048,
          0.038668788610190366,
          0.1100184244366327,
          0.05785316537874174,
          -0.004543839674303167,
          0.11392436874489896,
          0.028218606409596787,
          -0.08453647676080663
        ],
        [
          -0.08494155370613907,
          0.12435853757972498,
          -0.05226993484004952,
          -0.09310320825591455,
          -0.007238505571936096,
          0.08092501038739533,
          -0.04830885532000844,
          -0.05261222727910076,
          0.027877359510347685,
          0.03490549249762468,
          0.008470319261183886,
          -0.1539514308744973,
          -0.13264266177824413,
          -0.2208926499375453,
          -0.1507348390780435,
          -0.09480137646912627,
          -0.002249831511346893,
          -0.05768323323130244,
          0.017014033914462542,
          -0.11896519352690603,
          -0.08547652463401263,
          -0.09776048687118719,
          -0.062443758369741614,
          -0.0050398249101064295,
          0.04369512121502126,
          0.049262608894909486,
          -0.1916187528843794,
          -0.13420769417620473,
          -0.1328510679737596,
          0.14811019921604876,
          -0.06577729935796678,
          0.11893828869479657,
          -0.10578495328144744,
          0.12252758530779956,
          0.13537051448551857,
          -0.1007759020108026,
          -0.09712542667952569,
          0.006090353630520556,
          0.15521889525299198,
          0.1981989569824311,
          -0.1325113273297422,
          -0.024972837569382997,
          0.1552860969359751,
          0.09391000439879013,
          -0.12548840113317505,
          0.04872278409111843,
          0.14651383472193952,
          -0.018612348740392002,
          0.05896099916617828,
          -0.002319838867007143,
          -0.09362314301121144,
          0.060866361816933466,
          0.10035757473605567,
          0.006778344179641846,
          0.04135407743261613,
          -0.08845186957596585,
          0.14937387433410448,
          -0.2353755422647963,
          -0.06622406910302271,
          0.1006091906365461,
          -0.04760307907143183,
          0.1333360035864742,
          0.09311098830483198,
          0.04281990485761352,
          -0.04749405992904922,
          -0.022140114720527564,
          -0.022059960475764584,
          -0.04790352849646955,
          0.0894551031059462,
          0.03367094088685754,
          0.19047912278293272,
          0.02058262808372631,
          -0.02888205438812887,
          0.024251496145600532,
          0.13741354880016318,
          0.016563353419552267,
          -0.13226159126869808,
          -0.004723371759768103,
          -0.10663634260109138,
          -0.026373234096806097,
          0.06478284886657752,
          -0.01346697493348819,
          -0.03493188964628651,
          -0.17108346928688495,
          0.11372426083612742,
          0.11943805572964991,
          0.20574325808256613,
          -0.08238738219115349,
          0.010951499795714303,
          0.22009194892216769,
          -0.014268149822837065,
          -0.08231778899686758,
          0.025806548362099675,
          0.1323283066281218,
          -0.014581779709766483,
          -0.1292330234817236,
          0.0030957416354108385,
          -0.0016817827154960122,
          0.088016686828233,
          -0.07419547151348561
        ],
        [
          -0.07078152916225498,
          -0.10280528581078766,
          0.043137403258358166,
          -0.01914987033721517,
          -0.012592969865316161,
          -0.021946529701220952,
          -0.011847246571512721,
          -0.014010707982068566,
          0.06085243979069179,
          -0.057557046316359446,
          0.08113186853287144,
          -0.10054749110638278,
          0.14536770928771228,
          -0.08131885503510722,
          0.008646013227950252,
          0.05344311138168558,
          0.15626419350047274,
          -0.006495935966769525,
          0.008349987501274473,
          -0.060112976382734766,
          0.00402187286420187,
          0.006808157611215395,
          -0.10960603271448283,
          -0.16130163617890675,
          0.17058256665589983,
          -0.00573082653959036,
          -0.09444191064291114,
          -0.0057410748157621485,
          0.04115530971849411,
          0.017956349532728743,
          -0.08790120158874537,
          0.021868719141633484,
          -0.04081992029349814,
          0.06483592794447987,
          0.09272144530158127,
          0.08594589091537476,
          -0.08051521956575759,
          -0.12852247677572248,
          0.006004944328595589,
          -0.0024643631777533045,
          -0.020221101272729525,
          0.014842664047415704,
          -0.10947242106461295,
          0.04014295193449169,
          -0.07658327461230274,
          -0.09316634810060524,
          0.015218248967211565,
          0.00091460266504379,
          0.0898855643505879,
          -0.009552560970294617,
          0.15089062462396677,
          0.03093673817165118,
          -0.06532969811008517,
          0.028825656124913095,
          0.10591974348891552,
          -0.09308964788879788,
          0.007439212636374161,
          -0.006506405324333928,
          0.06877769582745696,
          0.08842322881617026,
          0.03670307426180346,
          -0.1381919676225641,
          0.0009726706460988128,
          -0.07327425810228734,
          0.08735123567049968,
          0.01711891523796696,
          0.00619614676871841,
          -0.029993139730548905,
          -0.19484278037985303,
          0.07415214391889413,
          -0.14802422987739913,
          0.04989617187757804,
          -0.03500366490675637,
          0.11142895290170196,
          -0.02904787733071997,
          0.3608640493325578,
          0.11333771158630168,
          0.06766036220144028,
          0.07208962223221525,
          0.23847193828482122,
          -0.0280534372133755,
          0.1482282074259167,
          -0.036886167331436154,
          -0.009519142212327695,
          -0.03203624053857143,
          -0.05764119099413434,
          0.032974830218535256,
          0.1653695084566918,
          -0.18273997147934334,
          0.08583398378576511,
          -0.15540504616614176,
          0.06184793383394369,
          -0.06858779096522619,
          -0.005806726199369391,
          -0.18546720751660994,
          -0.10661538414157766,
          -0.07806185200276139,
          0.10888621675392593,
          -0.03582659671320816,
          -0.09148562513767289
        ],
        [
          -0.06034825192654012,
          -0.1399656307610557,
          0.054069983821550476,
          0.054316282313234834,
          0.07399380633655792,
          0.07331337845987751,
          -0.021931035310464385,
          -0.1141489083546723,
          0.13872401051194022,
          0.005768493821854507,
          0.09674763753550422,
          -0.006058003781660722,
          0.045833430101871804,
          -0.09171691470140729,
          -0.028120911706634846,
          -0.019014909381781596,
          0.18533278016017268,
          -0.248008696358885,
          0.1329251578188044,
          -0.10609207721846108,
          0.18528305490149846,
          0.15292431643944504,
          -0.015402304522911876,
          -0.03386475874596142,
          -0.11903697562055285,
          -0.04395853784277591,
          -0.08125942653952548,
          0.14795123728290216,
          -0.10092162749394706,
          0.035873111377848675,
          -0.0712972088655805,
          -0.03405706341120654,
          -0.04414126723564405,
          -0.005400806865010358,
          -0.19681126677980468,
          0.008611159195294158,
          -0.09885912308135718,
          0.10598502688727318,
          -0.08267206710254872,
          0.047438449314068716,
          -0.07918210295459932,
          0.06929367106112437,
          -0.047372739849990665,
          0.11130698287438048,
          0.180170821834433,
          0.11902863170057724,
          -0.08612652314947312,
          -0.21782913554341551,
          -0.14704130740445884,
          0.0025700662954099645,
          -0.001972032556586104,
          -0.25059090306805204,
          0.05198977942303144,
          -0.0190054323997621,
          -0.024486381275560454,
          0.10628695684546725,
          0.13296540780155974,
          -0.0026600151771016063,
          0.10954203451552269,
          0.06387144865127665,
          -0.14706146756822186,
          -0.10808478244808056,
          0.0807003022477054,
          -0.16616997396875707,
          0.014681965806290154,
          0.06301447989637377,
          -0.08652660931083006,
          -0.13825609835779104,
          -0.02758523754667373,
          -0.05687940266809105,
          -0.11553038932386415,
          -0.11620579499859644,
          0.008498557003649746,
          -0.07482870907654439,
          -0.052527598521261154,
          -0.02333876730989363,
          -0.08248820288274678,
          -0.01371069313669554,
          -0.01299739295771181,
          0.10032294464524766,
          -0.005869474718291435,
          -0.04200680820693327,
          -0.13057182571234704,
          0.07206403914869919,
          0.036720990114630384,
          -0.01974857646462532,
          0.20692634780937436,
          -0.13420909483629753,
          -0.007923007015589957,
          0.03489908597800371,
          0.24433215806765274,
          -0.20748284180778387,
          0.044622266161512936,
          0.03782774264561244,
          -0.06346084272484019,
          -0.0790348513372105,
          0.04661034966530313,
          -0.045471177988264944,
          0.1301155470418213,
          0.04388107429577679
        ],
        [
          -0.030341570938536688,
          -0.10927959704069727,
          0.13472189864256004,
          -0.02187621261021344,
          -0.1811108191821893,
          0.14350114071695821,
          -0.09202344134796542,
          0.07533155225092365,
          -0.00547376105223653,
          -0.03194133016503927,
          0.19671633150655535,
          0.061218295146998045,
          -0.03373440112412204,
          -0.02181977149475321,
          0.014674183451382937,
          -0.08713232977063617,
          -0.111321879654098,
          0.16459403358313102,
          -0.09200443344708002,
          -0.06049931683986529,
          0.01073361040713223,
          -0.08259622986826037,
          0.05567322648629684,
          -0.06771420043228908,
          -0.14059650974876436,
          -0.2826211797800444,
          -0.028985829118073056,
          0.1590971764876629,
          0.09887664429372871,
          0.026461493397926045,
          -0.030956195053579185,
          0.0895550410907148,
          0.05459171805923267,
          -0.022523122623394877,
          0.04510873059554118,
          -0.02781138600569747,
          0.09484039869467621,
          -0.07559854605913538,
          0.0417896236314575,
          0.02629999739469752,
          -0.16527054037864913,
          -0.0002809386312958268,
          -0.04009630439392333,
          0.066727882803258,
          0.03141936929416342,
          0.031507840393002605,
          0.1103326302675275,
          -0.0403987607046594,
          -0.2153696973353217,
          0.06439239613808077,
          0.15251077311714345,
          -0.009760701321583748,
          -0.027823310547062333,
          0.022005895671065007,
          0.05165098289622062,
          -0.05774618600103173,
          -0.1149070438582263,
          -0.004452910781725242,
          -0.1649221323143093,
          -0.048443822276034935,
          -0.10491314256931272,
          0.06174365447778502,
          -0.11635843503956105,
          -0.1071767539290434,
          -0.0809159434349882,
          0.08547802062160698,
          -0.1341206895749291,
          -0.035247779803268556,
          0.11552744129657969,
          0.07886379153479742,
          0.012379528651423841,
          0.047439864957488365,
          0.07213557528132583,
          0.05731882289408189,
          -0.07433146329353041,
          -0.10342712534135691,
          0.18670051833812049,
          0.082720092248901,
          0.11147886770694275,
          0.09080378102811358,
          0.003877696731578882,
          0.04171239147578164,
          0.005922535897680877,
          0.07847819718922128,
          0.049602377532744484,
          0.06780238555845593,
          0.04127857836370844,
          0.11317605291759338,
          -0.13101577936137793,
          -0.08983776833106186,
          0.0015061639027026206,
          -0.06033007420054885,
          0.07336863276071616,
          -0.005025248313272999,
          -0.1344615841894978,
          0.05112052478903258,
          0.023603748626668017,
          -0.06562105831039458,
          -0.007840448285950468,
          0.05111946217525337
        ],
        [
          0.08346762325415273,
          -0.08050194713649743,
          -0.02576633039153882,
          0.058878473733909226,
          0.028245833967900473,
          0.12355501623646065,
          0.06517178710847038,
          -0.05936669122011257,
          -0.08061622717965959,
          -0.10470050448785743,
          0.16237176878571008,
          0.14478553423846985,
          0.1635101043126533,
          -0.05422144757395403,
          -0.1774076881239833,
          -0.1405792642545603,
          0.06644811005285997,
          -0.02150564964248136,
          0.20180081884968956,
          -0.10511725966572412,
          0.20601340155567757,
          -0.0007297677743208815,
          0.03832633172280054,
          -0.14822525447284474,
          -0.20384116699175983,
          0.06409489628325213,
          -0.15488572688593832,
          -0.11970291728802078,
          0.008543598480547325,
          0.0030477115496108233,
          -0.07586259877017593,
          -0.0548512920203033,
          -0.15236815789093722,
          -0.07006835942607317,
          -0.040432813259175894,
          -0.05035120047994707,
          0.05838930223443626,
          -0.01427806882234447,
          -0.13809848352775728,
          -0.12995948409734914,
          0.10971618628903729,
          -0.14077847462583107,
          0.04680470990714994,
          0.1921039192023598,
          -0.03694003739460122,
          0.029259057126754175,
          0.23644480628404999,
          -0.07288459707869226,
          -0.17691582843218975,
          0.2364978994042462,
          0.03956696231317147,
          -0.14260611656672148,
          0.06440770275276021,
          0.08271111663977665,
          0.08749224821621375,
          0.0882007868141094,
          0.17605981349276664,
          -0.21062484221092723,
          -0.044039701796160215,
          0.0921900828584668,
          -0.06816148605085119,
          -0.007835847897012343,
          -0.013730372937426431,
          0.17497498789229196,
          -0.06191682071241581,
          0.10230266467525392,
          0.005799424989921695,
          -0.0758946277994595,
          -0.08408897243484859,
          0.08527625563417811,
          -0.1766683580052423,
          0.0399621716362409,
          -0.0027780072361775925,
          -0.029931719352046426,
          -0.026661661468321985,
          -0.01583344873973255,
          0.026766836564514437,
          0.07339893745759483,
          0.02364589278231082,
          0.09574921358909969,
          -0.04879450429411754,
          0.11728212316619058,
          0.1287881973810896,
          0.06594494997945691,
          0.11689561671758886,
          0.06720722615051385,
          -0.04212973765762931,
          0.034959417937898696,
          -0.05552721284005217,
          -0.26003591777918117,
          0.12764895275391505,
          -0.0622084381282183,
          -0.057759389491930435,
          -0.06500449455062195,
          -0.12970022343177637,
          -0.007178564068711848,
          -0.2991260723095349,
          -0.12157151840542417,
          -0.002548570914495586,
          0.045159904541883684
        ],
        [
          0.2392822427994588,
          0.001864577462494183,
          0.08606925233550182,
          -0.07042452981669925,
          -0.043451201084315036,
          0.0014273216743422093,
          0.017986705823867327,
          0.1607957951904196,
          0.0647123824257536,
          0.21051699856956674,
          -0.015856415073395202,
          -0.034832703734888136,
          0.015123964566922167,
          0.034497582627695415,
          -0.061656652725212244,
          -0.03741802484827457,
          0.025529444497468395,
          0.09283826383326564,
          -0.1186623018884037,
          0.055287531575933344,
          -0.06163521228148694,
          -0.15620508316409729,
          0.020100488531840106,
          -0.11298700382827975,
          -0.1410723059544106,
          -0.28276568550752157,
          0.010237516705606298,
          0.1509540296955607,
          0.03428429523578135,
          0.06618441876508807,
          -0.17393215197359105,
          -0.07674662626714872,
          0.014267127986921948,
          0.061523442144720226,
          0.12244982331394691,
          -0.058389590914287734,
          -0.07961905454689229,
          -0.1207116775509198,
          0.1841404615531121,
          0.19856313853248375,
          0.10643914509783801,
          0.1502538280604013,
          0.05937882356600629,
          -0.004103569212472437,
          -0.15683012714662362,
          -0.09531790339739567,
          0.07037634896224029,
          0.004884298415248163,
          -0.09566430634956981,
          0.044856640269883334,
          0.15797822801680822,
          0.11685670394096426,
          -0.1880100241609661,
          -0.11653728802833908,
          -0.15200539928168932,
          -0.0038499583953185814,
          -0.020489459098066747,
          -0.06561828729036079,
          -0.10229694947007456,
          -0.03428632033193162,
          -0.15110798710448045,
          0.0354733469843253,
          0.07988862003152152,
          0.10565111025724999,
          0.09838416734086075,
          -0.1434626837402487,
          -0.007974820209871322,
          0.08191396036240901,
          -0.12641343727524354,
          0.22908030199139034,
          0.11526466728527793,
          -0.05264494001683811,
          0.16924878708424193,
          0.007346996948147598,
          -0.024258037934206545,
          -0.004115459013628243,
          -0.056334766257519486,
          -0.04799950026764927,
          -0.0887111038299139,
          -0.056231348486162284,
          -0.08198723731069464,
          -0.02278188848307168,
          0.007633718265425981,
          -0.05472211947367731,
          -0.03273404515509345,
          -0.024893908341477377,
          0.09917110054970699,
          0.07345253755648792,
          -0.1700020780912767,
          0.12634082375588213,
          0.007134155402087644,
          0.02867439400844724,
          -0.10309022573295554,
          0.10045881799601097,
          0.11563948757699812,
          0.05266829586442168,
          0.10895218181946245,
          -0.08500890527763563,
          -0.04942784709992547,
          0.04325085807173521
        ],
        [
          0.0002351541622959919,
          0.040964032176562394,
          -0.055461174593536576,
          -0.13041616398751393,
          0.03666735096677845,
          -0.017382873315483778,
          -0.02468343076454024,
          -0.0276928334949045,
          0.10889904984322746,
          0.04532052838582006,
          0.04528407965873508,
          0.16629934774213057,
          0.11051042920258497,
          0.017484868269411986,
          0.19200264971121248,
          -0.0883982162248529,
          0.01724248074055585,
          -0.1613967456291021,
          0.19573141639331104,
          0.17178664221443904,
          0.008439883070860929,
          -0.10671639819020678,
          0.2794143268652999,
          0.06233911413403173,
          0.19957850557315326,
          0.007561535888489271,
          -0.08109767751754632,
          -0.0018220666519820612,
          -0.11936843560885718,
          0.15953158880795093,
          -0.06474308402378694,
          -0.032955165498260476,
          0.09783986633928345,
          -0.08605204093591162,
          -0.0012446522678139786,
          0.0030242407145751825,
          0.09245257164026144,
          0.022290935407260078,
          -0.026525106089193184,
          -0.17461227811845823,
          0.041232760400633645,
          0.030615153006065605,
          0.15361575148521275,
          0.06716741982844045,
          0.1558467708565243,
          0.039656370694420906,
          0.0672184694874474,
          0.03426990332171692,
          -0.024629026855302615,
          -0.12170824623365539,
          0.07870179056359083,
          0.02441091895112546,
          -0.18737469717485478,
          0.016062381628577066,
          -0.11117756368145164,
          -0.08572430110304313,
          -0.06313392577387142,
          0.040580739379267664,
          -0.11962751415964902,
          -0.10580980076785576,
          -0.08107751009569111,
          0.0069228694099197725,
          0.23192236138316263,
          0.1904860703381018,
          0.02354599666592821,
          0.005863449326450301,
          0.023299192956080947,
          0.21175022543770147,
          0.053699037825276706,
          0.006573030933159932,
          0.035964459571127955,
          0.06338012683282081,
          0.005959632405250112,
          -0.0656227739948914,
          0.0838071479394,
          -0.006334271122063155,
          0.04389033170685482,
          0.11694664488894084,
          -0.014286834081892689,
          -0.10795219159136364,
          0.04705881872435457,
          -0.020358753537207994,
          0.009685404728579117,
          0.018274096166217408,
          0.06761050037789285,
          -0.07110880874387221,
          -0.0654994247204394,
          0.20202019481539352,
          0.09769436973425326,
          -0.0782767391245374,
          0.11458996445205363,
          -0.011904313593661415,
          0.035265733447251986,
          0.03675764121172829,
          0.13707458156303004,
          0.03423759183497117,
          -0.10623131177577767,
          0.18701697261496214,
          -0.0416935800289509,
          -0.12763645760955483
        ],
        [
          0.04082802807043783,
          0.15786688994075182,
          -0.058440189233195265,
          -0.01610717668466752,
          -0.19959228788013123,
          -0.1122691719645132,
          -0.026120892029733635,
          -0.14598550106405492,
          -0.05727784290347161,
          -0.028379723922807125,
          -0.20448143243839514,
          0.16710893113778144,
          0.022938793389949235,
          -0.0862072717008723,
          0.08518786050354743,
          0.12898917745105518,
          -0.10682936394410773,
          -0.06485299693231443,
          0.02453351523629579,
          -0.006847964611148677,
          0.05791679142014863,
          0.06846056198873908,
          -0.09397511531886489,
          -0.05216297761622762,
          0.09429961531706248,
          0.1350356233372465,
          0.0243829590882937,
          -0.00473035978640482,
          -0.13835258036469242,
          0.2936181743996592,
          -0.11538266055301027,
          -0.05225256072222496,
          -0.0891171241554055,
          -0.08740446159494909,
          0.04303768849300651,
          0.01575826190411018,
          -0.037998848354946164,
          -0.011954065960258376,
          -0.04642287845920055,
          -0.05309917370221251,
          0.019733226627716115,
          -0.055905839645704204,
          -0.0037661268924970436,
          0.0799936801609363,
          -0.1788593658552864,
          0.06590835144699016,
          0.048628900450274036,
          -0.052642089239638395,
          0.03877828256836475,
          0.15374688290546246,
          -0.08819976713106824,
          -0.10465614621726242,
          0.14245732773302425,
          -0.07200050140764633,
          -0.11468569032681085,
          0.023350636006868056,
          0.07148717262136886,
          0.04762527591303884,
          -0.11514043573684217,
          0.0854480394623476,
          -0.12128646135733642,
          0.048909998246588815,
          -0.1221278254130701,
          0.11901990806002186,
          0.012124841167422412,
          0.04811886000889918,
          0.136112635814833,
          -0.2548853420778489,
          0.17667603420490335,
          -0.12016889714071471,
          -0.03295256125145212,
          -0.18257266337325428,
          -0.0493170638526349,
          -0.01749424176599054,
          -0.010478016393475155,
          0.017848262716580666,
          0.04721320176638731,
          -0.0059441745945063495,
          -0.03883110045858397,
          -0.023940919656219157,
          -0.02609522546016097,
          0.13765227851149764,
          0.03234392344413276,
          -0.11777197224331654,
          0.013418817898748792,
          -0.09455114060929178,
          -0.056093066813045336,
          0.023454129104783946,
          -0.12398332149256337,
          -0.01019226436305052,
          0.04715498360637307,
          -0.013655524890614855,
          -0.050626585885654767,
          -0.05775268850515787,
          0.17300943424635717,
          0.07322831818818437,
          -0.10799585207033434,
          0.01786749200973425,
          0.13024676734839116,
          -0.0321278827911793
        ],
        [
          -0.027015298621546825,
          0.020946355016866272,
          -0.055830499106369114,
          -0.0011609822900391761,
          0.20471353496287867,
          0.030799770500274066,
          0.02828363161289363,
          0.1390991133131054,
          0.05402266274098412,
          -0.03132803541957548,
          0.019588641074455824,
          0.267839267917499,
          -0.003141534248730409,
          0.025030364145863893,
          0.07501602374856484,
          -0.129705805295776,
          -0.15089307247144315,
          0.029881631370993117,
          0.00033080556218059715,
          0.04792172487579051,
          -0.07429297581106811,
          0.025532015890333017,
          0.07132038561113904,
          0.011505442717505972,
          0.17845630424173792,
          -0.22051945787819363,
          0.23238078249753294,
          0.06473869115566823,
          0.03254387492544174,
          -0.25567956068208464,
          0.013496397380867305,
          -0.0520375361992479,
          0.020580145628060768,
          -0.026490311331615373,
          -0.09789827831609253,
          0.02538950624241227,
          0.1450912720094896,
          -0.06125625878296142,
          -0.1020033831048712,
          0.017447782764195764,
          -0.08015270385391389,
          -0.05071726988751778,
          0.12240769608216163,
          0.10866555811802149,
          0.024698954077530255,
          0.059006579554864096,
          0.09284987390998047,
          -0.08590160663234342,
          -0.04114591876985405,
          0.11254768170579083,
          -0.09231942759463191,
          -0.008767330957351646,
          0.07629822019971554,
          0.03357710615703677,
          -0.07707248841168207,
          -0.057467102775566624,
          0.09940428473979943,
          -0.00640344968975266,
          0.004024630028670404,
          0.02714923506579966,
          0.07980674646349113,
          0.09699069065309084,
          0.05021767450273815,
          0.10073482029284271,
          0.010518357724904115,
          0.0639891496100413,
          -0.21784494585678602,
          0.07792694175369419,
          0.06389348715232601,
          -0.02360534220814061,
          0.009170884163901334,
          0.0836661799645683,
          -0.08497018466030656,
          0.15152609758020613,
          -0.04768371758938072,
          -0.006880159268115331,
          0.098456442170648,
          -0.08314299421876697,
          0.0757374100299603,
          -0.009560771982225767,
          0.08446641652937673,
          0.033040173148350074,
          0.0658865133247233,
          0.013957908740389557,
          -0.04679784349404694,
          0.12460889949933661,
          0.17290006158433766,
          0.13018811407018063,
          0.10100527018724631,
          -0.05135136376984967,
          -0.04933123754147029,
          0.0143441815948105,
          0.014377745499105915,
          0.1560662845074054,
          -0.04626642993437915,
          -0.03335963188403678,
          0.0042140588568142295,
          0.1271172591435578,
          0.05247800579051452,
          0.0373694075214246
        ],
        [
          0.074205156097481,
          0.0025176540007239272,
          0.013098225239999909,
          -0.09289211120911377,
          0.03540960829234346,
          -0.07382850909807841,
          0.10075519157049195,
          -0.0032918936627174887,
          -0.026581038162529887,
          -0.15568838654977257,
          0.12201078160238797,
          -0.11845020630882908,
          -0.0322234823617649,
          -0.15769754085187107,
          -0.22439227651419077,
          -0.07490289503806294,
          -0.0531793828154277,
          -0.07256870945985171,
          0.14827825602345887,
          0.041037928511577136,
          -0.05818323968979312,
          0.13625682806686387,
          -0.1038327023887389,
          -0.13943505111033455,
          0.05188057033523901,
          -0.1546168000230591,
          0.15098576602950287,
          0.03997988449137277,
          -0.2381846724174988,
          -0.031642794637686836,
          0.04983727678220579,
          0.12054349053302123,
          -0.07673540683037638,
          0.05465123025723537,
          -0.10558521143810957,
          0.0973886068387418,
          0.08414119857519695,
          0.11136297388885769,
          0.19800088868596852,
          0.007712097554002358,
          0.029547994679606226,
          0.1949426782259387,
          -0.04058201730424246,
          0.11845382289026625,
          0.0658454828990978,
          -0.1564038080620875,
          0.10627598528118878,
          0.005363328424008901,
          0.023303340382919674,
          -0.002684494162820625,
          0.13200827173641064,
          -0.1664147725363665,
          -0.07696990724858904,
          0.18261460906452232,
          0.006295228351956821,
          -0.022553660429037767,
          0.10894941198228698,
          -0.011782733414547934,
          -0.005455732575163957,
          -0.037084490878547934,
          -0.05988905372847304,
          -0.07253409630474154,
          -0.12179684228154034,
          0.05186849529258364,
          -0.09882690401513673,
          0.015905637329298734,
          0.054319864741120466,
          0.07952236053094801,
          -0.015449941622359084,
          0.0433427959599189,
          -0.11496683429035577,
          -0.07482644827141442,
          0.02634750002912078,
          -0.034660472170654454,
          0.05079171763873824,
          -0.05846167682508357,
          -0.13390986223362708,
          0.17036427927141612,
          0.10112608164136667,
          0.014370095526652873,
          -0.1936924641670822,
          -0.12313422862962989,
          -0.12711270887003262,
          0.10889683764046287,
          -0.016146604931706103,
          -0.13120029732519448,
          0.027262568436594466,
          0.2034284631922288,
          0.005954010451046114,
          0.004041087498996453,
          0.10351179168876841,
          -0.061705471949551366,
          -0.21199582460178878,
          0.05588451392244329,
          -0.1394011753745697,
          0.12046292566013145,
          -0.08214400599659609,
          -0.10964594435582747,
          0.10659160636573904,
          0.01827745083226925
        ],
        [
          0.0947559483705205,
          0.04183211152285432,
          0.13782990702824235,
          0.08544813887723723,
          0.13352331544084534,
          0.0216082943559907,
          0.08111420880444178,
          0.11781884607249114,
          -0.13913798661503457,
          0.05462596773327808,
          0.03932537133597815,
          0.06564405714313716,
          -0.21266583409471826,
          0.19511453559040948,
          0.11062968744559215,
          0.030995447614434058,
          -0.22016008059687825,
          0.12392346237367072,
          0.07704333567006083,
          -0.005000712859545958,
          -0.17498667125262596,
          0.020155644951753274,
          -0.0006436203627742165,
          -0.115064679766823,
          0.028691929734834073,
          -0.15257970313334512,
          0.003702375824324845,
          -0.037350268389103436,
          0.045376402632410114,
          0.1169475239515738,
          -0.083214272822328,
          0.05929367696370835,
          0.024582860722770494,
          -0.06488558375933934,
          -0.1655122220251828,
          -2.011690744391149e-05,
          -0.0006072143716442341,
          0.06966387956469097,
          0.07705752542466715,
          0.07329406238656737,
          0.12224379083509469,
          0.06965250368561021,
          -0.14397803729208344,
          0.047461294830380515,
          0.10753701720114597,
          0.14320018717288996,
          -0.04604926168071297,
          -0.168344742109504,
          0.13351581826263814,
          -0.12455793824772701,
          0.12800171812130368,
          0.06871196176891167,
          -0.11828711178150889,
          0.030184072314165995,
          0.07539707315205381,
          -0.04279506438369113,
          0.04334826449022002,
          -0.16216877710199612,
          0.05343799146570654,
          0.23407843470630044,
          -0.1272650600521122,
          -0.06696078181004685,
          0.018801665938453088,
          0.04157011521549927,
          0.08538443127920592,
          0.03689143750061706,
          0.10701950345032095,
          0.13797734796477032,
          0.14114889402076677,
          0.07425653078734287,
          0.007535467575493317,
          -0.20666816913475064,
          -0.1143761822143665,
          -0.051756491465591165,
          0.14859613858226892,
          0.028007747741488682,
          -0.01727133364363122,
          0.004855803021708947,
          -0.09275194180551262,
          -0.11918810331687371,
          -0.005393262509242021,
          -0.08994650873147497,
          0.10350764667628626,
          0.011297870339779838,
          0.02767271547074761,
          -0.0793190347308622,
          -0.1224056228211214,
          -0.004996325743196212,
          0.03447870488439085,
          0.10050994817536466,
          -0.169603478681633,
          0.05594015744186377,
          -0.11052729413349985,
          -0.011338990752083345,
          0.08093449621629697,
          0.04690617306799481,
          -0.036961422025157974,
          0.0027153183985101272,
          0.06317308073259885,
          0.0751595418433186
        ],
        [
          0.027203611874993556,
          0.1441170898264175,
          -0.10581317106788773,
          0.11370320759764818,
          0.2089455860804789,
          -0.1478467366406039,
          -0.2720061379985958,
          0.08683742060691292,
          -0.060835302412720185,
          -0.014939314674919369,
          0.10234896638576481,
          -0.043213460659382585,
          -0.05332963409687809,
          -0.0119110983141561,
          0.20853852592416178,
          -0.000472118255201304,
          -0.06719212713694132,
          0.08690040884310919,
          -0.01719269178568569,
          -0.06029505167082344,
          -0.11433067218924187,
          -0.033419751192132044,
          0.05854213244598852,
          -0.04850921489577788,
          0.053576148324741196,
          0.15000108467679393,
          0.0875946842201873,
          0.04130910767671419,
          -0.0491747542472792,
          -0.04122097915762577,
          0.048350149602240884,
          0.03898433237834724,
          0.09737862670942861,
          -0.02343488038263685,
          0.11494002518452817,
          0.07700692851380012,
          0.07965053996383063,
          -0.13345832341681194,
          -0.00176231169666809,
          -0.0552940573929726,
          -0.13049805780975027,
          0.05207246853554164,
          0.11514933082212116,
          -0.027804200439715532,
          -0.058656750230117516,
          -0.1336144551834831,
          -0.05747568291145642,
          0.02050512574134866,
          -0.015022291233284586,
          0.1501338189881647,
          -0.09936939790555993,
          0.09473691922297894,
          -0.019212511632028,
          0.003985156238183596,
          0.06947714513271452,
          0.1007075816469138,
          0.03104347783312781,
          -0.07511524766865407,
          -0.03394386088858889,
          -0.023628776014204322,
          0.11711867273754464,
          0.0746269093549551,
          0.0038150743385599708,
          0.1916287016843682,
          0.20086177406636338,
          -0.013030662071863281,
          -0.03339366956234144,
          0.04681579049924528,
          -0.05308248959670919,
          -0.12315721456073916,
          0.2844491450309961,
          -0.05391637833209526,
          0.08872772919506898,
          -0.145770128495134,
          -0.02238127919989519,
          -0.014649732901753448,
          0.04533352856570504,
          0.06845486758507804,
          0.06899810134072723,
          0.021578560097631018,
          0.04443046833052241,
          -0.01315340386114852,
          0.07784782531474671,
          -0.1076565246827121,
          -0.03408537366696001,
          -0.029326649188085155,
          0.07130326543550747,
          -0.009746387591947667,
          0.1568194897935148,
          -0.06308581461937161,
          0.02642874383081738,
          0.041461013010092106,
          0.029739685241385108,
          -0.07467349342748864,
          0.03224678006587245,
          -0.13226796231932086,
          0.09231580579988673,
          -0.038620810259247566,
          -0.08527862762898836,
          0.0498507886930888
        ],
        [
          0.05191875098081257,
          -0.0665390499239171,
          -0.018939743307741272,
          -0.11717042267001797,
          -0.07510914977333333,
          0.04682114678855958,
          0.04518885170474143,
          -0.06308257634583829,
          0.06265946522437936,
          -0.0526584705200452,
          0.00904941702394588,
          -0.026376810629391324,
          0.001221823742384413,
          0.026478233588312194,
          0.08495805203799409,
          0.05646676472590483,
          0.11148996215378554,
          -0.048186400541946346,
          -0.03204574471160778,
          0.05267710146712717,
          -7.40420512758078e-05,
          0.020072949994125407,
          0.05308397977092092,
          0.08497018597546303,
          0.13707649141969483,
          -0.0632379025981009,
          0.017299396924118825,
          0.04100412444047776,
          -0.07008525771600976,
          0.004627821139627602,
          0.01767275802297447,
          -0.015562705083597295,
          -0.21074561645040496,
          -0.07717696375579527,
          0.03051779709167754,
          0.012861434893914524,
          -0.13244810694360387,
          0.2858443797271542,
          0.06211619117800502,
          0.10314823701560467,
          -0.1350918675560326,
          0.12219402105878077,
          -0.053748047110822844,
          0.07713233589799545,
          -0.0006674062656390155,
          0.14983258529793206,
          -0.197552957150548,
          0.11728402702855274,
          -0.1295044744945367,
          -0.08395995145213955,
          0.017631772810879503,
          -0.09622374911861738,
          -0.1339799271931647,
          0.0701594335230745,
          -0.015677776994192327,
          0.005484337111979191,
          -0.18705874859008823,
          -0.048764685383891074,
          0.11287257411068229,
          0.16727500848618893,
          -0.025718596079999847,
          -0.0054369758614438,
          0.0586118529138417,
          0.13885105366658526,
          -0.21041340739465217,
          0.029292913838487845,
          0.21553257369160628,
          -0.1058592306318821,
          -0.019292202075819602,
          -0.05087922182432808,
          0.14791511198842364,
          0.0352018453499593,
          0.02954711961649878,
          0.06617457811362464,
          0.1682417774218912,
          0.0024853050398071464,
          0.0010277666905486437,
          0.06472635876491525,
          0.04228591736849721,
          -0.036600942101940925,
          -0.0055400432209124694,
          0.06789093189495833,
          -0.1074309039886464,
          -0.08924169455758235,
          -0.13094656557131287,
          -0.016492569382965668,
          -0.08841874267349081,
          -0.017419984850383898,
          0.020733293435020957,
          -0.10282134921921482,
          0.15656328565842076,
          -0.06680500874573735,
          0.10952002191216458,
          -0.15176195313101976,
          -0.05731980052858452,
          -0.19797279198960877,
          0.041014997128383565,
          -0.2979546308535217,
          0.07167383319629943,
          -0.06471712862930822
        ],
        [
          0.024885238623457998,
          -0.07003378250303278,
          -0.0696485859437087,
          -0.07543909657053052,
          0.026058675530202868,
          -0.0526813901096472,
          -0.2636824540088253,
          0.06902160758174498,
          -0.05448016338217653,
          0.0054458940278996745,
          0.02404743179160534,
          -0.09581880959666107,
          0.01595997968043862,
          0.03916617203175971,
          -0.07354147184405792,
          -0.10559575528205467,
          -0.14256848745095968,
          0.00918351189386977,
          -0.02138336243478014,
          0.03995224657916142,
          -0.13127655694052848,
          -0.01511765597392985,
          0.08204079068917346,
          0.11615565377244075,
          -0.02830588271062027,
          -0.15277559072083344,
          0.03898976094676111,
          0.07066026387007497,
          -0.10994228384023608,
          0.12355130274900562,
          -0.03888787789325025,
          -0.018435526181194394,
          0.22324720277426455,
          0.23783660626449477,
          0.030090344551619852,
          0.035286119535610935,
          0.13433443945093193,
          -0.06542607260222097,
          0.019501992864856377,
          0.08665134728867792,
          0.020942223720862307,
          -0.012383780023551259,
          0.06562620827449302,
          0.04691846204148931,
          0.2367765803555953,
          0.1521115286771458,
          0.02569130995653455,
          -0.2015169627591268,
          -0.11057088041355775,
          0.0019061319917894114,
          0.07743030731051338,
          0.1848858724338597,
          -0.19881431343401773,
          0.037863873037293674,
          -0.1539633469052496,
          -0.009772690821877004,
          -0.11268935950043184,
          0.013295177175784451,
          0.17034603516052987,
          0.026722734489054722,
          0.0905100863789759,
          -0.0637378785880211,
          0.03025976687111798,
          -0.07374800873980995,
          0.16268522691425047,
          0.04500355993357733,
          0.02604488214191636,
          0.0784075857756811,
          -0.15082358183200856,
          0.17041193736143634,
          0.1699355356957967,
          0.07701272903566077,
          0.1761022194507263,
          0.10151685838858601,
          -0.013052056479871408,
          0.21262903570101124,
          0.059533995413786796,
          -0.06570019909739044,
          -0.170039554378303,
          -0.027774338993645224,
          0.1078296440267707,
          -0.01144640287968382,
          -0.027719860399920925,
          0.002392402882071988,
          -0.06976809741947898,
          0.01649348888132503,
          -0.0969221870772573,
          0.00785350982690763,
          -0.04685280587613136,
          -0.0986606981798295,
          -0.11669058383375243,
          -0.003943510851671046,
          0.14117077595246652,
          -0.08390308490941899,
          -0.042226312634299615,
          0.052555676966411405,
          0.06279800493393876,
          0.05083058729127954,
          0.13809517420421877,
          0.03572281355630888
        ],
        [
          -0.015509156687667242,
          -0.053187117802229185,
          0.07440895239505646,
          0.09147499147855694,
          -0.0047890579653245115,
          -0.051834694625909235,
          -0.09019178426691254,
          -0.09338761707271062,
          0.09338157762967451,
          0.033744812485474326,
          0.05488607932692034,
          -0.0029196771600039626,
          -0.16717580123848663,
          -0.016581648765825747,
          -0.10223883884252676,
          0.0004896065859411715,
          0.038969235389234295,
          -0.04288735999148327,
          -0.07779564665351599,
          0.049763063570957375,
          -0.08764374200600282,
          0.10983645300399605,
          0.08457833583398446,
          -0.02075527431904118,
          -0.15174164269380885,
          -0.0466961107929569,
          -0.01632848181706558,
          -0.07139926414651371,
          0.08943842008995848,
