{
  "hidden_layers": [
    {
      "activation": "relu",
      "biases": [
        [
          0.17228837600445432,
          0.10437226775630233,
          0.18018233380953272,
          -0.14861856925374164,
          0.13397919532738506,
          0.15102458641873726,
          -0.024082587819165942,
          0.0016990531851645589,
          0.1905202310664841,
          -0.026621885551320685,
          0.1776674045822931,
          0.13447087942486502,
          0.13084673470414962,
          0.27497188387840754,
          -0.17495370782980177,
          -0.0018969034210191697,
          -0.029258213791978464,
          -0.0011523559976556563,
          0.06531863971268251,
          -0.020823248993810457,
          0.01710970195546469,
          -0.07649794128793842,
          0.32380543907596465,
          -0.10648514957157673,
          0.17416593711849496,
          -0.08779797889474014,
          0.25739869330720094,
          0.18811033341527045,
          -0.11962132256260526,
          -0.03768888133661464,
          -0.02811241869941235,
          0.04247997912554917,
          0.13337707873915572,
          0.12790532377879918,
          0.18791568752209295,
          0.13577868349849112,
          0.2779573762160853,
          -0.43812735436220485,
          -0.2508467070709513,
          0.10855666927147559,
          -0.037393090561148354,
          0.20646197451893689,
          0.15754120019140921,
          0.03721782484731062,
          0.03279547075066772,
          -0.1681786579554165,
          0.29872774924222234,
          0.5496788777479996,
          -0.20899086447646706,
          -0.1701250240943657,
          0.0702794344832293,
          -0.28889971068077225,
          0.04304636715725935,
          0.03921081813994741,
          -0.07217675241391022,
          0.18605924135463808,
          0.12217599846446249,
          0.42069922405694765,
          -0.09718290507286514,
          0.12670076543021208,
          0.18744956222520992,
          -0.10956544053803388,
          0.042420283710931574,
          0.0070098349954948284,
          -0.09616983393255786,
          0.037232132523117974,
          -0.06466544382041121,
          0.1870635564829966,
          0.24342482612191615,
          0.04678455533835447,
          0.083427297379292,
          0.07675848157149974,
          0.054457336647694816,
          -0.14211212678259136,
          0.006970269010368996,
          0.09240371051123995,
          -0.03179849832006786,
          0.14637364305621645,
          -0.0785655205643104,
          0.13786853287017392,
          0.15726494756380868,
          0.023955293777675322,
          0.07321889157194743,
          0.1270962864620749,
          0.09205851740902578,
          0.13147600534304799,
          -0.23543949756527974,
          -0.2364612207282902,
          0.004591630533395165,
          0.27607592485104165,
          0.0457663263940062,
          -0.11730498226190235,
          0.0698409026596394,
          0.2560437143449717,
          0.0041405528604994924,
          0.015226653476220329,
          -0.045432438342964974,
          -0.09786306882094505,
          -0.03225403897490974,
          -0.3083596350705903
        ]
      ],
      "weights": [
        [
          -0.0570393210120078,
          0.01567274113739749,
          0.042111992003919727,
          0.02564098876982719,
          -0.054774488212341564,
          -0.13532180537291535,
          0.12973445189298471,
          0.07543872051814345,
          -0.043400354355332425,
          -0.017478037866590437,
          0.01221767833858315,
          -0.13138152260183386,
          -0.11074581813934141,
          -0.075183483730063,
          -0.11002043739526313,
          0.13820257748812603,
          -0.0721991732773638,
          0.1362009929788667,
          0.015161664188339056,
          0.07273524996362243,
          0.0425960429475092,
          -0.06400196429623732,
          0.17320589399174027,
          0.12261745830180897,
          0.08502951238474879,
          0.01579602330712797,
          0.16415397055815592,
          -0.046304136731407715,
          -0.07867381663790828,
          -0.02114874013877119,
          -0.07779420816432082,
          0.012824441146280268,
          0.06816410920918381,
          0.003755985778798917,
          0.22607737765142602,
          0.08842663738664713,
          0.07955137404597837,
          -0.026934696342857414,
          -0.12084148606679611,
          -0.09624131991630745,
          0.0011316647758602312,
          0.0269091563147123,
          0.032779150153789086,
          0.10315533194574182,
          0.05704981139697572,
          0.11749635721619581,
          0.21329641784638245,
          -0.026051873743953815,
          -0.006885439613854984,
          0.11594372053353358,
          0.038151644866844255,
          -0.0011733903494272593,
          -0.07250455397319543,
          0.03167315417319438,
          -0.058814934901856165,
          0.021731495850963425,
          0.1328299466554483,
          0.11124331992830062,
          0.0014321845684285772,
          -0.18193513235165773,
          0.15845012275590156,
          0.14540197925164047,
          0.020010715914733503,
          0.012236585712120421,
          -0.08134512155590537,
          -0.08398389414064103,
          -0.12259575131910123,
          -0.025110954775310546,
          -0.11867944340210429,
          -0.1213467054228264,
          -0.046375348647944674,
          -0.008947606905341389,
          0.13220506579006724,
          0.01678277084403634,
          -0.058667089840205945,
          -0.1535782643584431,
          0.18699356210780893,
          0.050199325705313956,
          -0.10270290453010442,
          0.05600071422499863,
          -0.06649962985862438,
          0.07024827446786386,
          0.05692862927039096,
          -0.22676618675629384,
          -0.06063437771127473,
          -0.04432351392882986,
          -0.3340868815966435,
          -0.04360109175768261,
          -0.005323103475953065,
          -0.1335627971397437,
          -0.09233971106524545,
          0.03182810701583066,
          -0.043952538971004394,
          -0.21224004511770694,
          -0.04718430310834563,
          0.012178691629767535,
          -0.032614789839292405,
          0.06664936643606531,
          -0.034897188410545586,
          0.05249176807952199
        ],
        [
          0.018510792796302602,
          -0.0447346483142195,
          0.03637399603392217,
          -0.10851333994211121,
          0.09991185117304426,
          0.07022598517312108,
          -0.1264422628838419,
          -0.029629081178241007,
          -0.0786731770393412,
          -0.0014315189120882004,
          0.08222644119795867,
          0.03625828688579215,
          -0.047102190839420834,
          -0.24743602540199547,
          -0.11631133563790605,
          -0.04266728927147493,
          -0.00017990069369967006,
          -0.00924395145639022,
          0.010547132326349665,
          0.056853246963897125,
          0.08342983713682897,
          0.13305056550158287,
          0.2190886822902405,
          -0.05605855991223053,
          0.2591710541953771,
          0.024862141306147403,
          0.02769275158801773,
          -0.16656017735450032,
          0.02243152809859938,
          -0.06104482438639661,
          0.0730897304851045,
          0.00689787705317895,
          -0.1359583181587499,
          0.15760104834670838,
          0.10410397299443394,
          0.06792492203031855,
          0.19118456610124168,
          0.055903843667652,
          0.19362112275735469,
          -0.3001648453602316,
          -0.1181079008344158,
          0.11129615100546292,
          0.018644588895371874,
          -0.15586691937714012,
          -0.028040984998629264,
          0.10248891153590245,
          -0.0903724951425293,
          0.0030744308019454063,
          -0.0581491414332818,
          0.03160121404002623,
          -0.09039596920360657,
          -0.21898641345939843,
          -0.16668172060980285,
          0.07067111771483839,
          0.004150149929413047,
          -0.019581971258090233,
          0.16382003646700966,
          0.10776587179340646,
          -0.10488597506193736,
          -0.05513780310990629,
          -0.007881831759841177,
          -0.1109218543980241,
          0.23761693692653796,
          -0.17258281044221235,
          0.03529343953560302,
          0.13356697042017082,
          -0.07199670907923461,
          0.06467287976788212,
          -0.10810711384418803,
          0.007668498429980892,
          -0.020788172310914406,
          0.004664821690387062,
          -0.017430344956497094,
          0.13989848305778832,
          0.1480473609258271,
          0.045731797581368965,
          -0.07038559370503703,
          -0.06792500896967985,
          0.02648249883539737,
          -0.23851195918311213,
          -0.18091399518851942,
          0.11603823721927504,
          -0.047689254936445755,
          0.12027728407389707,
          -0.06758044514102425,
          -0.15751322558462985,
          0.13722314113876702,
          -0.13223688587167431,
          0.055198730604847944,
          0.045653842166729866,
          -0.06692927537056217,
          0.06430627889350915,
          -0.03969641181876747,
          -0.03189496622482831,
          -0.10538561913654812,
          -0.09317964650772928,
          -0.04895224785639042,
          0.18156227713790354,
          -0.020533170700358025,
          -0.019051534218824908
        ],
        [
          0.0441746293823252,
          0.1279059910265567,
          -0.06401602929617173,
          0.013923281400099971,
          0.12095395250403067,
          0.03739377187302957,
          0.0951814390586379,
          -0.03649953195806332,
          0.01497151457178834,
          0.050028665490404904,
          -0.03187161973237983,
          -0.002912560137122646,
          0.1028376024642786,
          0.1267321584072745,
          -0.029611359980449795,
          -0.10991282492991965,
          0.11427460965009788,
          -0.02128717483120392,
          0.20517533053664685,
          0.058394496091485296,
          0.06177517307261662,
          -0.07197027318953025,
          -0.07134430894390562,
          0.032095602148571434,
          0.11348438222651361,
          0.019261734486969925,
          0.10429704184659684,
          -0.09544737772588853,
          0.09782486335855521,
          -0.18840807062717632,
          0.011634934829826148,
          -0.013569600924764632,
          -0.1473498472489887,
          0.08064599075366129,
          -0.08966080713110904,
          0.026331374746590693,
          0.03130204441625614,
          -0.12004171984428949,
          0.1679291543175623,
          -0.016011817130580412,
          0.13959067577912937,
          0.11732139643489167,
          -0.008339832545978398,
          -0.009336056339453587,
          0.01930505957473313,
          0.14435737768619672,
          -0.11892035011569857,
          -0.06274009903977684,
          0.02486331502051087,
          -0.022432514498880163,
          -0.20102186896402702,
          -0.18900738129997605,
          0.14806876822355386,
          -0.11254976852144936,
          -0.004286701474565885,
          0.17933317263567258,
          0.04753308054205164,
          0.19820141120978182,
          -0.016386777106963294,
          0.12557692042632945,
          -0.1380979588470648,
          0.010451349800096148,
          -0.25529904682935606,
          0.08865961089534291,
          -0.020208194772750116,
          -0.14582170445656045,
          -0.07135872657307518,
          0.014686390554434565,
          -0.18055665749853508,
          -0.022930658676780333,
          0.08749215471120572,
          -0.04110568339223468,
          0.09254587200870146,
          -0.09680258355636082,
          -0.11483897896193265,
          0.07288711925002776,
          0.027003146236458463,
          -0.06520500841753728,
          -0.1020967029655164,
          -0.16133676495805616,
          -0.06370287333769223,
          0.03559512907419118,
          0.09217761804588259,
          0.037820174734845176,
          0.019874188536372774,
          -0.07037032430182981,
          -0.09184654463518815,
          -0.11888425649176428,
          -0.054861159069470804,
          -0.12441889368082125,
          -0.023922155614430143,
          0.01682270825451178,
          -0.3065899750128554,
          -0.021070564529164726,
          0.11198790289120211,
          0.101761449242764,
          -0.06111001920087047,
          -0.07961175428241127,
          0.12274450525692548,
          0.05107753684536552
        ],
        [
          -0.008630732116966631,
          0.14552812987967606,
          0.13762043671847596,
          0.05681172201669119,
          -0.009896338397747381,
          -0.02126245305829868,
          -0.1505248998640433,
          -0.0464027971542176,
          0.024537874837158944,
          0.10725911121283775,
          -0.00601183203560967,
          -0.04299244894925275,
          -0.0010698268810250744,
          0.17180277103344527,
          0.14610555019301288,
          -0.11694409553049943,
          0.20705372409998105,
          -0.09753369675693517,
          -0.00647442120823771,
          -0.007871578794696158,
          0.13706658355748996,
          -0.015145221916196753,
          -0.07783349404560022,
          0.09868544405376856,
          -0.007552320392449479,
          0.06010380859270593,
          0.03886774775953973,
          -0.22124287913093751,
          -0.11739889368429748,
          0.003194946151070231,
          0.07270520149472956,
          0.04003811898008447,
          0.00535732458983876,
          0.03411032354218634,
          0.011915902180473227,
          -0.09757438711945078,
          0.12479052760469446,
          -0.0945010463835044,
          -0.09480430708483172,
          -0.010168905369634962,
          -0.02677238856413202,
          0.01801064442884878,
          0.010305604604451363,
          -0.052865666697732086,
          -0.058950053333058666,
          -0.23241064281621854,
          0.21848648710451132,
          0.03694513074438713,
          -0.08466036017715219,
          -0.16913285524373958,
          -0.1092950515628191,
          0.11358438266463404,
          -0.01259909673977566,
          -0.06673640940775356,
          0.08732240784689528,
          -0.08944865676250467,
          0.0021014625752625794,
          0.08146700661325129,
          0.10063261645473112,
          0.3440828486636228,
          -0.09167165695611625,
          -0.13887670901607704,
          -0.056942252014162656,
          0.15977572580621072,
          -0.089531544702569,
          -0.009566001306894754,
          -0.05312182874049467,
          0.20965185885564003,
          0.057445480303667106,
          -0.09101746075211746,
          0.001078517083765881,
          0.06524929412823138,
          0.15425025535517675,
          0.23648541447939683,
          -0.02122534666532825,
          -0.060693965058929635,
          -0.01551444023453508,
          -0.21589418468434232,
          -0.02546543646417342,
          -0.2762749939068594,
          0.01547163665522512,
          -0.14422071791120403,
          -0.06929136036883317,
          0.1387619774215723,
          0.024664997493965782,
          -0.11312363443841446,
          -0.10402968414967315,
          -0.027377880009856307,
          0.1290933262636036,
          -0.09302106267019546,
          -0.15641752519258326,
          0.05319781755861759,
          0.1019304218415028,
          -0.09043960641741146,
          -0.0032654327752816466,
          0.18861445723541295,
          0.21670843143411853,
          0.05826415072427944,
          0.037702235206567875,
          0.1767461495969199
        ],
        [
          0.1605357171551916,
          -0.01562159605759654,
          -0.17947747814635287,
          -0.07724386478726931,
          0.08903765814647924,
          -0.014140939424356772,
          -0.14162966982994868,
          -0.04756658458769212,
          0.05075030556409087,
          -0.10110526998158757,
          -0.006171054231941617,
          0.21469115685100953,
          0.21566052798497767,
          0.07413540055454819,
          0.13798999286935104,
          0.07707143071293672,
          0.07586129499540151,
          0.008412063983253995,
          -0.04794303132091855,
          0.00046611273421440463,
          -0.08595173383539231,
          -0.08756476550379144,
          -0.02347474264179294,
          -0.04329849556422505,
          -0.10400871699840983,
          -0.01967658097964349,
          -0.05562384706906318,
          0.01911213832990511,
          -0.07228822467357787,
          0.031465459198182597,
          -0.01475611874438419,
          0.05944339785020689,
          -0.003477850729542915,
          0.06187632416225583,
          -0.031327090008126834,
          -0.16270843962779455,
          -0.022764255334385784,
          -0.08285340310344888,
          0.06344065475148304,
          -0.09439425412121463,
          -0.19193169585064834,
          0.09529178826731143,
          -0.12938485524312954,
          -0.029279679331075174,
          0.07959669601671343,
          -0.06666923069282917,
          0.01981005210231285,
          -0.051850268260423396,
          0.06723329524210023,
          0.14390342457910799,
          -0.062458656079958444,
          0.10036439555306649,
          -0.06707185902592643,
          -0.044270555026513815,
          -0.14534451004214163,
          -0.1817568788542322,
          0.04492062196315953,
          -0.23036764228056228,
          -0.09353225301912985,
          -0.04891072615447582,
          -0.008459472663099741,
          0.08529774391510908,
          -0.05791144723830707,
          0.10769696609435488,
          0.011507385105945973,
          0.037920702674344345,
          -0.1510492845747544,
          0.008693650965774515,
          -0.03466001311997567,
          0.15477612462168283,
          0.17087456897810807,
          -0.05003825345363153,
          0.013483142399177651,
          0.10448035577592622,
          0.047800008817882676,
          0.018671311250891616,
          0.2388434791764438,
          0.21207200609099752,
          -0.12230244599822133,
          0.011463535125156367,
          -0.08550867602721432,
          -0.01817349902923801,
          -0.18925257363773712,
          -0.019970603332918332,
          -0.07785612733609623,
          -0.01090090543423464,
          -0.12478944691154914,
          -0.008500609344409013,
          -0.11729057863515675,
          -0.20664434362910108,
          -0.09603863102175238,
          -0.1537388390824544,
          -0.024065609273080265,
          -0.010955221557059806,
          -0.0766994719435111,
          -0.05995328723220183,
          0.1603348366336989,
          0.036533864995461816,
          -0.037495873308454365,
          0.11780602855537818
        ],
        [
          -0.010423561531551096,
          0.14777614539574951,
          -0.04431238218347879,
          -0.04867695007469599,
          0.014600050861144034,
          -0.03964768230438559,
          0.07758000797162376,
          0.005925295427828264,
          0.01980396883747836,
          0.0469417926739375,
          -0.03905791115827085,
          -0.10559497897908059,
          -0.0007129382920019922,
          0.09783292637061794,
          0.04898439044345752,
          -0.0021561714307522972,
          0.1890046357274151,
          -0.10813873105669367,
          0.028226948378071135,
          0.02878581643890513,
          0.06023906515913227,
          -0.1245237930223279,
          0.009017798346168573,
          0.04025152683734484,
          0.056156526537934216,
          -0.06950946658957224,
          0.07446783356483291,
          0.0721657765242864,
          -0.013466449229263783,
          -0.055390121647866,
          0.009648314044746592,
          0.018096004221501046,
          0.12614371515948308,
          0.00843680098199,
          -0.13112461204468387,
          -0.08070733734128745,
          0.060078166999902274,
          -0.1860171146400182,
          0.22982227492106072,
          -0.08932820106914886,
          -0.1109415445497823,
          0.034088770915891416,
          0.14098805680722662,
          -0.11781133911033773,
          0.01652820640759864,
          0.13063531546902027,
          -0.17695276382898542,
          0.15013092125523167,
          -0.10089609885037482,
          -0.08086576225757602,
          0.1397370335520225,
          0.12770914312782816,
          -0.07082109526064918,
          -0.1252881680771639,
          0.1621242163557946,
          -0.14900140366097933,
          0.00948180396658117,
          -0.12306410785473294,
          0.02323821870301974,
          -0.031178683306893985,
          0.21696805914715472,
          0.06400490417572034,
          0.020804170476275766,
          -0.0774147895960871,
          0.2660253077098841,
          -0.10074485249379399,
          0.06831251606287543,
          0.03932701472771533,
          -0.08106081757006146,
          0.04847681148000644,
          -0.009817693052509997,
          -0.1519881015822169,
          0.2908153549105801,
          -0.08727888360174103,
          0.1522890402229148,
          0.09293080738528857,
          -0.1608784083692936,
          -0.017879756771412514,
          -0.020277921481299695,
          -0.08778799409950726,
          0.20902065103608097,
          -0.1779331441788308,
          -0.18661129131436915,
          -0.08095162742744443,
          -0.21078388896231778,
          -0.0707249876854249,
          -6.321387995043308e-05,
          -0.08857601067905563,
          -0.028458450279566852,
          0.07353473456379789,
          -0.06598074975219065,
          0.13274571211823857,
          0.02502201143328135,
          0.0076136619910055995,
          0.048975273103195265,
          -0.06275688091298484,
          -0.031193060218316547,
          -0.14473702294645135,
          -0.10772584080531307,
          -0.16723922454494256
        ],
        [
          -0.04883626334487454,
          0.011601518340828005,
          -0.02360691552410112,
          -0.00848191508456957,
          -0.027690506910376413,
          -0.047175338100208186,
          -0.05785385269709553,
          0.1054272042241715,
          -0.11473833309212868,
          -0.012904102072399065,
          0.11438753366598017,
          0.021055113579264317,
          -0.02152717987696787,
          0.19108910946217322,
          -0.04860846931326212,
          0.077294576750499,
          0.05139985467759874,
          0.03587521485818707,
          0.14961750479156966,
          0.12051101784627691,
          -0.22298202877726653,
          0.10909483358015082,
          0.08802101580527787,
          0.05878850295863015,
          -0.05801565829460096,
          0.08070161803400282,
          -0.030512065305892407,
          -0.1338198179958537,
          0.057150124066683065,
          -0.03322046062028855,
          0.08293655028099915,
          -0.08868154690096294,
          0.1753115496291212,
          -0.18849123853045416,
          -0.08160568904257615,
          -0.022246526540465245,
          -0.026471288714338913,
          -0.04865446986100144,
          0.20061109934227006,
          -0.10981185158479725,
          -0.024785031488089804,
          -0.025380316223692505,
          -0.11550158921417902,
          0.18680465428704124,
          0.014766071135543173,
          -0.14179375463511676,
          0.07868265004190853,
          -0.07178236001622303,
          -0.07356703643333244,
          0.02705335400218694,
          -0.14956935015976094,
          -0.015712447336686447,
          -0.08695819886323546,
          -0.0866082447529906,
          -0.04131995029521596,
          -0.06529751374300094,
          -0.05767484956150815,
          0.0644833705524394,
          0.006363731644853108,
          0.017870884330260576,
          -0.01840425930894969,
          0.09857522410158195,
          -0.013674222503298214,
          -0.0704688534990573,
          -0.06468906157860994,
          0.0028993344403434405,
          -0.05320999268971595,
          0.04126597092364439,
          0.0099846314150818,
          0.12702151797522454,
          -0.10210027342755165,
          0.048487989791277414,
          -0.04055967523944397,
          -0.10131015907767174,
          0.13718179701977148,
          -0.010400943185589923,
          0.014268326305125206,
          0.0762464843516576,
          0.07590651476426447,
          -0.01688144730297787,
          0.047424588602914486,
          0.048911892812994566,
          0.14950791723182572,
          -0.2655745565919269,
          -0.1439832150138156,
          -0.09302395727780872,
          -0.04298719791651768,
          0.13152815308481744,
          -0.050664168418342696,
          0.21255210139880518,
          0.0725243429755816,
          -0.04841791869076306,
          -0.023385870658573303,
          -0.03513429010342473,
          0.00392526353256559,
          0.1179393896200508,
          0.15432548481210132,
          -0.18595533856912175,
          0.0025459123781498435,
          -0.07814018105379905
        ],
        [
          -0.07098786876488554,
          0.09123609811850339,
          0.04692993067236067,
          -0.0685458784140383,
          -0.04391420726322069,
          0.15319941722505104,
          0.047540096598774666,
          -0.06551851045973323,
          0.024093388849807794,
          0.1242292653741958,
          0.020448614908596657,
          0.04222610087983754,
          0.11956422387565016,
          -0.13683195184961938,
          -0.009078766499400452,
          -0.17856109574519094,
          0.13990706984459264,
          0.09952270917192181,
          -0.09424389062549085,
          -0.1988910595552785,
          0.1238303850755243,
          0.22899174360514987,
          -0.14538224252862736,
          -0.11269444400697069,
          0.13935470403706277,
          0.09944116577624082,
          0.11548467389229063,
          -0.07633111542071964,
          -0.012755712999581646,
          -0.0584073878240407,
          -0.04375176554571075,
          0.04639911026593017,
          -0.01121035671398979,
          -0.14231832447557113,
          0.055969901110202364,
          0.1411879238553495,
          -0.03275027833874408,
          0.07983351777251367,
          0.1269208328764356,
          -0.11321001119774526,
          -0.07265800916860163,
          -0.05070445311339231,
          -0.06662882801207859,
          -0.012579587005782888,
          0.13447073682335645,
          -0.1843583167412359,
          0.14146152575072127,
          0.11961595376745264,
          0.02070672466772098,
          -0.11708650935983793,
          0.022243608663117392,
          0.1916668933313185,
          0.11788715421710776,
          0.03424325443504939,
          -0.01722879173296885,
          0.04856012645480622,
          -0.02021978585068778,
          0.030707955331727405,
          -0.08988955654012347,
          0.11255825284900703,
          -0.01646962238878711,
          -0.2172337014353187,
          0.023077400872028454,
          -0.0035763287475028016,
          -0.030375469280752576,
          -0.01577406029139648,
          0.029000743475146702,
          -0.014883120043200089,
          -0.009364652439821658,
          0.07198424638499401,
          -0.01975585844343611,
          -0.016529266827471783,
          0.03179482642379388,
          -0.013502276508849087,
          -0.0773213321807401,
          -0.10344716321771076,
          -0.04172682000778944,
          0.10453859692187882,
          -0.09640567810307238,
          0.07142016644691912,
          -0.10824748307865519,
          0.06716383959534283,
          -0.07637704086839996,
          0.12655731195284448,
          -0.08977116575936309,
          -0.07698552630501239,
          -0.17388741312170464,
          -0.11214302468237872,
          -0.18999411178085832,
          0.10442207000507654,
          0.12604904815817547,
          -0.0653964847338213,
          0.0005663596911492646,
          0.16508274665137507,
          -0.09270653196409785,
          -0.1023104006765695,
          0.16472603184122933,
          0.01470959578868817,
          0.14693179405040532,
          0.05622564542702284
        ],
        [
          -0.22766266807723953,
          0.00904467164707645,
          0.1490434196607765,
          -0.018551486441191988,
          -0.23547789174042968,
          0.07539057338743899,
          -0.24891133946906094,
          0.10963579302057996,
          0.08752663995489536,
          0.15052890584954695,
          0.08119956893738622,
          -0.022887349595479826,
          -0.03832939194268964,
          0.19484620267376346,
          0.1928322577133155,
          -0.09756230019567354,
          0.07498485762686244,
          -0.006930910794366432,
          0.07749912727944079,
          0.011859682560198136,
          0.003687463249963971,
          0.09477497231903644,
          -0.10531405516608144,
          0.10095541435791273,
          -0.000672760943923417,
          0.10195395654359983,
          -0.07420340337350109,
          -0.07249152179870248,
          0.16574235640900667,
          0.09668375313050952,
          0.10660671372850566,
          -0.07291004875411862,
          0.028355422084646666,
          0.0011406677818710175,
          -0.013588255212916072,
          0.05291752425148003,
          -0.15027297405372722,
          0.04685135692393974,
          -0.07180780727185343,
          -0.05098213138546898,
          0.04362471321319454,
          -0.023608852382514568,
          -0.02061281020118076,
          -0.18706052760669267,
          -0.020915942330326863,
          0.06069365438964645,
          0.1569432619020058,
          0.1212134793394988,
          0.08544525549217213,
          -0.15682478017156992,
          0.07669697610801461,
          -0.0897739124324781,
          0.09194397940083554,
          0.09767484616437216,
          0.1510775072195537,
          0.1477841622926747,
          0.07478950663522757,
          -0.10195560193998271,
          -0.0998427790767238,
          0.08893840609126642,
          0.02132516393978897,
          -0.018470398642710304,
          -0.05131256111364278,
          0.22767002189533989,
          -0.12749812048415934,
          0.051917030653907265,
          -0.04764454892515874,
          0.1367559326012035,
          0.06460405594712706,
          0.021247262005639395,
          0.0021857295144528596,
          -0.21744920637602466,
          0.059558199737941304,
          -0.06046469122390037,
          -0.10419381374379426,
          0.11376104035369357,
          -0.028917391182289316,
          0.024177737693844955,
          -0.07173255690873848,
          0.1848099264059179,
          -0.15266426082574847,
          0.061368956299173,
          -0.04943468530091676,
          0.03782441508181916,
          -0.06586419151786946,
          -0.00578846658307317,
          0.005901447284294883,
          0.11204650706427206,
          -0.07467783524296091,
          -0.11260852496290166,
          -0.033590327311756096,
          -0.10619087087163202,
          0.05900041608795683,
          -0.18592386097612063,
          -0.033895485233381525,
          0.1232398627922761,
          -0.06304336720721238,
          -0.04615788942879119,
          -0.09159769281760426,
          0.11721030224191423
        ],
        [
          0.009857117574986248,
          0.15158336026988561,
          0.09032380749044613,
          0.06740509435237368,
          0.021221262646231132,
          -0.13847695343948793,
          0.0175758732460255,
          -0.004410382737982107,
          -0.18509949998811434,
          0.003285222534459621,
          0.06353209819047986,
          -0.052577300600068544,
          -0.13609736610983716,
          0.051871194810823876,
          0.177073778030752,
          0.11180983886170262,
          0.028108369150075967,
          -0.18034204067405898,
          -0.03440598727143823,
          0.209222745624949,
          0.07119141816713412,
          0.07428235562650416,
          -0.009174085318774039,
          0.25424812252263274,
          -0.05090453470669839,
          0.12888153061000274,
          -0.012607603998664802,
          0.08557456728830294,
          -0.06619434960767816,
          0.10531865377745889,
          0.010823470851766043,
          -0.034975068626763056,
          0.15642040366573612,
          0.12385611552391368,
          0.004612183302654688,
          0.06531783384345566,
          0.2155613337523917,
          0.03378944827458051,
          0.09323857465780121,
          0.02507080164131633,
          -0.12332122762316153,
          0.006392578226174142,
          0.2462744939984082,
          -0.02934310700196745,
          0.013182297574677196,
          -0.18144724438509868,
          0.0854590099529616,
          0.0815608051439338,
          -0.12585327417364287,
          -0.03779649238098539,
          -0.17232333531197327,
          0.011549817285249836,
          0.045012408896771224,
          0.01434779339241888,
          -0.09351593453973489,
          -0.03203670036831337,
          0.06104962410239169,
          0.10370175430923123,
          -0.0817228539715578,
          0.1710246985188066,
          -0.15934814657437216,
          -0.040933559821363784,
          0.057640505875405035,
          0.09317034942269285,
          -0.035331094617153065,
          -0.07102999825888527,
          0.03818849002396058,
          -0.005642478283809974,
          0.0020509462472036075,
          0.2175110551441489,
          0.0006860854564221644,
          0.01300158252151123,
          0.11834401772538165,
          0.054513357084468785,
          0.0938307854216028,
          0.028065176113823982,
          0.00316512192721457,
          -0.08739780719750823,
          0.09215395506753857,
          -0.07546754282289989,
          -0.1948760003146213,
          0.0242356034417774,
          -0.09964287772236624,
          -0.07442849882059052,
          -0.23838838088655714,
          -0.0848837412172634,
          -0.03408269993421445,
          -0.05196821954840192,
          0.029471572560902225,
          -0.1510332581485371,
          0.25545935910603457,
          -0.10812661979772487,
          -0.1659123583309843,
          0.16559312358718742,
          -0.06652209101709805,
          -0.04584340835225572,
          -0.030102539837138464,
          -0.15204286852790241,
          0.10991101074292838,
          0.017064432358446825
        ],
        [
          -0.011508327868144059,
          -0.065335416232395,
          0.019838312543039794,
          0.07459627826575274,
          0.13450468152916034,
          -0.03315646213588907,
          -0.1370827335880371,
          -0.06471340583033877,
          0.004077047220712862,
          0.10942027290336434,
          0.14643115522010644,
          0.029652046525840622,
          0.07203750112768505,
          0.0671417971351098,
          -0.12631226437127083,
          -0.06324787672924062,
          0.3580973674161795,
          0.0663734169431057,
          0.02568409411981312,
          -0.20220198575715673,
          0.1261529552579641,
          0.05793926771074121,
          -0.0925355059667756,
          0.10989430179388145,
          -0.010115391683238514,
          0.06361969468680827,
          0.2484215211994685,
          0.05151102565465044,
          -0.07994236766287308,
          -0.05673894404196368,
          -0.12413099810743426,
          0.07559344688583128,
          -0.024305340668540672,
          0.13465947107566748,
          -0.04104145594998624,
          0.12578067348261554,
          -0.14044675906915322,
          0.12143345133921482,
          -0.042186360858940314,
          -0.22107948637286323,
          -0.14297319798900895,
          0.013303521534840823,
          -0.06933312927166353,
          0.057928744459653486,
          0.06471563189274313,
          -0.09744338035140485,
          0.0017828168513765665,
          0.045086519661633274,
          -0.02244235233585409,
          -0.008929703505621578,
          0.004752741317393465,
          -0.0717043907645823,
          0.0037617202644489667,
          0.029215748351768052,
          0.045275430648081316,
          -0.13437804236221776,
          0.010582957445142623,
          -0.15198993952865136,
          -0.1334390519778479,
          0.007625031565214128,
          -0.037530424613213986,
          -0.01698710108023248,
          -0.03751028668225541,
          0.15437798187008517,
          -0.05610915015951588,
          -0.010896060362316407,
          0.033997794745847285,
          0.0028695066189503983,
          -0.023954760713247307,
          0.04890933646188872,
          -0.05519329366485884,
          0.1247669791999917,
          -0.05410856189672447,
          -0.0045267003672745726,
          -0.07236645228078602,
          0.11050660106688245,
          0.09211024845569345,
          0.0332676356229228,
          0.15440747143038888,
          0.1598330295474471,
          0.02420724838416557,
          0.01605220211288122,
          -0.03501307983628913,
          -0.000942489646101993,
          0.20035964865166575,
          -0.05134239858308605,
          -0.03294107298682643,
          0.21097304917025958,
          0.07305267521913215,
          0.13498164259324508,
          0.09794111476744674,
          0.02353829023315191,
          0.08108752153502848,
          0.10047619603023482,
          -0.19062864743402075,
          -0.11435337123400566,
          -0.09567428057959963,
          0.0012425549626070551,
          0.17672932400839292,
          0.05891862865118578
        ],
        [
          0.19005504492081063,
          0.07176038628610487,
          -0.057710799293652616,
          -0.14897462830688726,
          -0.016107583022442685,
          0.037545330060995544,
          0.013198653251417999,
          -0.1838159686072041,
          -0.17220856596058506,
          0.19979218023933493,
          -0.014503306593324867,
          -0.13177146809684223,
          -0.043255431132833484,
          -0.11785856288832317,
          0.017840715320240612,
          -0.09030941672379057,
          -0.1803568404542761,
          -0.15382668318776224,
          -0.09355329502561549,
          -0.08499958235152404,
          -0.08943012533788058,
          -0.02627285192346549,
          0.17479404520090533,
          -0.032567177265375134,
          -0.02458929595646896,
          0.14693826151947484,
          0.057864788337920504,
          -0.09219657550573218,
          -0.02066045315188862,
          0.11810664200525672,
          0.08015975810512463,
          0.13380345410422678,
          0.03352786166788309,
          0.1491667227850241,
          0.12613363983958334,
          -0.11598087953377827,
          0.06854424249941492,
          0.0064171549154301635,
          0.22858272453504885,
          0.037317688845085815,
          0.1186223937642786,
          0.044248293241336,
          -0.033306257961420505,
          0.2276568996534839,
          0.048172626118603644,
          0.008543441050737937,
          -0.0008878231451220576,
          0.09025865272029691,
          -0.039568561131363124,
          -0.12318439386925031,
          0.05728702784648753,
          -0.22855151343996905,
          -0.040416854192000855,
          -0.045479270693386926,
          -0.058685338408242575,
          -0.004666418798284398,
          -0.1243116654882306,
          0.10959505209479271,
          -0.0434041504952207,
          -0.0025729925102631335,
          -0.022774112115185787,
          -0.01684474042222867,
          0.023466782332861716,
          -0.15128705481663535,
          0.0646909688829476,
          -0.04392957813883529,
          -0.08666753111260966,
          0.20577863755271478,
          0.04934100377073725,
          0.1753326489476588,
          -0.043564401464414614,
          -0.10104971184911422,
          -0.002526763563737992,
          -0.04663799783275313,
          0.03146345605775741,
          -0.16314163244159846,
          0.057157897504983894,
          0.07037071910183952,
          0.13096808474231386,
          0.027594367892155847,
          0.025492662242846003,
          0.12522171987108072,
          -0.04675562868291326,
          -0.09296692636589683,
          0.14270940248910832,
          0.0024871059224385868,
          -0.1966713856167474,
          0.03661530400368068,
          -0.16008839879665626,
          0.16374982018666792,
          0.015193444171897212,
          0.01204334324345451,
          -0.039380958764354664,
          0.02026743213161074,
          0.05220112666323804,
          0.018790553608549743,
          -0.0061895544982931055,
          0.0498673178428495,
          0.14640975468139097,
          0.13018576832804216
        ],
        [
          0.05069702296770773,
          0.14801904970568677,
          -0.24516507490888553,
          -0.06437216322088435,
          0.03210859818716039,
          0.15165252553869343,
          0.09876405563500605,
          0.08542631643398459,
          -0.07987862957347737,
          -0.04700491945966601,
          0.03885932395410546,
          -0.13376256830884395,
          0.10777228056802096,
          -0.015871294803885515,
          -0.01844754877619447,
          0.009985260346429093,
          0.1076628010552187,
          -0.19283329734312,
          -0.054613633087290864,
          0.31744096167068986,
          -0.056482179102417616,
          -0.021307948378195923,
          -0.24754640207069395,
          0.00697990694876845,
          -0.025096645228884204,
          -0.025966892208310312,
          0.17961362131331565,
          -0.07943675798981181,
          0.09204682773478168,
          -0.03848863177500161,
          0.16772890440505783,
          -0.08309918449418217,
          0.13007060288666605,
          0.12565841538815425,
          0.10629218678860435,
          0.10076338613329013,
          0.09557922293168859,
          0.09008215639859057,
          0.050143730381742815,
          0.03791879908718486,
          -0.00016853329270869372,
          0.03578536940456154,
          0.09795108804701196,
          -0.08788978669855896,
          0.035010770895051134,
          -0.020449949699357175,
          0.04705567759002197,
          -0.030169558254209083,
          -0.04404174346745679,
          -0.04204160420648402,
          -0.014470350488682483,
          0.17473852583635538,
          0.08249924004308073,
          0.18153937042024873,
          -0.011124407096472206,
          -0.13581493353427235,
          0.14687600476546264,
          0.16664861737304554,
          -0.015651604145557108,
          0.011985752901998489,
          -0.03914264618979405,
          0.012165114127117752,
          -0.18000249314086458,
          -0.11489471604870925,
          -0.0003968661320456761,
          0.09708143763438565,
          0.09072064285890633,
          -0.029446713096416097,
          -0.1255719780233184,
          -0.10154134884616726,
          -0.09376888557570044,
          -0.03246063245658035,
          -0.020485718139062782,
          -0.032310060927310584,
          -0.07773831683891048,
          0.14856385077966164,
          0.11260394610291839,
          -0.03348647391371818,
          0.038800067860388525,
          -0.07864995135265361,
          -0.10431453045942847,
          0.02218867898770995,
          -0.07888248126942203,
          0.13761850059770744,
          -0.08790891500992976,
          0.15879175085185052,
          -0.28647109888507855,
          0.03883410588602461,
          0.058168270315051646,
          0.009966892829805323,
          -0.0515976679060175,
          0.0613335210849356,
          0.12728336549000369,
          0.12619739597572366,
          -0.23400248109207664,
          0.16920185612422278,
          0.07027136010499695,
          -0.18406932905122875,
          -0.017113601789126607,
          0.09591584559147509
        ],
        [
          0.01508358325697794,
          0.12134591085276147,
          -0.006648962334348537,
          -0.11246467391554282,
          -0.08247983026932869,
          0.14128578464425368,
          0.042843140456598726,
          -0.04084154453734231,
          -0.02460604218950402,
          -0.008431727330901926,
          -0.0184351129234564,
          0.021828229510382352,
          0.034966916649648905,
          0.06439010617882059,
          0.06489452181301165,
          -0.0639909125948872,
          0.04835990866255984,
          0.23185327193585326,
          -0.04049949094488101,
          -0.17084477237385903,
          0.05499311399489855,
          0.11663987919378138,
          0.04068216961827235,
          0.018710854973180497,
          0.032743768538775295,
          0.04412134060759525,
          0.030530891901009667,
          -0.23173135622384927,
          -0.12215830704743443,
          0.0064602039762126145,
          0.0678304079765391,
          0.04435414374053087,
          -0.06710678449772141,
          -0.11837378428449333,
          0.015031256218162403,
          -0.15526982762490185,
          0.01034977428902706,
          -0.06900509593575695,
          -0.2129354262111718,
          0.018661587098565947,
          -0.0693530914338465,
          -0.21613629872721385,
          0.002614275810803277,
          0.0013457609420948731,
          0.05440068072088354,
          -0.08787741564716149,
          0.06364109929333364,
          0.13382928674759131,
          0.06375670075116857,
          0.1519935494853182,
          -0.08209065282263034,
          0.05421464722356743,
          0.15449571602474158,
          0.03832587201104907,
          -0.1059191398949539,
          0.27367073050799756,
          -0.19230865404433428,
          -0.03154435160953419,
          -0.08783440595769493,
          -0.008885630505248546,
          -0.026280024548865664,
          -0.07775573258409536,
          -0.005564505776545465,
          0.10946105089834594,
          -0.021706855934598607,
          -0.14026624927758466,
          -0.044877587444568115,
          -0.05480456177169386,
          -0.2042619921266109,
          -0.00650186440702039,
          0.10854512301793706,
          0.15344191961876913,
          -0.07549444662276761,
          -0.06637627409920478,
          0.07977604545680869,
          0.12274920947360936,
          -0.0946552622922306,
          0.004579945909274041,
          0.051454367281267004,
          -0.29255908540837017,
          0.017066319071557833,
          -0.11494795987425795,
          -0.14819304734043165,
          0.128647488834942,
          0.22352226774559314,
          -0.03518082578350698,
          -0.038636881750326195,
          0.023248883924300693,
          -0.11053546084483291,
          0.2078600447311792,
          0.19978544166496395,
          0.054836327173287354,
          0.05230102116518689,
          0.028038633899997046,
          -0.10738451669543808,
          -0.04527103393799758,
          0.07022016155914536,
          0.06670211225271439,
          0.1091706650266058,
          -0.03845885586071759
        ],
        [
          -0.04418925922553704,
          0.06447452879226827,
          0.04397177184264127,
          0.10661466841432633,
          -0.13841253163420472,
          -0.16145624255115054,
          -0.16444825654337755,
          0.014319899433481786,
          0.15890944410473648,
          -0.22987456262699912,
          -0.005903494125443403,
          -0.026801704060814037,
          0.05843486804303108,
          0.0038679135988169792,
          0.006253454987887631,
          0.17019617756862793,
          0.16309794490903157,
          0.1166159556422085,
          -0.04951638410818946,
          -0.06400649000048166,
          0.09635117455316368,
          -0.1359859842650097,
          -0.07314293742412234,
          0.0014665187382173592,
          -0.10231205557327465,
          0.059390217104318646,
          0.01888922462328639,
          -0.039284006725155064,
          -0.022834804233391136,
          0.13064372857392487,
          -0.1626948774784485,
          -0.08518260083613513,
          0.16481626315197082,
          0.11476793720576914,
          0.09294664516428537,
          0.007045071592621803,
          0.1670416533049071,
          -0.017214520999545655,
          0.15829276095640687,
          0.08598091743622845,
          -0.1191697388831104,
          0.0742446602820382,
          0.010077525757354839,
          -0.10170500764243484,
          0.08060781986083349,
          0.020749201872089437,
          0.03746410294390803,
          -0.0866937369933811,
          0.06334704932017005,
          0.03389653266923346,
          -0.08696698341880817,
          -0.160096464571907,
          -0.025222927409885198,
          0.11547811917449857,
          0.2555201654369228,
          0.06840934766759096,
          0.11711849452862295,
          0.011388264687995505,
          0.03522152231465545,
          0.07112601952528781,
          -0.003793970235068996,
          0.09541066459460833,
          0.04326945071670507,
          -0.018885238753077422,
          0.03807405766867181,
          0.2248193683467946,
          0.00200957117439571,
          -0.06254706362810333,
          0.012313872336105524,
          0.02360756916166475,
          0.07173510300158419,
          0.04331481531798279,
          0.01139901599381037,
          0.09727993336914224,
          0.039885833561711305,
          -0.06696513267271487,
          -0.06339108612131505,
          0.006844913715045387,
          0.005090082776949093,
          -0.0658395031450119,
          -0.19114547293049217,
          0.02273131344926774,
          0.01059642599791357,
          0.07234315639849263,
          -0.21585348894825343,
          -5.464331341112823e-05,
          0.21027829583603944,
          0.09241715329728983,
          0.10314377370951602,
          -0.025595412668345512,
          -0.005279484415897519,
          0.019269452781420938,
          0.1548910091131238,
          0.08278229030983165,
          0.033861258582501635,
          0.2795480591491609,
          0.010877628475110505,
          -0.10012048941520162,
          -0.07829363166041459,
          -0.22457141688445437
        ],
        [
          0.04068626492172071,
          0.0351479437540658,
          -0.072766228130999,
          0.16917057621035517,
          -0.010914142006796777,
          -0.013395835031687158,
          0.14442445583933544,
          -0.007316134311353029,
          0.05725349225437814,
          0.06102810579018157,
          -0.04470907052405448,
          -0.08547142266953656,
          -0.07576100333858958,
          0.10081681022361075,
          0.1969885526859817,
          -0.08702921938670516,
          -0.10965877286417434,
          -0.19961765613597682,
          0.051591824373830315,
          0.008479903787813567,
          -0.17169289023235676,
          0.25416405456747315,
          0.16779039557022876,
          -0.08372428500953541,
          -0.018172878892359384,
          0.13950909351338714,
          -0.038695779797869964,
          -0.0815529482597202,
          -0.007391931116336749,
          0.1658988911169222,
          0.08980189226191289,
          -0.02318226885940831,
          0.053155870257044116,
          0.23213252069898688,
          0.11198586987322849,
          0.04219247092434365,
          -0.17375408369868936,
          0.07067613816104827,
          0.0292861300766507,
          -0.025527626487093724,
          -0.09285932508325301,
          -0.13311161871040067,
          0.0015351988168421735,
          -0.01176456494288314,
          -0.0654414612164401,
          -0.05522833448169178,
          0.06421116354182092,
          -0.012679402802913298,
          -0.04413679876928635,
          0.01641002387000262,
          0.05554901939431042,
          0.019039751186357413,
          0.03731954163597778,
          0.05933375026437612,
          0.07304247663058314,
          -0.2514533775479302,
          0.04918650194747246,
          0.03266134903104795,
          -0.06599620273040048,
          0.15829341239809333,
          -0.02312017590035549,
          -0.07312547814883828,
          0.036994809015951,
          0.051688257291483346,
          -0.19711448644028046,
          -0.17541225695399476,
          0.036878523871400885,
          -0.04365038601435684,
          0.13852168144746063,
          0.09358549167045463,
          -0.018850105652075372,
          -0.01211779472162504,
          0.13784194214593778,
          0.14830762747517667,
          0.0330623106714503,
          0.11616341431864967,
          -0.04044687583242115,
          -0.07193014141494307,
          0.03236891523887544,
          -0.02923877884706743,
          0.058215200550421474,
          0.023389884783213803,
          0.16089750005953024,
          -0.07544214414320656,
          -0.08846621990618404,
          -0.07804488954202707,
          0.12818575233965587,
          0.06374725047097642,
          0.14378190897843102,
          0.06726879192178858,
          -0.15816862192690365,
          -0.008105889514435022,
          0.025774070284087854,
          0.16566753862155176,
          0.05595922251798041,
          0.048779739800977336,
          0.10018951066721475,
          -0.02777382886925448,
          0.09720874107060522,
          0.04793997256451079
        ],
        [
          0.12586861174363437,
          0.020474909909197442,
          0.013572219025855137,
          -0.1308507653192917,
          0.07425732368679874,
          -0.03348502820887377,
          -0.3619606290630448,
          -0.1777997993564369,
          0.001934613980427657,
          0.07499732807490106,
          0.008730096995136723,
          0.177222523507062,
          -0.05506307502913213,
          0.012064640157881942,
          0.1034877132502827,
          -0.07480564946844417,
          -0.05366839464816994,
          -0.06979266202483006,
          0.055359058861741785,
          0.1347969181619952,
          -0.05615934883895992,
          0.08296367286221895,
          -0.0898340695491848,
          0.023610102149132384,
          -0.1271817356723552,
          -0.017181157233589824,
          0.17112785140813075,
          -0.08424572664555197,
          -0.02523198753924687,
          0.20872308416003169,
          0.01993040524185427,
          -0.08616875149982196,
          0.010142678105275799,
          -0.08082826421132415,
          0.08419290390647166,
          0.0734246027733905,
          -0.040915188537794085,
          -0.028379923629146802,
          -0.1777005584921252,
          0.16377394993813332,
          0.11986377529877375,
          -0.15308491475626454,
          0.0035406291649256578,
          0.007083809588778911,
          0.006338066264053057,
          0.08946789513379878,
          0.0444535197819875,
          0.22650859734510345,
          -0.24176038515905704,
          -0.02004365756973005,
          0.004671973016688989,
          -0.014960317194514135,
          0.14783884327645846,
          0.09455624758741445,
          0.03595683466914123,
          -0.14300327807639446,
          0.04229223384115631,
          -0.11333099292092656,
          0.13233489144176186,
          0.029525677966858902,
          0.22033355155816708,
          -0.07523918935239025,
          0.04394631934661196,
          0.08822936167535746,
          0.026771061676743278,
          -0.006558430775620668,
          -0.02038994953314762,
          -0.18959879454224712,
          0.03231587449362081,
          0.12388973114815093,
          0.028699471514632882,
          0.06625620559130298,
          0.04391959392187276,
          -0.08536164690071373,
          -0.14219342094595858,
          -0.024837252690574515,
          -0.10344780033700524,
          -0.14885868317940756,
          0.07934570219024627,
          0.2154308184934931,
          0.1877595624724932,
          -0.10803645360512062,
          -0.02800143958382157,
          0.06939682362150953,
          0.03086827997895199,
          -0.08470525715686046,
          0.009819670387234435,
          0.19472454897325486,
          0.005936906115887073,
          0.05948424887628112,
          -0.010666886177333157,
          0.02299891084044367,
          0.06718735230773372,
          -0.16835161125353212,
          0.005632783647884861,
          0.049188462419247084,
          0.03243026973677608,
          -0.14198538742687042,
          0.03850862543193186,
          -0.03985782808225522
        ],
        [
          -0.08368962643636176,
          0.12905759613302087,
          -0.19636484965824863,
          -0.08564350593861984,
          0.028019116355035692,
          0.14039568593707089,
          -0.037669435490207605,
          0.0928291933271386,
          -0.10050711621610102,
          0.07719863947890139,
          -0.1627582950406982,
          0.03196524050110462,
          -0.04549410275364932,
          -0.2644133667353964,
          0.18773395207702878,
          0.04880148532731623,
          -0.014734158064222272,
          0.0423282661806708,
          0.08054366107341528,
          -0.13461901077854221,
          0.07067134687129144,
          -0.20195756047425387,
          -0.009478176447711106,
          -0.02873632213539394,
          0.17699334898793304,
          0.16516347047184235,
          0.11053258253620162,
          0.03558436130905022,
          0.03604000170113758,
          0.02170972848767591,
          0.0515724056473231,
          0.06510662525992404,
          -0.04043532813489063,
          -0.024250299601864634,
          -0.11534825568034666,
          0.09742765711736566,
          0.044847302323537765,
          -0.04466421463430882,
          -0.10860876741113519,
          -0.009040185818581327,
          -0.272032852112577,
          -0.15076423002299116,
          0.11726437447591666,
          0.10962004833069997,
          0.017020654532136623,
          0.06020008570846776,
          -0.012917677551261135,
          0.064574228760855,
          -0.0011025459673304708,
          0.12155400507821026,
          0.05522782411714145,
          -0.05360639114289172,
          0.1931294556596352,
          -0.20746105686005709,
          0.2416742357602117,
          0.12977155196995446,
          -0.03325993934486086,
          -0.152715929568471,
          0.11429364873536514,
          0.18572003547144245,
          0.09901026233719819,
          0.018196607049045074,
          0.028784870133921458,
          0.0016931636212322492,
          0.05768442283999903,
          -0.2588642576296741,
          0.0018707978442722244,
          0.1127559437984925,
          -0.03491524754091235,
          0.0936308355377291,
          -0.006358865073481359,
          -0.16765201976292624,
          -0.09378072558796485,
          -0.05820966525255985,
          0.09677953708114703,
          0.09059316259862372,
          -0.07316976831085495,
          0.0075903954292044235,
          0.06151771613154574,
          -0.04500301190618523,
          0.033549228342537596,
          -0.0730909733997077,
          0.11450958115904747,
          -0.08765800961395338,
          0.13325405009407515,
          -0.1938864049241234,
          0.22869021920381008,
          -0.04479349583722501,
          0.18594692453363088,
          0.028821357362645586,
          -0.014838286498149656,
          0.1151785581733387,
          -0.02257128570419964,
          0.018302108755001784,
          0.0728828530055823,
          0.05439106128523878,
          0.08577843572323975,
          -0.13079767562261585,
          0.053764485641443135,
          -0.08734577950904908
        ],
        [
          0.023596959399684245,
          0.12630815171743298,
          0.01795255337828928,
          -0.05823528682989516,
          0.08871236817768713,
          -0.001553774181160458,
          -0.05309165537484726,
          -0.02459677229329405,
          -0.006712974693390425,
          0.08120170351445204,
          0.16756428564927575,
          -0.046554550955427765,
          -0.04067859122176318,
          0.02955581485594003,
          -0.14898679571766452,
          -0.07133412296390937,
          0.04838321933647714,
          -0.011779788721662566,
          -0.23173348680396522,
          0.07267617463014293,
          0.16933128704662392,
          0.010253036762740938,
          0.0712612650974864,
          -0.0726416848527225,
          0.04652995863877744,
          -0.026838293059348792,
          0.09203992756202935,
          -0.018226579336647914,
          -0.006632695835840878,
          0.09211449312921059,
          -0.03772388509380295,
          -0.08758578412550336,
          0.25345326212602975,
          -0.10953497688947007,
          -0.07277902069353369,
          0.022453648382389776,
          -0.061869780374139545,
          0.019811182174298083,
          -0.05744262947302675,
          0.17906143986580858,
          -0.10769476362949483,
          -0.14129177330308734,
          -0.009001336532882768,
          0.0982801606491938,
          0.05743963464098357,
          0.04698798324196457,
          -0.07442363382257,
          -0.11454981319983319,
          0.07917148920449985,
          0.1415278569785613,
          -0.15437044326335383,
          -0.2000520283261302,
          0.02386122354827386,
          0.016014551169111664,
          0.031851231411628884,
          -0.09383286337495465,
          -0.07065860777037807,
          -0.22911241923328282,
          0.09786664177422766,
          0.03296381008416306,
          -0.009143617093519811,
          0.11735380214577315,
          0.11350571077544026,
          -0.18147418905945606,
          0.30757500520837816,
          -0.07562237369814427,
          0.08080374899387294,
          0.09987099341898699,
          -0.06389774416730276,
          -0.047625605946121766,
          0.020004012695331072,
          0.046160706091532104,
          0.060482584060653835,
          0.010478280227643775,
          -0.09945494165388229,
          -0.006917774744603882,
          -0.18663494510104955,
          0.23855796284040637,
          0.054104773582001206,
          0.010954048429828753,
          0.07811951606469832,
          0.08588389528199264,
          -0.06868843152480468,
          0.09043273675008405,
          -0.12362785449797468,
          0.04173014866168978,
          0.03555447698767859,
          0.06453589304014272,
          -0.11416950382883788,
          0.04199304221264732,
          0.07796050838377923,
          0.01765539380429567,
          0.0940885942877187,
          -0.10835997374867064,
          -0.04935565884968563,
          0.10018600956828565,
          -0.1854365719189306,
          0.10475578319869451,
          -0.03655220281399356,
          0.05555074288276776
        ],
        [
          0.10238869860795577,
          -0.014885102051863965,
          -0.23133370290271457,
          0.09766519844293542,
          -0.052182325682976274,
          -0.12241190778791994,
          -0.062907582072998,
          0.08485794655355987,
          -0.041567434180550075,
          -0.09191563279549216,
          -0.14468668483088912,
          -0.08793634522403726,
          -0.08476765925948443,
          0.08897039967967642,
          -0.040224943771742204,
          -0.09478805588283161,
          -0.09121299380747916,
          -0.03921646458663698,
          0.04277076713627878,
          0.0340099660768173,
          -0.024094142258423726,
          -0.10979641890180473,
          -0.019584712149024852,
          0.00949607718417266,
          0.11243877710342974,
          0.012046247633459156,
          -0.033416568561582545,
          0.004154784001538401,
          0.05520020640319722,
          -0.05418081787870462,
          0.21542692099276375,
          0.16146006817689418,
          0.15921758244059325,
          0.04938611116970993,
          0.041496007336361856,
          0.06529285685903484,
          -0.023161142425635002,
          0.09216545931781459,
          -0.10591635744138965,
          -0.005113847204669703,
          -0.052113422472027035,
          -0.12040745346659527,
          0.05691088398466751,
          -0.07620325433347014,
          -0.15548455889586382,
          0.06370064043195027,
          -0.10995383258111592,
          0.06486097384278311,
          0.31625062865041625,
          0.013042945003540267,
          0.07885763216002628,
          -0.09779215064268001,
          0.07680565876670027,
          0.2491041899398329,
          0.07439506611558272,
          0.025710191293800963,
          -0.10236037874382006,
          -0.1749849601904179,
          0.04152440946340026,
          0.06593915717543744,
          0.05233823692099235,
          -0.06573145452965257,
          -0.07456974137337857,
          0.027353585765484217,
          0.04275275281885764,
          -0.17812990984386895,
          0.24558411503847324,
          0.04056845325509334,
          -0.016474420397777197,
          0.033052973197399846,
          -0.21287533693148145,
          0.16054411357174617,
          -0.09874489492463168,
          0.1426877467867823,
          0.029630989448792895,
          0.06301580309827141,
          -0.057056139752610556,
          -0.05581868035292006,
          -0.08300196553733373,
          0.001482126936448616,
          -0.11982506555595361,
          -0.20516033273391424,
          -0.030605558106818743,
          -0.005386302236721946,
          0.0933872355915108,
          -0.0052201278626691295,
          0.04685522017140121,
          0.24467503640187568,
          -0.07227977875078709,
          0.004561150399839682,
          -0.040282397776177425,
          -0.017028732244142968,
          0.05735337803788436,
          -0.05982472454080684,
          -0.14023188560940303,
          -0.12481445197910215,
          -0.26206349483408836,
          -0.08359896475274457,
          0.12443973838219073,
          -0.09276838805038687
        ],
        [
          0.13397508852385212,
          0.025672526659992496,
          0.09391364083294321,
          0.10094416616390346,
          -0.019685806553565357,
          0.1198920448571485,
          -0.14804518006468928,
          0.04253676747633241,
          -0.023261712974709286,
          -0.18593349434862524,
          0.04111207848425322,
          0.11398513582332173,
          -0.12692231755697753,
          -0.003703559548672491,
          -0.058634903093387675,
          -0.03609860363666687,
          0.04833499992878461,
          -0.06048282665939598,
          0.03854026522096012,
          0.04398144386399115,
          -0.06810431915130931,
          0.053053565583994586,
          0.10805794608670934,
          0.0013311379072802134,
          -0.04635418948472784,
          0.14441298699035335,
          0.030757541120090114,
          -0.06728801332384904,
          0.06271075786719868,
          -0.044176033684731296,
          0.20706473422624655,
          0.055243599442334465,
          -0.13669226945137067,
          0.006848630089254908,
          0.0637620156076545,
          0.005250342831354789,
          0.07525079346315883,
          -0.03804029893243349,
          -0.13559683432925032,
          0.07824598141566011,
          0.08533792825375626,
          0.018351318122651828,
          -0.03769668068664989,
          -0.08113479417846796,
          0.007133262775597967,
          0.051199449051341654,
          0.13434790773275265,
          -0.04579624067487366,
          -0.04476508236806052,
          0.1674457944950201,
          -0.05372165490735076,
          0.054650157406389135,
          0.10800753922053014,
          -0.12820363109068933,
          0.034906619478577317,
          -0.10621596171301255,
          0.14752162719780046,
          -0.054353383165056605,
          -0.03963309006885681,
          0.15240337414780716,
          -0.05209785850329434,
          0.13589834607955217,
          -0.10175296351722259,
          0.29889887056599296,
          0.013138512020059835,
          -0.0932251340366433,
          0.14418058333070977,
          -0.00958330199052602,
          -0.011550298105927352,
          0.03396273646646482,
          -0.15265564821011346,
          0.011288902194209359,
          0.06342768965527548,
          -0.053287415938861465,
          -0.19158128964158552,
          -0.06040469018633709,
          0.1277795238962888,
          0.018958270845895468,
          -0.13850419684677648,
          -0.004828259092820364,
          0.19141743195274194,
          -0.07773506001754955,
          -0.2325526053729387,
          -0.11968248817548824,
          0.06797196225598506,
          -0.006981259775834329,
          0.044144634784636864,
          0.06996464996597435,
          0.031640403740611535,
          -0.09028465314801291,
          0.006431752552214821,
          -0.11592884587315988,
          -0.04504353638419984,
          -0.04210709964228385,
          -0.03455655027764972,
          0.03189334170981442,
          0.11868242298660457,
          -0.16518344247858513,
          -0.020654428107794123,
          0.052265690347294134
        ],
        [
          0.006692335006179721,
          0.023157969980116364,
          -0.1683402059292301,
          -0.06468055640571445,
          0.21787399290717363,
          -0.01349785871486118,
          -0.1621518362965404,
          -0.12656601528246383,
          -0.005104323951677802,
          -0.14574172935210167,
          0.14932955359527153,
          0.0945265175477249,
          0.13441802373163295,
          0.14682926066807667,
          0.04592109125536458,
          -0.1138977766458494,
          -0.1272945756704382,
          -0.056265207983948975,
          0.12409477226199943,
          -0.029288382625505267,
          0.055022941348510754,
          0.04447210329811077,
          0.08306605320400032,
          0.022285317619050705,
          0.1170281890340517,
          -0.06397173198933974,
          0.04150769677091591,
          0.12450155428948342,
          -0.06320668887415619,
          -0.12307593515443034,
          0.08881385817609995,
          -0.06995115910727519,
          0.08561978826683517,
          -0.004575674245295523,
          -0.05910909148654811,
          -0.013956345701008368,
          -0.10377309831068916,
          -0.06938347715559838,
          0.004211407975856275,
          0.005988847675002962,
          0.008548616537089717,
          0.11537746663425716,
          -0.05990569137022646,
          -0.05828004413003575,
          0.2533780528072865,
          -0.10601318633072664,
          0.013906649497241363,
          0.017704323501452804,
          -0.00872906306817462,
          0.03609869997120482,
          -0.12028126250383278,
          0.01807222399244575,
          0.10390363179133771,
          -0.09011458028503191,
          0.005728914182612558,
          0.00715513486141147,
          0.036431604562627465,
          -0.015247647457501854,
          -0.06931161241620502,
          -0.049204653929676344,
          -0.0320239849374213,
          -0.03794412804931936,
          0.0281720791228577,
          -0.13741998727373164,
          0.16502120196763512,
          -0.0871771379089628,
          0.06803730127292823,
          -0.013699154917787287,
          -0.054147790688472495,
          0.10620461664026862,
          -0.043547359770604414,
          0.030423649772444702,
          0.07209795001942793,
          0.20714687056780642,
          0.046975028126103276,
          0.20286831782179446,
          0.026011609713306315,
          -0.08909619661314744,
          -0.21013523190479164,
          -0.05984161273188533,
          0.055264073685704754,
          0.02805335297256706,
          0.04518221566221654,
          0.049975664675410626,
          -0.05064636208510595,
          0.14798440656166154,
          -0.05992952124835389,
          0.009242445307224999,
          -0.05865985816775584,
          -0.1618791942009643,
          0.05930326316831092,
          -0.03335819926445912,
          -0.1373082574009132,
          -0.06432813155382237,
          0.012855051902036209,
          0.018201385777697466,
          0.03667333448775196,
          0.016029469676067016,
          0.07571286935231379,
          0.017414779645511948
        ],
        [
          -0.0991444738828737,
          0.19875108074482903,
          0.008227734295671836,
          0.07312159884439251,
          -0.08421284119019301,
          0.07950585427197059,
          -0.04424316405216527,
          -0.04127208148238788,
          0.03475625262743707,
          0.05162211983941303,
          0.139827370604062,
          0.0730419351731917,
          -0.013196287926581948,
          -0.35537571833770676,
          0.20274467689773862,
          0.13511983359697183,
          0.1672483576487098,
          -0.13093119644399262,
          -0.08626316058953205,
          -0.03596007070251579,
          0.007787791846643301,
          -0.06118278660893843,
          -0.09861073961538569,
          -0.08137768342800906,
          0.017027338845819806,
          -0.07565606208725988,
          -0.05288281395542874,
          0.16890920089009287,
          -0.017724836273949517,
          -0.10376846142078823,
          -0.07059889434745299,
          0.06602001762158476,
          0.07024131967574943,
          -0.1248126917652613,
          0.02715100716123025,
          0.1358125065921196,
          -0.08122859165308467,
          -0.12172367858957053,
          0.008749131853157208,
          -0.02225826007356632,
          0.0832398392168556,
          -0.09866318747430024,
          -0.1882370110516354,
          0.39202116778177376,
          0.18680983207708396,
          -0.009992987920255391,
          0.0026513401479780784,
          0.2521078609278008,
          0.06274198185878789,
          0.1255756931097429,
          -0.04695786284665438,
          -0.06018806738844025,
          -0.07477032257373456,
          0.04422868154265548,
          -0.0791211846717672,
          -0.050641331912221116,
          -0.08330299576064805,
          -0.10637740896374917,
          0.12434195864858881,
          0.10270861414642384,
          -0.011170771288607485,
          0.02832016036484464,
          0.002377252373680526,
          0.003512955566086481,
          -0.05009509297382255,
          0.0700119076427922,
          0.14181106689723214,
          0.16252213669594837,
          0.16850220946673286,
          -0.20553120122417134,
          0.10532884090806191,
          -0.04116098600831556,
          -0.02401651809437813,
          -0.0584327815085344,
          -0.10713360665941217,
          -0.04419534444095777,
          0.09375877809408353,
          -0.04943878192582749,
          0.09901615725727994,
          0.03084425143086659,
          0.09869394098235433,
          0.026250457354456556,
          0.045175340550481155,
          -0.0837201445770328,
          -0.037974428922988246,
          -0.0033732102942120377,
          0.07263219924008237,
          0.14606988430303208,
          0.11909848007339247,
          -0.04528089425933773,
          0.2413290578636329,
          0.14275136558912394,
          0.06659515897442327,
          -0.20716879560610965,
          0.10093842890651579,
          -0.11451816651648136,
          0.18417495223927977,
          0.024803850687951882,
          -0.08197284670268459,
          0.0037755867253908898
        ],
        [
          0.15767317619801413,
          -0.0827074414488521,
          -0.11129490379841017,
          -0.1279933265063511,
          -0.04463808220744949,
          -0.17058245883438952,
          -0.1181513386908572,
          -0.04685012638738794,
          0.01567725855392838,
          0.07838596470635087,
          -0.009137237522880311,
          -0.007120267229483158,
          0.005212269961953259,
          -0.11232740298320822,
          0.11471420299877408,
          0.011246933018901763,
          0.029595080512055037,
          0.016042281639522052,
          -0.09573007805144448,
          0.0608217142822412,
          0.010817231905244664,
          -0.012568096642137445,
          -0.22044674110551027,
          0.0009434174142419691,
          -0.14512109155431951,
          -0.003864668344925161,
          0.007071709464752376,
          0.037207314164206695,
          0.08897621791376574,
          0.17312644100425897,
          0.10308098377414147,
          0.1091367639776518,
          0.021568995283454732,
          0.15060495225021123,
          0.011105163990611996,
          0.05846286514048807,
          -0.015553581392524737,
          0.031404388477752426,
          -0.1242814124026526,
          0.07739634706590434,
          -0.0036279773272172525,
          0.1002211251182909,
          0.017573706744285197,
          0.013441494250393269,
          0.10320932278898158,
          0.09533428072761174,
          0.046870225813820436,
          0.06371398749691094,
          -0.03368931329556449,
          -0.030654324642120832,
          -0.09490290418317003,
          0.004496405807479202,
          0.1214336108219844,
          0.07833855046327602,
          0.10814101805923984,
          -0.03171898082564346,
          0.03245586505800066,
          -0.11380298144248513,
          0.17875501220510737,
          -0.0456730304113784,
          -0.02676834797395846,
          0.09154645041633903,
          -0.04687622120406934,
          -0.0023435376174801028,
          -0.017472200798192047,
          0.09225001041640664,
          -0.059507734989007126,
          -0.08155080254050179,
          0.048755521309145386,
          0.10186068450116229,
          -0.08358527776591271,
          -0.01004452456427683,
          0.2777395581727694,
          -0.018588532494502263,
          0.018715381210802004,
          0.0633968238212402,
          0.05887880364689586,
          -0.05037046379445659,
          0.08083073454153594,
          -0.030676305573202303,
          0.011683981971375282,
          -0.09002192803440717,
          0.05842529103637773,
          -0.14481791394709106,
          0.04062414445012381,
          -0.09023656728391657,
          0.025616683599216223,
          -0.056047125220945425,
          0.11620058987077073,
          0.18259986962667438,
          -0.029548919239932202,
          0.04212621602235345,
          0.08335844120300359,
          -0.031724367005282465,
          0.08893660614792998,
          -0.0843033589312995,
          0.06646700722996123,
          0.08951489593596645,
          0.0339080239443491,
          0.09025698553823427
        ],
        [
          0.025075357848443298,
          -0.055169678136351395,
          0.0680294993930542,
          -0.09993723673000117,
          -0.2841703346254148,
          -0.15435912956406111,
          -0.1734036101302967,
          -0.03470457011207106,
          0.04723763496472356,
          0.15883286799417584,
          -0.12502985926256557,
          -0.07571636459159445,
          -0.043858121208499024,
          0.08162870015917788,
          0.02581050734017187,
          -0.0912777679472529,
          -0.10577993934504867,
          0.12680935730850362,
          -0.02444504032546175,
          -0.045730820691378585,
          0.020248218808311746,
          0.008291092108875827,
          0.06097037076643565,
          0.0012111634348414642,
          0.04840890021877918,
          0.15744038498380436,
          -0.07391045824349293,
          -0.006415689605767019,
          -0.08780879607807067,
          0.009700757859508625,
          0.03125468209500788,
          0.01500561706030862,
          0.1654084349574094,
          0.03824963852902695,
          0.03043958903307624,
          0.15529661538788106,
          0.10839686231938334,
          -0.09627208518530611,
          0.012278123118241781,
          -0.08062031128754026,
          -0.1131053605813383,
          -0.17699565741646825,
          0.028634577915518003,
          -0.08921460888592311,
          0.1024494708464965,
          -0.10322207029375283,
          0.09594107641944727,
          0.04162171398112077,
          0.07024565797632774,
          0.06249073167877248,
          0.05478939718502644,
          -0.0825437555115338,
          -0.11056474834188838,
          -0.19233445449010345,
          0.2103023949407625,
          0.0055650636950006415,
          0.19614600148144964,
          -0.036517333884097204,
          0.02115965815836886,
          0.015703358280246563,
          -0.11215962870951762,
          -0.0076301209818736455,
          0.07846009460389652,
          0.051391936027359794,
          -0.10733964980829,
          0.007968193977782239,
          -0.20275874612462888,
          -0.11854380042199965,
          0.09589504836856398,
          0.2367661270628135,
          -0.005964331732936045,
          -0.1561199429794706,
          0.057595263743265866,
          -0.25190372401252065,
          -0.05769148193879856,
          -0.0672495975780705,
          0.12868483349886534,
          0.04323416717767067,
          0.05234536236883974,
          0.07618750489148556,
          -0.06774336306521915,
          0.07237766841416629,
          0.10049972002954646,
          0.06107629413156692,
          0.09499746157507286,
          -0.008156846215469542,
          -0.0127220713912807,
          -0.06054476915593805,
          -0.12565511494356543,
          0.12994415785637262,
          -0.12519327024635207,
          0.0971214324783632,
          0.18100604850924062,
          -0.038377062991393186,
          0.04512695958629913,
          0.03721067738441402,
          0.09373218720740711,
          0.05156006323201141,
          0.0056651382896871025,
          0.25929429316098523
        ],
        [
          0.022123761856388577,
          0.06386015299198024,
          -0.0001359929215530284,
          -0.020867140498869292,
          -0.03965797741590129,
          0.06755536353578781,
          -0.09107063015049671,
          -0.0048669665459844715,
          -0.03613474914356082,
          0.08767668445413764,
          0.20339984406607933,
          0.08061490404749011,
          -0.10979380696934331,
          -0.1791307984535089,
          0.05274711427686669,
          0.014055082672555825,
          -0.012987450830873356,
          0.03116735250306526,
          0.09837033997082183,
          0.02437658424994997,
          0.07217424358324986,
          0.08915285939050079,
          -0.03680218152692251,
          0.026677973412781584,
          0.1794950886094327,
          0.0072843496084069245,
          -0.0031838355065564403,
          0.141400639844556,
          -0.07047244243659505,
          0.12309650487105525,
          -0.04089656097336296,
          0.164027352759771,
          0.020349733984729848,
          0.03426304034635317,
          0.0880481327670558,
          0.06933124356810418,
          -0.164262072096693,
          -0.03494039700830483,
          -0.11279497772385161,
          0.20838511029119855,
          0.06947262606226175,
          -0.06063256871030049,
          0.06170287774277653,
          -0.09122813245405284,
          0.0718169755355929,
          -0.0045836285090371165,
          -0.10859130856129136,
          0.06832869154986704,
          -0.12015530097991563,
          -0.03550264369151885,
          0.06772935970446801,
          -0.08347360086313986,
          0.08577612193638176,
          0.10286400744140135,
          0.09562118027975988,
          0.06171477976894318,
          0.013724207521446744,
          0.04954783559718087,
          -0.04809582024303901,
          -0.031192836991859218,
          -0.005733132205765301,
          -0.046519898233667006,
          -0.02990956725373588,
          0.04163848410534536,
          -0.08721964238260639,
          -0.053789245654984726,
          0.061652834437392015,
          -0.10941807990967826,
          -0.08127484301333371,
          0.09884792693888131,
          -0.178152835725542,
          0.011083637897676578,
          0.32318437160227187,
          -0.008192250472092898,
          0.07351878894363605,
          0.2062467818581977,
          -0.004496609884423477,
          0.03229400011696411,
          -0.014525493514086645,
          -0.023800599352572685,
          0.164094070453136,
          -0.07382794014111861,
          0.24852577938751239,
          -0.04120732203351746,
          0.08320394538670835,
          -0.08396059059046279,
          0.008496779800321352,
          -0.020421061183605024,
          -0.15839369302117848,
          -1.5182940543543046e-05,
          0.08513120278611395,
          0.05278756344556831,
          0.12982892907465846,
          -0.056372297169039624,
          0.12084037696692117,
          -0.09219727065737508,
          0.03137815506223094,
          0.10749765975107875,
          -0.11992239267359985,
          -0.14523939215808712
        ],
        [
          0.06537069401210419,
          0.055073826876916455,
          0.1578350190232455,
          0.16588132468948832,
          0.07016820110691264,
          -0.0444098998589939,
          0.024167468588866387,
          0.031104460125915515,
          0.01707804047720667,
          0.2529599930303412,
          -0.11935834610945802,
          0.17436536029926689,
          0.19366596642491354,
          0.13156053747922608,
          0.018672844784776307,
          -0.12652047449612328,
          -0.06769914781765417,
          -0.007396943099677378,
          -0.06022881756504279,
          0.2683655742352966,
          -0.029865632512229304,
          0.06856142265626879,
          -0.0019227330707060873,
          0.042171128252505165,
          -0.009772225735318739,
          0.03624880164806712,
          0.13568763114042154,
          0.0008022023910079315,
          0.19147161347518182,
          -0.031087800232405465,
          0.2169341880426078,
          -0.10679967449336104,
          0.03787689275525294,
          0.12284799392196837,
          -0.06808697889698498,
          -0.011097363779203992,
          -0.05803648171839459,
          0.03463884154983956,
          0.013175282602897742,
          -0.0646078446621409,
          0.027814439418301275,
          -0.029076269351395984,
          -0.19858525568021143,
          0.11529615057619595,
          -0.03149111846472036,
          0.013164557619116876,
          0.04888362796663564,
          -0.018322406499264022,
          0.07623387088356645,
          -0.10243519783745056,
          -0.0241124239523981,
          0.06947059488421503,
          -0.16526727240954325,
          0.013523888118643426,
          0.07503915281345358,
          -0.04008332467030197,
          0.10171696685886834,
          -0.038805020342131145,
          0.013050892870124066,
          -0.11810914376403549,
          0.017969523005692416,
          -0.12192479480292007,
          0.025933314677114,
          -0.04974836082627553,
          -0.12235509825707344,
          -0.08863523431075382,
          -0.15134009552162875,
          -0.017220462472629705,
          0.008959762765910496,
          -0.009968166265977633,
          0.19388545866913848,
          0.011523270557425006,
          0.1834990875602813,
          -0.0997161156377873,
          -0.08581649888133994,
          0.05294678507136655,
          -0.03555581430457705,
          0.06765559407010192,
          -0.08797895839459971,
          0.2214900361139833,
          0.12002466307305423,
          -0.09503371017634339,
          -0.012642526467372909,
          -0.1347587315994238,
          0.07905395004300583,
          -0.00709091073515386,
          0.09011015635528637,
          0.01533823852296964,
          0.1630303379232583,
          -0.08697822692968823,
          0.014593443823391264,
          -0.10775395796642401,
          -0.11399791096605717,
          -0.007704150018316103,
          -0.17683610538151853,
          -0.17758410375263847,
          0.1974003368752283,
          0.017826007881388477,
          -0.004895398962737842,
          0.0772414228105743
        ],
        [
          -0.025311278004847646,
          0.044260068300468254,
          -0.028214741211334143,
          -0.05747766597638093,
          0.16785990218302804,
          -0.18196764915561714,
          0.0018730321224069723,
          -0.08191817461174049,
          0.09465045001090047,
          -0.0865848810656558,
          0.12174966376323325,
          0.17183696131732207,
          0.15462249070377104,
          0.02138500995891762,
          0.09445632296163048,
          -0.0460514815108068,
          0.04561941184762406,
          0.11191578292570026,
          -0.1433888801605667,
          -0.07699908047175713,
          0.005549865413875565,
          -0.09442423866045062,
          -0.19196487502168702,
          -0.15800701465192957,
          -0.08813623279307603,
          -0.027604447189923092,
          0.03458307912775939,
          0.17731008703332374,
          0.03728637398486847,
          -0.05657792837856794,
          0.08901044164173444,
          -0.09197751619809467,
          -0.06352861514841812,
          -0.02680256245555887,
          -0.11990088648571447,
          0.008379546982387662,
          0.01646576678937099,
          -0.07035034053665917,
          0.04941827879589615,
          0.0932072574921726,
          0.1424986236943728,
          -0.012206542863518945,
          0.03327363268309996,
          0.030136999811734403,
          -0.06724842451029596,
          0.025331161437365933,
          -0.15254555042697057,
          0.12297155572720903,
          -0.09546584012132227,
          -0.04069213597413913,
          0.10011922330831315,
          -0.01327973881706109,
          -0.0011258250126504384,
          -0.013105879052378276,
          -0.039619558610888485,
          0.026920009249238527,
          0.1293469402369145,
          -0.05037393004820515,
          0.11687161893499436,
          -0.10106425495180506,
          -0.03909117908336068,
          0.18546917392108875,
          0.001296371584535228,
          -0.12009115588910321,
          0.22984897754023995,
          -0.09815894313323215,
          0.03259192013276538,
          0.09135518006183747,
          -0.0898877092366177,
          0.14294769943105168,
          -0.06118126468093204,
          0.13744085220367297,
          -0.07136592065750205,
          0.2568812130678768,
          -0.03623343485337467,
          -0.14719305356387197,
          0.04463285618832783,
          0.04978991082105871,
          -0.08570727718620957,
          -0.049156882003376624,
          0.15289189054557706,
          -0.025991685676505623,
          0.05274249776942751,
          0.08535505449380058,
          0.1840923185824772,
          -0.028132625963558217,
          -0.043200261646919806,
          -0.05460137605408458,
          -0.06850544451865297,
          -0.06421024879590569,
          0.13211914695725338,
          0.1317955054389743,
          0.39404310492381805,
          -0.08550632991849731,
          0.036625614213073254,
          -0.03292421659574049,
          0.07595570215661536,
          -0.0982704888478947,
          0.2917887228044769,
          -0.05132771075881623
        ],
        [
          -0.058530675494309875,
          0.04309758753034174,
          -0.06746708590030798,
          0.0848280546859062,
          0.044817857991871435,
          0.013439957929661257,
          -0.0008877619779858495,
          0.09655530294744025,
          0.0819552308528293,
          -0.09757907438685828,
          0.1719192802350189,
          -0.07281881236510847,
          -0.012544386835419268,
          0.08995288742518849,
          0.1228500253217787,
          -0.06611522727559546,
          0.19826360605373972,
          -0.06083261916839618,
          0.2209828283309307,
          -0.016946315398582035,
          -0.11478062285524634,
          -0.15028383544768553,
          0.02118173810203667,
          0.02835288899124502,
          -0.04665739684099485,
          -0.12739135546914623,
          0.0366899224315347,
          0.08134620313342694,
          -0.0031830028280623412,
          -0.05493222499479504,
          0.006150661913273426,
          0.11368667278392802,
          -0.23987742405192372,
          -0.05660422606181773,
          -0.03954902709243882,
          0.03135837590553997,
          0.058782437884322955,
          -0.2778450555535698,
          -0.16039719351261117,
          -0.006089963407259406,
          -0.07219600064203675,
          -0.3174979210233359,
          0.006947142620901389,
          -0.02383745027616478,
          -0.017089859452060846,
          0.08083626981494434,
          0.040054472376917526,
          -0.006493220759422354,
          0.0496817631960005,
          -0.01201570407753695,
          -0.13711299138543517,
          -0.018108591496342287,
          0.00039577471010367844,
          0.05307616760821767,
          -0.03402210329453908,
          -0.09097650468840583,
          0.0640070032707934,
          -0.2389374642863824,
          -0.1256677439801171,
          -0.024572658826912095,
          0.008157525693352183,
          0.0796834311971849,
          0.12502103134590276,
          0.08798600074288769,
          0.06750558549041903,
          0.1650136607461669,
          0.02969381274487269,
          0.1165155524772382,
          0.009929349045010194,
          -0.21878333300293734,
          0.15640969794300918,
          0.0014716249470089616,
          -0.021546111791315804,
          -0.051785767391007875,
          -0.12623554606658463,
          -0.0032437417588593435,
          0.03608085062239453,
          -0.16680947049636632,
          -0.11475897379797337,
          -0.12836595407585447,
          -0.10777705419351924,
          0.019705630878064512,
          -0.07801139366680043,
          0.09795879355069673,
          0.1561186667581668,
          0.07394563369213379,
          0.04988180540301978,
          0.2100371168062451,
          -0.024532837641119378,
          -0.07160537475594271,
          -0.06524572864782971,
          -0.14647096437040324,
          -0.019809396407551194,
          -0.02511551317466946,
          -0.010011779672376153,
          -0.077184074299853,
          0.14661903981211497,
          -0.058543112642578506,
          -0.012442665149707346,
          -0.1109947012018364
        ],
        [
          -0.05921849981572814,
          -0.09349444376349292,
          0.06061512740216009,
          -0.05453127346439477,
          -0.10951179952852937,
          0.10894148640673777,
          -0.11597349944582043,
          0.13953206615269012,
          0.05461943936737283,
          0.013385152829423642,
          -0.023349296903773176,
          -0.08277706249267011,
          0.08183293969443979,
          -0.059616081092967774,
          0.08634596557450067,
          -0.17270055442438423,
          0.09372485960033214,
          -0.16094481859408377,
          0.06741285032586256,
          -0.050078775652539424,
          -0.02556990968051163,
          0.015065152032977732,
          -0.25435019684181737,
          -0.13613462026101236,
          0.16191605519274335,
          0.11578052326176104,
          -0.06319215626929267,
          0.025374217957786434,
          0.04269135635307565,
          -0.024108315030405513,
          0.0324008547327489,
          0.03745106992043731,
          -0.08119227013948925,
          -0.01313346838605368,
          -0.08994055791162124,
          0.044904050158428424,
          0.05360438553965587,
          0.04049559986461758,
          -0.13356676961857078,
          0.30292690123288857,
          0.1799987910787277,
          0.05261397331519123,
          0.08271513332708735,
          -0.017570517173114936,
          0.06085867899650748,
          0.04974901448240438,
          0.18931752300083274,
          -0.05177652542514269,
          0.19223911295616672,
          -0.09915164989286167,
          0.14304235751400926,
          0.2245006072678546,
          -0.13022627960020003,
          -0.025150141736281998,
          0.031071998195075078,
          -0.13465977918561953,
          -0.14431020375651077,
          -0.08335239997135513,
          -0.2077717259915434,
          0.06954462922258321,
          0.25197051929691033,
          -0.12144619874634982,
          -0.1340766364075176,
          0.09117921845909854,
          0.19158925083582062,
          -0.06404587486956907,
          -0.1172999583753144,
          0.14178660001159238,
          -0.016464725674109712,
          0.03187395904588556,
          -0.12138951670320894,
          0.17808990075085987,
          -0.2076293087744226,
          0.09694654399279731,
          0.020770558350646874,
          -0.07710317299748329,
          0.0699607535692118,
          0.009364348839455002,
          0.21203050184623265,
          0.12229809950598435,
          -0.06593444361690891,
          -0.013148184716066305,
          0.0447479676962769,
          0.15987697112782084,
          0.13863337026849928,
          0.09508731575193186,
          -0.14193735315318612,
          0.07737251998927146,
          0.01204467776418974,
          0.0014822133873244902,
          -0.14154686802388064,
          -0.012295191640893844,
          0.06897790408772472,
          0.022121861343547076,
          0.08515505603594178,
          0.11037560047604077,
          0.0077075052104177,
          0.1235987656499048,
          0.027647077086444916,
          -0.20178234741855577
        ],
        [
          0.08492650210292461,
          -0.08007889953363295,
          0.023282020855001768,
          0.031225498505245988,
          -0.14545380065558308,
          0.0621566134973524,
          0.007506303418028792,
          0.001520444600152472,
          -0.048978039136899694,
          0.19718245118541572,
          0.05565294232404399,
          0.19431645709083517,
          0.08313061610980467,
          0.025852095504043496,
          -0.09895625469451531,
          0.049624338105499585,
          0.06665531211027066,
          -0.0198917816035109,
          0.010575079460449244,
          0.01646162387086578,
          -0.15624292809577228,
          0.11274140456556749,
          -0.07883976439773276,
          -0.09938487374181693,
          0.04935650740019847,
          0.12392270911843545,
          0.16947004150670666,
          0.08083557894085336,
          -0.019473018559940096,
          0.2571743929489128,
          0.024221791153581963,
          -0.08795207125556123,
          -0.07772638283383118,
          -0.13021697068147692,
          0.03730525526656653,
          0.017160775667640973,
          0.1303244158536054,
          -0.03954596076340569,
          0.030631428579727137,
          0.14817767087645137,
