{
  "hidden_layers": [
    {
      "activation": "relu",
      "biases": [
        [
          0.000104410883031667,
          1.1416562408527319e-05,
          -1.678685428300108e-05,
          0.0003232467000910752,
          0.0003520501455345476,
          -0.00048747621298613815,
          6.19289176754072e-05,
          0.0004873334674859309,
          0.0001335942535705983,
          -0.00030402743835095244,
          0.0004350792801898571,
          0.000771874000160514,
          0.00018181124754510042,
          0.00023425527790032192,
          -0.00019887407307182152,
          0.0003366031641959774,
          9.016493048981371e-05,
          -2.8825746386935645e-05,
          0.00011272260797754932,
          0.0004570162201951009,
          0.000199560797091162,
          0.00011696380771889898,
          0.0001775702943880145,
          3.248100926842635e-05,
          -0.00018215770765715522,
          -0.00010865491462920729,
          0.0002985248193255872,
          -0.0003333345828925313,
          -0.000491074718521457,
          0.0008369093732363772,
          0.00010827870408680112,
          6.408673342902176e-05,
          -0.0002528123503034648,
          0.0006140294898014563,
          0.00023718733532155,
          -0.0003504911532671591,
          -0.00030217958541273865,
          0.00023706664741500317,
          -0.000268742769661116,
          -0.00015605685345003757,
          -0.00042110000336924286,
          -5.813863820913839e-05,
          0.00036459506198493796,
          9.041261494361773e-05,
          -1.7674098877463726e-06,
          3.2164354751105464e-05,
          -0.000209046743530761,
          7.536642117240763e-05,
          -0.00036102334653305787,
          0.00020759504512424183,
          0.0005536017484212128,
          0.00034743150500318525,
          -0.0008126972922110292,
          -0.0002970892941943393,
          0.00016570693736373804,
          0.0006465366360158609,
          0.000269237384184381,
          0.0001318172348547024,
          -0.00021413426013247849,
          0.0002700506922324787,
          -0.0002529704230082173,
          0.0006010692536629485,
          -0.0007094582086964156,
          -0.000233195894686738,
          0.00033511893526693955,
          0.0005082617145477893,
          -0.00010873537752551144,
          0.0006432176839802135,
          -6.866290303465797e-05,
          -0.00011769946290214962,
          -0.00046558672654726136,
          0.00013207852006471326,
          -0.0007450618690924254,
          0.00027649058069639473,
          -0.0008163065153131646,
          0.0006361545929288458,
          -0.00011957828577564584,
          -0.0005561041904225138,
          0.0001513033977703805,
          -0.00042073078910394117,
          0.0001775360332414999,
          0.00033954199876116953,
          -0.0001533226065439609,
          0.0012488508502434012,
          -0.0004288798753429855,
          0.0002762097530910017,
          0.00041322603837674426,
          0.0005132489938979244,
          -0.00013087140787483435,
          0.00020820663452920487,
          0.0004904585173668173,
          0.00044517749570117075,
          -0.0004443504024004499,
          -0.00011616504486409319,
          0.00010850193796241237,
          -0.00025810965638780486,
          0.0002849513402706593,
          7.201433504483429e-05,
          -0.00042975182859576305,
          0.0002637105945238088
        ]
      ],
      "weights": [
        [
          -0.14672828118567777,
          0.14592152071879988,
          0.041185560645352816,
          0.028472147257741765,
          -0.08892456287630372,
          0.18343988911684062,
          0.08508076752464246,
          0.14912465657249557,
          -0.22759600319636145,
          0.032181831353483126,
          0.10698449165495405,
          0.020573647199135212,
          -0.07582921184653008,
          -0.03272514837014294,
          0.006390760026280973,
          0.013433879789521354,
          -0.06401609925450062,
          -0.05120213779244845,
          0.01695961923359022,
          0.040508971453982606,
          -0.1324060713062523,
          0.015444046510014856,
          0.1572224748699128,
          0.04985802296886278,
          0.08289964971778196,
          -0.06406983632710743,
          0.014490028579814027,
          -0.25273586069174764,
          0.2688329732101598,
          -0.06629210772472373,
          -0.13380913502717365,
          -0.1076571290149817,
          -0.03523136503143353,
          -0.03272824311550403,
          -0.05786525475943877,
          0.0566203630069336,
          -0.04092004311507552,
          -0.029717748772372144,
          0.06427565235924391,
          0.15226969194728424,
          0.05444184718578121,
          0.12300590318490601,
          -0.13395163497657298,
          -0.04998041133780445,
          -0.1654446556587884,
          0.006237103210565316,
          0.09465328186172499,
          0.07205168634488267,
          -0.14716522096807036,
          -0.1639195528371501,
          -0.10449039572576087,
          0.26299768264817547,
          0.0814404561309464,
          -0.021037684332953,
          0.10399132604747624,
          0.03780109106517648,
          -0.03806087455482332,
          0.14032112343675263,
          -0.10864291670519291,
          -0.05440318912047937,
          -0.12223065828801004,
          -0.06244040559345511,
          -0.16070120508856495,
          -0.04336435040866374,
          0.10131621925282036,
          -0.04657832716480067,
          0.0818186487890356,
          0.16024090458503315,
          -0.14195124712057142,
          -0.10440336034803044,
          -0.03685473552269139,
          0.020748003176972143,
          0.07656365684882316,
          0.08849861018410093,
          -0.11276847347085964,
          0.0611054084747112,
          -0.042564417760392305,
          0.12031259896182665,
          0.1451038363034751,
          -0.061750629396086325,
          0.10188524738830498,
          0.0659416516944391,
          0.1872149276814309,
          -0.037011904280550144,
          -0.007460866150014557,
          0.016379327683565297,
          -0.09313185789237681,
          -0.032256389042611494,
          0.12135981817031843,
          -0.01208896108554406,
          0.0796395886587829,
          0.018820271358745384,
          0.07335701000912208,
          -0.03744652491560261,
          0.012768695965165614,
          0.15754844688194478,
          -0.11584141672650705,
          0.03764363740814249,
          -0.017439806776371424,
          -0.03440885014165339
        ],
        [
          0.008930940931097038,
          0.17356489072504472,
          0.06431416981314668,
          0.06229735336592105,
          0.15725217029167915,
          -0.12596334020520408,
          0.06662061514268532,
          -0.18594307985893985,
          -0.006454603304057359,
          0.07137015521908802,
          0.04146378640056423,
          -0.006221733146280332,
          0.047922219360523696,
          0.036552458443746494,
          -0.09234235827249819,
          0.14306591745996075,
          -0.18991420697229966,
          0.08648529783403838,
          0.05412975539027192,
          0.12540292786773863,
          0.03780438594133037,
          -0.005756300323607064,
          -0.05933660651913663,
          -0.018325008582041117,
          -0.03673657144778822,
          0.09719874558903736,
          0.035171811553038036,
          -0.06862122484256857,
          -0.14293255668067417,
          0.09125079537599914,
          -0.04093037696537359,
          0.0650807066756306,
          0.20719612288583378,
          -0.3711252953637769,
          0.008391404346854701,
          -0.002871475077135269,
          0.0057764630083319895,
          0.08584144053405884,
          -0.12497941837782518,
          0.06266027894632867,
          0.041124062229095336,
          0.2908202315424339,
          -0.07872396043547086,
          -0.04417298461725419,
          -0.04728963205741441,
          -0.15365786749494348,
          0.10198170250028249,
          0.05413040257537142,
          0.11241064546495466,
          0.03839659678969208,
          0.09394186774548513,
          0.21917803235940167,
          -0.11612835930722726,
          -0.11021018156487102,
          -0.011628168599979616,
          0.10419529531657688,
          0.007070001897609374,
          0.05180551464639023,
          -0.040174194194905394,
          -0.15504261278079837,
          0.002699210768373388,
          0.004262825594648743,
          -0.021269359433821015,
          0.0726703404770966,
          0.09333720953848414,
          0.07669353894756108,
          0.07040107907264358,
          0.13592143006190413,
          -0.015472991201946862,
          -0.05653436485913595,
          -0.027761553175361182,
          -0.08468723831517572,
          -0.006027923127680596,
          0.035484233176153394,
          -0.059834854771337855,
          0.009353489162027476,
          -0.0760333225907219,
          0.04729694036139698,
          -0.06753056121254825,
          0.03104575198553025,
          -0.011977685228221594,
          0.0030789044837807606,
          0.10396848778424556,
          -0.0112084300809498,
          -0.08376970640900763,
          -0.10821272179593011,
          0.02097915028777201,
          0.026713358549762006,
          0.04338997724840961,
          -0.21292983768787677,
          -0.20221857410675598,
          -0.027735113882355857,
          0.08278065317288219,
          -0.043154850129810914,
          0.10644068031371512,
          0.030252044166355713,
          -0.10846567414488745,
          -0.1016205637864385,
          0.110627924535253,
          0.08869631966588003
        ],
        [
          0.040086544822323926,
          -0.15891717631570793,
          -0.09775936718477919,
          0.017391472961225694,
          -0.06713586962414626,
          0.11991409250691379,
          0.06740494079564362,
          0.05992723433472094,
          -0.03955560306339659,
          0.14152934599230477,
          -0.008362469639758549,
          0.05502212384512054,
          -0.08775194892637395,
          -0.05110688852732921,
          0.09857998481479631,
          -0.01807449405269693,
          0.06642707133197766,
          0.0625295263113306,
          0.059823902688949764,
          0.13579050931423597,
          -0.10102738411127164,
          -0.08802718888214188,
          -0.07746955979992626,
          0.09560798884727731,
          0.05454367697790422,
          0.061118056562914094,
          0.1124027068976939,
          0.0948749700267044,
          0.06781829613128235,
          0.10448682496331346,
          0.08220143334275805,
          0.07403712879431733,
          0.03412193009308861,
          -0.1600243376371528,
          -0.1831582363800406,
          -0.03460235100167275,
          -0.039172073833890084,
          0.050585007666010096,
          -0.07221597781232829,
          0.20363241507027852,
          -0.06623944323540754,
          0.019323509089622888,
          0.027933083938883354,
          -0.1688820773132418,
          -0.020540122419150614,
          -0.09825591302024672,
          0.14714416852753617,
          -0.05271475825338184,
          -0.025664658533320256,
          0.05387689411834708,
          -0.07964096262880306,
          -0.03401425955647721,
          0.23951980233502268,
          0.03999524437479754,
          0.03015636889906368,
          -0.038404171807663735,
          0.14574004265315718,
          0.03214748538870978,
          -0.10761437343645806,
          0.05262411278764456,
          0.04067540209428576,
          -0.02724849734328278,
          -0.08846626400387753,
          -0.23452850023649768,
          0.12363123510087251,
          -0.019032262618924933,
          -0.05308812111552977,
          -0.14126415867727823,
          0.03402062917209805,
          0.11148192855904933,
          0.001105051406599622,
          0.0016483379439621263,
          -0.00837990912376807,
          0.052267304334198406,
          -0.07436556688461718,
          0.04788171976507444,
          -0.0036448550956947566,
          -0.03058079198869474,
          -0.0051804816087677626,
          -0.07525655320801761,
          -0.014500180545606462,
          0.0010970661147887124,
          -0.055726476341969325,
          0.2547395805659859,
          0.044677079047808356,
          -0.036330126850834636,
          -0.02230680414429911,
          -0.08981274466751672,
          -0.03680036518050333,
          0.08501044191271591,
          -0.022867929455964095,
          -0.007493571930388632,
          -0.08496020617805326,
          0.07464650577736516,
          -0.049407738636562885,
          -0.025923555569236468,
          0.06620590314563578,
          -0.06031254920799392,
          0.09798616460696345,
          -0.047708313361816156
        ],
        [
          0.026182206381147082,
          0.061908231543256205,
          0.09990373468040845,
          -0.0009488701060983156,
          0.1619183646790967,
          0.15343374418200084,
          0.0739998323877711,
          -0.08207118150946358,
          -0.14513440611269032,
          -0.1750965782268394,
          -0.008791925347902735,
          0.03135918370422489,
          -0.12756401312156818,
          0.03120332084604428,
          -0.06798857711020363,
          0.02874209077033135,
          0.010066461618897217,
          0.004527742784280721,
          0.014217287806933964,
          -0.10213296921526391,
          0.0018728195378001319,
          -0.03294694876544455,
          -0.04156288017499301,
          0.08669641520198045,
          0.08770370580384186,
          0.13070911796620552,
          0.012067159108119709,
          0.06043395639902119,
          0.032094220703050326,
          -0.04197408820301396,
          0.04626855362930882,
          0.18921834190442857,
          0.06892269581489531,
          -0.008347796865649345,
          0.019851303003996835,
          -0.01989785963731118,
          -0.08987722571691617,
          0.0762354051346676,
          -0.04071355569767038,
          -0.07335786839645597,
          0.01215966824551189,
          0.09611948406324777,
          -0.027820726013349846,
          0.09132586877583854,
          0.07061123980281574,
          0.001775425015216324,
          -0.07799405527994263,
          0.012958194114193237,
          -0.14335598167778987,
          -0.09726125053278768,
          -0.03808149673435119,
          0.03817997742666614,
          -0.020247894511647234,
          -0.04903688700606929,
          -0.11575053964994689,
          0.05495128078728704,
          -0.05277974540934649,
          -0.1002965655896913,
          -0.02212306040544131,
          -0.07001713234610908,
          -0.0047059654688924825,
          0.18447666842739854,
          0.08032607359105876,
          -0.07986586119912165,
          -0.11732186896358392,
          -0.0882800933922109,
          -0.030349800663275216,
          -0.02544692522889742,
          -0.11877043521280407,
          0.10750554161046463,
          -0.06906770877036542,
          -0.11090383561745182,
          -0.05265341371830185,
          0.04470297099638974,
          0.15534117172580206,
          0.1758264890208221,
          -0.09508316651408051,
          -0.11740537780505739,
          -0.013179874159053622,
          0.10302599153533822,
          0.06782618208446209,
          0.04607521038588307,
          -0.009424253735447622,
          -0.10374214292155769,
          -0.07228428643774437,
          0.013557460207884767,
          0.1280924405550105,
          0.17312420787002547,
          0.12279215033535433,
          0.026323476567483784,
          -0.16067227976576923,
          0.07579749093772825,
          0.01770082906674397,
          0.055034287310621016,
          0.08451839322866046,
          0.046029288243609294,
          -0.09335896746245537,
          0.0023631247807551032,
          0.03315431161599551,
          -0.12812527354407466
        ],
        [
          0.060692776871485714,
          0.08134457417905071,
          -0.005117289377999807,
          0.06887219780063396,
          -0.017781320999437984,
          -0.06030011204798768,
          0.18741716459355487,
          -0.0938302672946928,
          0.11422663190562886,
          0.04625095514974099,
          -0.12679716875264932,
          -0.05315969137613594,
          -0.026298154548202928,
          -0.013441282738166563,
          -0.12947386280266032,
          0.08277792234542208,
          0.049549305865864285,
          -0.0900672113828894,
          0.045216899129906625,
          0.1474227542027134,
          -0.1767596367654785,
          -0.12097040263536049,
          -0.1269699056467379,
          -0.12386159364742863,
          0.007952326619347999,
          0.09032873979643614,
          0.02645292107030883,
          0.17746684162717272,
          -0.12286349651053145,
          0.004308784092266984,
          -0.044548650647313455,
          -0.04575692540302225,
          -0.09322064517907433,
          -0.04167883591116568,
          -0.012829260669298867,
          0.08269075063509022,
          -0.1446985386320099,
          -0.05105297518492031,
          -0.011840406343873077,
          0.07236209207970126,
          0.020219410713648203,
          0.0791545531724284,
          -0.03692179251182208,
          0.01606220117525382,
          0.025463261755332575,
          0.11827650472698804,
          -0.01459373289745066,
          0.09670860021842444,
          -0.07178637544232637,
          0.009627851888723787,
          0.06705406256537175,
          -0.12379409267205177,
          -0.02534405557956067,
          -0.117001579097,
          -0.035164387901998106,
          -0.041525118349427785,
          -0.003663009629141321,
          -0.03908760896964103,
          0.1450092432479417,
          -0.09103810110489721,
          -0.21839234815446218,
          -0.07916305762342803,
          -0.01747686374295293,
          -0.030033553060233628,
          0.06459469665946484,
          0.17960895980672445,
          0.14955939258838027,
          -0.027991664762001652,
          -0.00506107786319706,
          0.22245331119563982,
          -0.13770595008909586,
          0.02789266431471243,
          -0.05858588646366236,
          0.04832215100317365,
          -0.05850611483734486,
          0.042340533071309173,
          -0.22488506037525025,
          -0.1159579464418125,
          -0.0841517737265065,
          0.12800010945930843,
          0.02558633250856309,
          -0.015614676126048653,
          0.15951367879534653,
          -0.2402899428542015,
          -0.03951397672819044,
          -0.05915556287305841,
          0.09982008278450752,
          0.04745277577820795,
          -0.15538617339424773,
          -0.026435080337055567,
          -0.04440313450599118,
          -0.19135682890842876,
          0.18459205019084615,
          -0.044827749604792334,
          0.2153335601972313,
          0.029070948353252097,
          -0.14790068492349367,
          0.0390339871882985,
          -0.13225057434734136,
          0.23579398483082736
        ],
        [
          0.03862773815695053,
          -0.04010587621425674,
          -0.03671180367964336,
          0.10937812351102094,
          -0.00599559530116356,
          0.10241845982330314,
          -0.035366755754568754,
          -0.0057073949838280175,
          -0.0058700687851382365,
          0.026157784886794325,
          0.03427834833460441,
          0.04945856813110052,
          -0.03121347516482251,
          0.1368099469268777,
          -0.015627869448089603,
          -0.005899303402867004,
          0.07287318431395536,
          0.012514507856274303,
          0.04604107477133907,
          -0.19354584414406517,
          0.0846937595176787,
          0.1327875929467587,
          -0.0751874752252426,
          -0.04505730082232878,
          0.03186211449258356,
          0.009032264790107998,
          0.15246669705023486,
          0.008132412922630667,
          0.2892729683203914,
          0.000358300899888707,
          0.016235613998107697,
          -0.00990752508930602,
          0.0685364807784387,
          0.08729739780449149,
          0.03198319372860666,
          -0.0380895071372591,
          0.15347173769433092,
          0.08777829849444378,
          0.016947829180715027,
          -0.030812828484874915,
          -0.16641205859716035,
          0.18137078530425596,
          0.06460771124353058,
          -0.004620851898419192,
          0.1868606656036459,
          -0.01441766901737591,
          -0.2217017528807982,
          -0.15096218252002147,
          0.12343283263724482,
          0.031184237029968837,
          -0.2925113603164672,
          -0.2563041954199334,
          -0.1032083924030692,
          0.012533975939655384,
          -0.012892057237305183,
          0.09834434386973188,
          0.031536400026940796,
          -0.03526033644901542,
          0.015072204474543223,
          -0.039094873599844905,
          0.0468022558995116,
          0.05979773425932779,
          -0.0462809913928368,
          -0.13814409759720567,
          0.08658782211757773,
          -0.3255742988720541,
          0.03812277418806829,
          -0.06710663578040872,
          -0.025928275267217894,
          -0.06213171790356545,
          0.008439267769503003,
          0.08469318498503867,
          -0.10515669571257645,
          -0.09275011617733497,
          0.05497318937070896,
          0.13804331381814994,
          0.06105312851814725,
          0.09541777597464163,
          0.0771539376519657,
          -0.018681011536832885,
          -0.04006577839418414,
          -0.04382830068795371,
          -0.035112761279634405,
          0.021047381550745765,
          0.173974287983103,
          0.011198437796212655,
          -0.10323665116850977,
          -0.0514015063165085,
          0.16592624381035842,
          -0.034110794718155195,
          0.04012031082211458,
          0.1812017566712898,
          0.14265641675195995,
          -0.21579848420263212,
          0.03494171876680749,
          -0.022808317595613446,
          0.14618356683790126,
          0.08305850575562142,
          0.030449849368543978,
          -0.17991189692387943
        ],
        [
          0.05910355948573365,
          0.04013698227329275,
          0.12012422094888228,
          0.07953699643591845,
          0.11785122686206527,
          -0.006492944465920905,
          -0.12908331984401536,
          0.036314807764554674,
          -0.21172711941267205,
          0.07985845373577632,
          -0.03164297041047368,
          -0.1691913423006335,
          0.037313495513315344,
          0.2516846751769066,
          0.02632309738660872,
          0.13869484762176998,
          -0.05140008154375243,
          0.012710663884853673,
          -0.030196186037355344,
          0.10622180308995473,
          0.1276661213023559,
          0.08753905153543695,
          -0.14563599940585445,
          -0.08468185313152028,
          0.07596863518299035,
          0.026312000760429517,
          -0.0735326016214328,
          -0.02912517898197081,
          0.23882630897489654,
          0.05996093288508789,
          -0.10303785101082358,
          -0.07484634679870775,
          0.060047147672591596,
          0.10113256215989054,
          -0.07851219641286826,
          0.08491846993598731,
          0.13230253616421014,
          -0.16277394594084535,
          -0.010359206078700433,
          0.0716640881046083,
          -0.007065467751418583,
          0.09986552616846359,
          0.07805149720174065,
          0.06339320632466629,
          -0.09969740185479137,
          0.022436461169342982,
          0.05925975974447819,
          0.1015655084599306,
          0.10105265959752308,
          0.10262272678839235,
          0.06068620391809657,
          -0.02484761784943316,
          -0.10760954178536301,
          -0.04737452534693037,
          -0.02386401887651965,
          -0.061635153825981,
          0.033031955340526956,
          -0.037192989906926446,
          -0.06559622512798488,
          -0.01073869041413531,
          -0.019438812582426118,
          0.05854446884325265,
          -0.015449322681078227,
          -0.006749344859008902,
          -0.1326545759062955,
          0.07277330727327716,
          -0.08545320683238763,
          0.15571784919300313,
          0.20212502888018533,
          0.08104980580793189,
          0.01472336516926055,
          -0.1847072224120152,
          0.1390377268775705,
          0.12923452662279084,
          0.2015041519602877,
          0.29154536907617834,
          -0.06338033516825808,
          -0.032730441297463234,
          0.24492705179192925,
          -0.07456117162312023,
          0.027771337183815237,
          -0.11801008724317218,
          -0.15067213285698086,
          -0.15396007306792572,
          -0.13891042760704922,
          -0.001444659283101711,
          0.058776381578341724,
          -0.04834456864135049,
          0.13305428422779658,
          -0.18381961968181057,
          0.12393270962983939,
          -0.08787425300039155,
          0.16838284116862026,
          0.010584930102888267,
          0.07165256614980192,
          0.07589931417517455,
          0.23501171942034732,
          -0.040848892479361874,
          0.025114984549637738,
          0.05117145392348438
        ],
        [
          -0.08043146644855088,
          -0.08820589318316913,
          -0.02200818141096283,
          -0.10224932984006842,
          0.10869495093396855,
          0.12228908754205856,
          -0.06189453895112661,
          0.10773824872697566,
          0.11783879844526612,
          0.22205275033553912,
          -0.04001407338115099,
          -0.01584248275951713,
          -0.17620408548110422,
          -0.06987055893270154,
          -0.04690817615303645,
          0.02510102654894841,
          -0.14779092587773912,
          0.24556818182095635,
          0.07073802511621288,
          -0.04461979374214509,
          -0.03942977766405604,
          0.15813292756201683,
          0.017432343498565425,
          -0.01023725824611529,
          -0.05587926745080622,
          -0.006446726552164379,
          0.22022319682981062,
          -0.004782180906454947,
          0.07407007148372712,
          -0.055252780418067075,
          0.06216268969274971,
          0.0911117429721739,
          -0.10530276258373565,
          0.062047682494725365,
          0.02208050010434909,
          -0.07016979629212297,
          0.03150292888051469,
          -0.1033250471827658,
          -0.11512845533839972,
          -0.05409624784783693,
          -0.05503169012414584,
          -0.1625992596958972,
          -0.17644211515797084,
          0.0717440430457773,
          0.13697242290736292,
          0.0990841285075429,
          -0.04479561594021275,
          0.1407754883939571,
          0.18601537297277998,
          -0.0404827058234721,
          0.015471312002340544,
          0.17046603290187728,
          0.052817257582236606,
          -0.018879270470211762,
          0.12763997961533094,
          -0.03314471963677168,
          0.07841516009601415,
          -0.08959415368896113,
          0.010872543884339392,
          -0.11988917114105456,
          -0.0025371315396309855,
          -0.20946472753054032,
          0.03891740132865153,
          0.1465293725620111,
          -0.003053471933214999,
          0.09223770971325466,
          -0.012616624204731796,
          0.005395249051328231,
          -0.1796826092454576,
          -0.022246805279110788,
          0.16780958221740294,
          -0.025150423589372257,
          0.014522063693615516,
          0.19461731861082152,
          -0.07124144336002756,
          -0.021675284862765,
          -0.10873097675625908,
          0.050233611463283985,
          0.030419072114173547,
          0.017543815099189727,
          -0.02264695497099356,
          0.06273303163804986,
          0.06086354072526718,
          0.03987305262716732,
          0.14923366248654774,
          0.035415090171831795,
          0.1462905746832753,
          0.0038973899735547353,
          0.007352164368260005,
          0.21060513473421166,
          -0.01120642995461635,
          0.20421687634846106,
          0.07652938673034097,
          -0.17584311497497426,
          -0.13470778661270386,
          0.19400964711103513,
          -0.11910898905648869,
          0.18370450993600196,
          0.06407789832640379,
          0.13697498462480015
        ],
        [
          -0.16185843377028697,
          0.0016306069198912365,
          0.030185106069335447,
          -0.03581632018767745,
          -0.011370259021224023,
          0.07386571511641332,
          0.003529575808418601,
          -0.10851694661703654,
          -0.21670042638185702,
          0.004797763844622482,
          -0.017423470336532274,
          -0.059111153670969266,
          0.13835061725384298,
          -0.16018949546414382,
          0.02067405829206559,
          0.05775155737578901,
          0.059296438884070324,
          0.02676967503800888,
          0.028268434055155178,
          0.04026599473394781,
          0.061679385845708735,
          -0.03227043102630012,
          0.06715064694436579,
          -0.14126351677648155,
          -0.022389272550693506,
          0.14622945299272672,
          0.026707138930451717,
          0.019428116133009817,
          0.08326938633569948,
          -0.08250956248741986,
          0.009416344778959406,
          -0.02214988854163026,
          -0.06650023070078392,
          0.030269967306331948,
          -0.015582655866522663,
          -0.028311250094278404,
          0.1256902904753702,
          0.1641373728408133,
          -0.05398126952177089,
          -0.0670498918928303,
          0.022079494959682144,
          0.13409035919192405,
          -0.08588520758004715,
          -0.02169321515128469,
          -0.010518478869746686,
          0.07668666226504625,
          -0.04961192644278667,
          -0.029744031038361405,
          0.03340386103140401,
          -0.07297757628931932,
          0.17840195369558087,
          0.1157794940733595,
          -0.09005596591747785,
          0.07195052383291434,
          -0.11172574464742252,
          -0.000815077606361142,
          0.00357201062463876,
          0.0072522617079751215,
          -0.036396839673643606,
          -0.009532053287293204,
          0.014414248434948472,
          -0.06057487553373243,
          -0.014873459935423607,
          0.19259652705833377,
          0.06594514062355025,
          -0.03044269194969946,
          -0.16720600106704328,
          -0.024932786557316386,
          -0.1535237097696336,
          0.13894408421684115,
          0.10121955248877722,
          0.025672469252793165,
          0.01256280071563309,
          -0.03753943831387372,
          -0.06897925054425127,
          -0.14385287871927321,
          -0.10118390609479903,
          -0.019632510390688206,
          -0.07786752354567317,
          -0.017849831572450566,
          0.0939944521793179,
          0.04915735855976061,
          0.11873632362113751,
          0.015058282679450011,
          0.09514377668094672,
          -0.03613200096658961,
          -0.08823935017196834,
          0.02037613887501988,
          0.014793969303183194,
          -0.007480410328200438,
          -0.04296530227846641,
          0.06839438087986874,
          -0.10667564158171197,
          0.01900842892186373,
          -0.04235187380707212,
          -0.09381587049165423,
          -0.00223266178637228,
          -0.0876143000879959,
          0.001246767730755056,
          0.03196716375430042
        ],
        [
          0.003867224595339994,
          -0.014309739713942693,
          0.01877356819780013,
          -0.06493162602339676,
          -0.09636665880890806,
          0.07148957003159626,
          0.11783280793848196,
          -0.008703024207279343,
          -0.035935389317881476,
          0.059547737167289706,
          -0.05698574694977706,
          -0.025678103192140825,
          -0.14634963587301944,
          0.0468162648408991,
          0.15416624267497167,
          0.24867723510529807,
          0.15663163920992107,
          0.019981882828710964,
          0.05610679241465698,
          -0.17843091203637196,
          0.10820483314793226,
          0.032551548243641946,
          -0.07070155074821158,
          -0.04231083400574733,
          0.03342428833483858,
          -0.016068673444335397,
          -0.21577807825983764,
          -0.0077691849385681236,
          -0.015982903857975735,
          -0.04334163255930149,
          -0.1261683488988169,
          -0.1320428317031549,
          0.19967486569693185,
          -0.038401282446108145,
          0.0010071055706707779,
          -0.11709455166602681,
          0.0040818556422347165,
          0.0010017404034130212,
          -0.08196965101965986,
          -0.1597790647337013,
          0.056124928424204905,
          0.15437050181934622,
          -0.018971193507890654,
          -0.006214645393960371,
          -0.0695266999741897,
          0.037547662422945216,
          -0.08345576708260535,
          0.027475110607118342,
          0.22122809510836886,
          -0.06184121893955007,
          -0.05229577662218625,
          0.03689367763370891,
          0.015451530633859522,
          0.09198170547479502,
          -0.048064425314666016,
          0.01591227795159697,
          0.006085669129058341,
          -0.21300093449617138,
          0.1573839049967806,
          0.04611286993763945,
          -0.031888650183243876,
          0.09864318683700321,
          -0.20125517539787546,
          0.01731246274985495,
          0.00763569982037469,
          0.18726830707282824,
          0.03911642858928275,
          -0.01724689960099087,
          0.1900739789313967,
          0.06788826012775488,
          0.13866289595503142,
          -0.08300251012912845,
          -0.13913905241704494,
          -0.07620642048729481,
          -0.05748928662648785,
          0.16017578718164557,
          -0.03680889184757953,
          0.012417888489531778,
          -0.017921593862730695,
          0.1559396516769663,
          -0.007012364947142054,
          0.09590550811387027,
          -0.0005062654190435499,
          0.018517797969425646,
          -0.01450457570249555,
          0.04155222874669163,
          -0.0900526911262708,
          0.14421298583976477,
          -0.22745299111644154,
          0.038796010096913726,
          0.032006477169422204,
          -0.01155385679508613,
          0.04864660720482242,
          -0.07329315803218314,
          0.12052470100452393,
          -0.04071724886891067,
          0.013541929653168267,
          -0.11711237328726318,
          -0.07223251286230165,
          -0.043973438054407184
        ],
        [
          0.23508048991478617,
          -0.13411062825025535,
          -0.04148355064277656,
          -0.21511419490637204,
          -0.08187593767801296,
          0.017412874072130425,
          0.017436969516796855,
          0.0274809704029302,
          0.13426908415441993,
          0.08836917545615737,
          -0.19267784173760058,
          0.025708215604254674,
          -0.08109743435158985,
          -0.0741140346068505,
          -0.06461773229938537,
          0.021431354235600015,
          0.0837508510882514,
          -0.10243904359093171,
          -0.1008117419611993,
          -0.08940356816561537,
          -0.08087714924257461,
          0.06625410761634273,
          -0.00484491836818852,
          -0.034113053273878646,
          -0.01954394943958537,
          -0.14939198134154205,
          0.047195709834836994,
          0.14994219825808322,
          -0.07922853432559587,
          0.054205703387161595,
          -0.05739012007064427,
          -0.0636313264789638,
          -0.09336247999063807,
          0.08339606965307664,
          -0.0678656942088081,
          -0.11679036375226494,
          -0.09196465896093675,
          0.04670995474711977,
          0.19297685399577114,
          0.17659276398369678,
          0.08212580389273645,
          0.08673276066252429,
          -0.17917385405728592,
          0.026629724419263753,
          -0.004268484592580465,
          0.03796084065867286,
          0.07410568825486631,
          -0.07666622391886524,
          -0.07871416428048404,
          0.00017991700779917028,
          -0.13409625300947392,
          0.19467363156877418,
          0.07655093382613805,
          -0.013517274097072934,
          -0.07846756714512663,
          0.02685108609526937,
          -0.1460229376845834,
          -0.12044937154982127,
          0.04198541960551164,
          -0.16968783008949354,
          0.05576630030194029,
          0.17534311442079434,
          0.0009320811349947507,
          0.03160822579965352,
          -0.045530212411644774,
          -0.08065397040366319,
          -0.03440225798692242,
          -0.12524420808941797,
          -0.025604232805357785,
          0.04396641337006095,
          -0.09417524622835471,
          0.1348562834872624,
          -0.13131731700181332,
          -0.12924089740605796,
          0.06416161161706095,
          -0.13868313445860142,
          -0.007022970673403565,
          -0.1536094144153867,
          0.10810175687521881,
          -0.01884938181117642,
          0.028241667676804232,
          -0.0681077483201371,
          -0.017567329155297393,
          0.15004351891821943,
          -0.007788196803261544,
          -0.14307794839329468,
          0.04545828304348045,
          0.05299554575418095,
          -0.0920443585173449,
          0.027435335054085436,
          -0.05077203329535435,
          0.19663291282889664,
          0.06483286829868,
          0.04784873580140182,
          0.04861641022369629,
          0.11182251315921125,
          -0.12370472729658866,
          0.011919399183201196,
          0.024449291963582656,
          -0.09300618522713047
        ],
        [
          0.0016070529606159974,
          -0.0243235435609987,
          -0.002888562473988769,
          -0.012745395054687868,
          -0.051645818907962444,
          0.10807705926281616,
          0.07942938898740018,
          0.028778043480805725,
          0.03326830043961881,
          -0.09231181093024973,
          -0.01384096421976462,
          -0.06327350714232657,
          -0.07353663489447133,
          -0.19876707868217602,
          -0.06561410409632824,
          -0.06145410499186817,
          -0.08177568274937236,
          -0.013163022501209798,
          0.12266123326538914,
          0.0206659453450587,
          -0.060821619560463065,
          0.054883182245079834,
          -0.21709843811696009,
          0.04565219151773098,
          0.07937270751035233,
          0.1294632406615526,
          -0.01261840771838706,
          -0.049206991399262365,
          -0.07811041064027119,
          0.04659239106571012,
          0.10642552270440385,
          -0.06721723591685641,
          -0.0840993989137802,
          -0.13220858503590505,
          -0.004585108577065871,
          -0.09799978022638046,
          -0.0399755792034088,
          0.06243173542596273,
          0.005095750830500105,
          -0.08831162081787704,
          0.07709169426270557,
          -0.05265451568285247,
          -0.045415670020587544,
          0.09450261354469226,
          0.050348003573919234,
          -0.17334035878111043,
          0.04426519595138465,
          0.05210487742296762,
          -0.01719477672987547,
          -0.0029500032961695287,
          -0.16121820623259578,
          -0.11608938617595073,
          0.13268967908407428,
          -0.0820576978385673,
          -0.0032322776655604544,
          -0.23527272781880085,
          0.004478672459639254,
          0.02120053148490579,
          -0.07044927081543662,
          0.034775476671587244,
          -0.062217686094404895,
          0.046017242813965395,
          -0.10546348017022396,
          -0.07917753905696528,
          0.012979958371478412,
          0.06456441465673954,
          -0.07081546330849146,
          0.08137599623559333,
          -0.015551589199141722,
          0.06882437122582985,
          0.033912365675439954,
          -0.1124275089007875,
          -0.05819048641201045,
          -0.023613793272430385,
          0.04364220476857699,
          -0.10612944656234051,
          0.20909229103734056,
          0.04889157742726425,
          0.1197617273337244,
          -0.03708544238716072,
          -0.09255853604646173,
          -0.12531832493425216,
          -0.068467047597812,
          -0.051434039300094846,
          -0.19441868851715693,
          -0.06126703423091948,
          0.1353150532842519,
          0.20977893457543803,
          0.1391556762972757,
          0.007332598752422345,
          0.005787579385829014,
          -0.1685785265505332,
          -0.11232018909075984,
          -0.06417883669468369,
          -0.1742417553732657,
          -0.11322562060593964,
          -0.10462023676460948,
          -0.07325616762618158,
          0.00810372666768231,
          -0.0888047368823158
        ],
        [
          -0.12169800860582655,
          -0.05711934702301547,
          0.07318305198803521,
          0.20755394986985942,
          -0.02257744293208839,
          -0.05370832837531499,
          -0.23078455090062613,
          0.0379729023862061,
          -0.03289204513280854,
          0.06834720750655272,
          -0.16847056696014676,
          0.04811940647488641,
          0.10098734468537103,
          0.08275939080914026,
          -0.002062569265893962,
          0.05161163667537744,
          -0.04699327906414827,
          0.050619857119770274,
          0.009225864109763109,
          0.011668847266758431,
          0.08858671851853667,
          0.11943593175951084,
          0.08994948368102709,
          0.005307094204422787,
          -0.048812880355415394,
          -0.12809618055581984,
          0.12040417594829715,
          -0.025811624901274664,
          -0.06870082375475663,
          -0.05743849741375854,
          -0.06843225428605193,
          0.08410638723102452,
          0.071296223486533,
          0.11608494758922468,
          -0.03691917131332737,
          -0.12640241409185782,
          -0.06703392366034283,
          -0.1076425162768478,
          -0.003410354021880569,
          -0.0026532416115839243,
          0.0003288211813836625,
          -0.03492218660808822,
          0.02905303083184359,
          0.0815094856201563,
          -0.05651292428870901,
          0.06428940583717589,
          0.02376955188561516,
          0.06384527641609226,
          -0.05360734346807708,
          -0.10027894465591347,
          -0.021906489253128016,
          0.10332714627688909,
          0.21345270403536834,
          -0.024453176546315,
          -0.05337414337370504,
          -0.13639446186825113,
          0.055766117062093626,
          -0.07566997700730044,
          -0.04872853113024015,
          -0.1298455323452034,
          -0.1973901011357058,
          0.07346748419403613,
          -0.03420117269832498,
          -0.057603388553349115,
          -0.10425878561700071,
          -0.016662153092095386,
          -0.021780408229336908,
          0.03306781061911667,
          0.12416217054002009,
          -0.03477996576972264,
          0.015708125287945178,
          -0.009648407367861603,
          0.002972113589333101,
          0.05858240859243893,
          -0.1003119649842351,
          0.016367014730124557,
          -0.27423698687126546,
          0.002211392260957204,
          0.08826855323374977,
          -0.08564238155059223,
          0.012632834168758239,
          0.035233211914212074,
          0.13702423923016346,
          -0.0836291092765606,
          0.04243139490759067,
          0.04979270253286532,
          -0.07989711314968881,
          -0.058401879967970645,
          0.07186804391387958,
          -0.07995074434786907,
          0.004646056834562915,
          -0.11600079075339062,
          -0.04740489008415923,
          0.10807499530904861,
          0.026348283721602396,
          -0.013254636199933311,
          -0.11131713371710714,
          0.00783236168915419,
          0.06184099425382264,
          0.08071301195068457
        ],
        [
          -0.00175847589491364,
          0.11457193952305367,
          -0.11096579887406226,
          -0.0603729096755645,
          0.052744219289774595,
          -0.024928469879642152,
          0.03349075828151984,
          0.05464799373970394,
          0.007505185689818291,
          0.09588360534141989,
          0.1298004984237822,
          0.059750753917643125,
          0.0414627897740062,
          0.1651291084788086,
          0.08173505807512256,
          0.0075327411099823105,
          -0.016580533358484858,
          -0.17729378692345257,
          0.06570983810289611,
          -0.08321830291614293,
          0.09113696857560219,
          -0.14425489458666202,
          -0.04962540952448714,
          -0.02892815238064397,
          0.022654108938819414,
          -0.0032964856767775546,
          -0.04932883898552885,
          -0.13842341290747487,
          0.05551518267013622,
          0.003762822937806986,
          0.016039023177507234,
          0.00024320618105940666,
          0.08657286823180936,
          -0.05593343545015871,
          0.06736359952258063,
          0.012569965621963742,
          0.04496374303570633,
          0.0627580179190098,
          0.032723980429381,
          -0.058849244260025205,
          -0.1825258444630751,
          -0.1626207886120301,
          -0.2807820304440836,
          0.12761322341240375,
          -0.07646189809560948,
          -0.0008238000015514493,
          -0.14112915728239964,
          -0.09116081236661881,
          -0.0914934966277158,
          -0.009978769276587925,
          0.011495779946532659,
          0.009377929536380416,
          0.040840188167606595,
          -0.10846458701057952,
          -0.11214408164502006,
          0.03413117890861028,
          -0.06876700252366527,
          0.0637567544779287,
          -0.019747292590313756,
          0.17206285507681623,
          0.0671758231392555,
          0.20366109266694896,
          0.05233506160915089,
          0.1256736882297258,
          0.07573355341499652,
          -0.14860495310383878,
          -0.07761052248057804,
          -0.17342881688641193,
          0.19138340221249994,
          0.1174627464788468,
          -0.1506975761741102,
          -0.11195529434972085,
          0.005663986265013712,
          0.08564518384594871,
          0.04031302412436134,
          0.00023729846781131924,
          0.026832691295608006,
          -0.07125383719846369,
          0.1730687603079019,
          -0.0484208522889435,
          -0.0737364898996034,
          0.031335317723863776,
          0.17636923860851678,
          -0.1279616791921766,
          -0.005506820947561458,
          0.00862849782694788,
          -0.027644953853972008,
          0.05272629650445254,
          -0.04684253363382105,
          0.010563860526557058,
          -0.0006880488783023447,
          -0.014495176292429935,
          0.009119376369317313,
          -0.05559717458347202,
          -0.06315494837065061,
          -0.061888458654639995,
          0.08997531822900139,
          -0.12180723382071905,
          -0.05082749523274367,
          -0.0136680747449597
        ],
        [
          0.19295797070953685,
          0.1515603831380197,
          0.010348288240082618,
          0.08698771383727609,
          0.0501696858303378,
          -0.059089291619124136,
          0.059252360101695156,
          -0.03496496452343841,
          -0.045347852337501035,
          0.10080030801046358,
          0.001555222669383934,
          0.017818900381851376,
          0.18987292297560893,
          -0.12940660926599842,
          -0.015502577754423593,
          0.13979484816751567,
          -0.017038112015660425,
          0.12379845889303438,
          0.08954166684956949,
          -0.1815282003090763,
          0.037637768349800226,
          -0.17093425958596853,
          0.03442429442788544,
          -0.08835921361303785,
          0.16126986130003398,
          0.13991661130607996,
          -0.09449914098094941,
          0.016252963172947273,
          0.08973856072110735,
          -0.026063615903920354,
          0.03609974893486522,
          -0.07345985870982868,
          -0.13216215913045126,
          0.1301287704920851,
          -0.08422967815920036,
          -0.0715631613047326,
          -0.06470821623204287,
          0.07367753069878664,
          -0.011702049042903761,
          0.04831488701015566,
          0.02091124325876933,
          0.03727136318464231,
          0.021996598362098354,
          0.11057941894040645,
          -0.007853415460625924,
          0.00495717445058653,
          0.049662060409173696,
          -0.012322295824799594,
          -0.03727568628925891,
          -0.020840822158345408,
          -0.0021469208438233754,
          0.10132797176427405,
          -0.07881841014996539,
          -0.09590941351299248,
          0.025795865936782375,
          0.017248728249037743,
          -0.10905806487154206,
          -0.14270309280934942,
          -0.013817888913091434,
          0.08070402748047774,
          -0.0019151356671079276,
          0.07185929801093342,
          0.08904020738097315,
          -0.1538967251433657,
          0.011277629545212942,
          0.020276368347495185,
          -0.10430085421466775,
          -0.2654346869306195,
          0.019985515572653732,
          0.023290896614686835,
          0.051565485893700864,
          0.04138259626818397,
          0.030188270768685157,
          -0.037099251042099574,
          0.011633540456123142,
          0.0930502606790993,
          -0.1175267222457053,
          -0.13397057965013473,
          0.07715800936407327,
          0.06302547568302205,
          0.10988535472295298,
          -0.1284290810278858,
          -0.02354365775847659,
          0.026166976034731046,
          0.00852330135222881,
          0.05232544527589194,
          0.009479832899380492,
          -0.07547860655930491,
          -0.17204128899543822,
          0.09429099565424223,
          -0.07576658464976037,
          0.16933729324570074,
          -0.04854527882226598,
          -0.08070089480824055,
          0.027568822436897598,
          -0.03462339127550903,
          0.08046337180938942,
          -0.019197011494586073,
          0.10775099019005059,
          0.08977303722398007
        ],
        [
          -0.018448025422964417,
          0.0024308172540782997,
          -0.012879366842572234,
          -0.06685032872668754,
          0.05312667998430909,
          -0.05607828093434096,
          0.04958443156318137,
          -0.14328696470416702,
          -0.1799809116473081,
          0.02543722518331106,
          -0.0646410192688935,
          0.16764171692334104,
          -0.0913765229345237,
          0.053693714876793926,
          0.06244740079348681,
          -0.11508038556187156,
          0.15127447863001459,
          -0.06694867248837527,
          -0.06630590698597798,
          0.008025210221452925,
          -0.07467523659738153,
          -0.0310803586615648,
          -0.010480723817541476,
          -0.010401021786770668,
          0.00017001248650093937,
          -0.008391548960827179,
          -0.05097972261973095,
          -0.0075894158949301755,
          -0.08166399790503309,
          0.04431380801178862,
          0.016586722738482673,
          0.030793525974394654,
          0.06931707380719203,
          -0.08431700507941872,
          -0.017893349136779556,
          0.09786642502407919,
          -0.02750742859635361,
          0.007149330201057749,
          -0.06330246033128498,
          -0.016176684341214213,
          -0.15374171379737941,
          -0.08690067087032541,
          -0.07822788469639076,
          -0.06499229479039939,
          -0.10105789216331854,
          -0.11914921108691844,
          -0.054446733248284265,
          0.1290711104221227,
          -0.007866204208963553,
          -0.0054026121707021115,
          -0.010921133581402103,
          0.0024635296322131147,
          -0.059016929884695646,
          0.11926627106064237,
          -0.04444041996749541,
          0.0912620031675467,
          0.11304996794654312,
          0.0221426369491194,
          -0.05197231198138077,
          0.0125437665518567,
          -0.15249129181327442,
          -0.101379682190235,
          -0.020376557110622393,
          -0.17067800613638456,
          0.12294589530140526,
          0.16501191204402074,
          -0.0275802309878661,
          0.07956300487682401,
          0.14359123849078595,
          0.10509972421561666,
          -0.1464518891736317,
          -0.09508440508560083,
          0.017892429529413344,
          -0.09435139102796808,
          -0.1329944947230741,
          0.10558986707670259,
          -0.026457866524372358,
          0.0341162352590888,
          -0.09042410315267717,
          0.2647823657010028,
          0.1676183457550373,
          0.10584570288686088,
          0.027231070971373627,
          0.09000685754831034,
          0.07129228135088471,
          0.0366769878872997,
          0.014133351286398,
          0.18092951075499117,
          -0.02997120573467817,
          -0.06532474655768435,
          -0.11474035320857802,
          -0.02597681214626623,
          0.0780450841992578,
          0.03882919623421416,
          0.1100289092961657,
          0.057236921691838985,
          -0.005327156845854345,
          0.1135666729056911,
          0.028398028794653248,
          -0.08350546137662614
        ],
        [
          -0.08345587809245969,
          0.12467221075504731,
          -0.05202861039994391,
          -0.09235707836665358,
          -0.007454993757226219,
          0.07967637912899764,
          -0.047832860231321404,
          -0.053286078015124964,
          0.027992480426989114,
          0.03604720087546721,
          0.007994012362459146,
          -0.15366535946588847,
          -0.1324269006322344,
          -0.22127827859592392,
          -0.14860561275907153,
          -0.09336453859405046,
          -0.0013670001144520708,
          -0.05756711833057823,
          0.01750819324926305,
          -0.11868034517890672,
          -0.08602046829161276,
          -0.09737787181732717,
          -0.06237590945426113,
          -0.005066482045710423,
          0.04429123434190869,
          0.05077515948025598,
          -0.1922505531772275,
          -0.13472217040630383,
          -0.13149431482263566,
          0.14679916658338724,
          -0.06565169151637665,
          0.1211280987128817,
          -0.10477893332931909,
          0.12091253175979753,
          0.13552304520564853,
          -0.0995933765191011,
          -0.09582883901923354,
          0.008981595974897665,
          0.15423457833812368,
          0.19895210225632323,
          -0.1291796239929042,
          -0.02471216373572698,
          0.15330419236867238,
          0.09412753509751312,
          -0.12617003385830547,
          0.0492499196187632,
          0.14813648556053977,
          -0.01921656738542157,
          0.05985514568885273,
          -0.0023167586820643663,
          -0.09339269325098008,
          0.06036108297767801,
          0.1011242374108889,
          0.005529489480513704,
          0.04156114346388164,
          -0.09017933074222524,
          0.1490657766870462,
          -0.23435949352563978,
          -0.06726485258009515,
          0.09983887533210722,
          -0.04791555505587986,
          0.13262205751826048,
          0.09341797654188819,
          0.041720236162438015,
          -0.047403023735837,
          -0.022482652828684713,
          -0.02084859555410832,
          -0.04756183861521195,
          0.0906854890870801,
          0.031877766049267404,
          0.19157125952599532,
          0.020653576184149557,
          -0.02730125686321603,
          0.024838563736316422,
          0.14009802148107267,
          0.016010141662871916,
          -0.13382942163885672,
          -0.006203897628529196,
          -0.10696552783964283,
          -0.02598185590620901,
          0.06483974420465867,
          -0.013910506021357058,
          -0.03468340696595082,
          -0.17302204436823637,
          0.11460682694383828,
          0.1188837829019307,
          0.20469152956147435,
          -0.08417593792729822,
          0.009790203432443221,
          0.22066330788418906,
          -0.013988047388823616,
          -0.08441609723381867,
          0.024806169367629246,
          0.13250236111099362,
          -0.014696173706810742,
          -0.12981152913449084,
          0.0023408300252169235,
          -0.002180762206359715,
          0.08803734552515195,
          -0.07290362428555021
        ],
        [
          -0.06903240044303859,
          -0.10231351421412264,
          0.04349231890345844,
          -0.018603689651290736,
          -0.012936136420616274,
          -0.022991570372686773,
          -0.011067892983260533,
          -0.014697146655580447,
          0.06111954239968248,
          -0.05652418841130899,
          0.08060831384663264,
          -0.10093586671498316,
          0.14552753423358336,
          -0.08173814683254381,
          0.011493476030436474,
          0.05511195715190299,
          0.1566163354564361,
          -0.006356028719735993,
          0.009135668078627828,
          -0.059593454885295,
          0.003305698245267247,
          0.007057077249222857,
          -0.1097112652923437,
          -0.16109206186864555,
          0.17087982463225623,
          -0.004366359817964248,
          -0.09516855109251536,
          -0.0063647247328819136,
          0.04269016021089302,
          0.01673369036298133,
          -0.08758246799989552,
          0.024308636647626464,
          -0.04009206273877371,
          0.06301064821764721,
          0.09301023464274231,
          0.0872687626364569,
          -0.0794822023589334,
          -0.1258192915301642,
          0.004626225986248629,
          -0.001202538708165207,
          -0.016548002022523392,
          0.01529812679936392,
          -0.11144835599300883,
          0.0402277815553252,
          -0.07743438532462366,
          -0.09288423780894824,
          0.01702234736388887,
          0.0005425082854911051,
          0.09099557067106341,
          -0.009696600912317848,
          0.15115920323480264,
          0.030479499791380937,
          -0.06446386263062609,
          0.027617066041879544,
          0.10586613490801147,
          -0.09506105026682363,
          0.007436354361988702,
          -0.005432756238628078,
          0.06751418878253149,
          0.08726920720033884,
          0.03659161968480466,
          -0.1390634311705849,
          0.001167064508055341,
          -0.07493308701902265,
          0.0875652365538132,
          0.016598160630049312,
          0.007761226793925777,
          -0.02960225263361075,
          -0.1933161710719236,
          0.07221216720887369,
          -0.14720650403165753,
          0.05002863713221818,
          -0.033479773274266655,
          0.11196254535581798,
          -0.02566524933044275,
          0.3601307452453074,
          0.11173979237735697,
          0.06618362527620639,
          0.0715311219528587,
          0.23875334264423795,
          -0.027887797414641417,
          0.14771414219814488,
          -0.036717704472490655,
          -0.011901806034245128,
          -0.031215827096701305,
          -0.057972338447656445,
          0.032159377065342644,
          0.1636534829108387,
          -0.18417153186734042,
          0.08664366839640004,
          -0.1552226392001522,
          0.06007825578085004,
          -0.06953462967055812,
          -0.005338602193302494,
          -0.18555057146234474,
          -0.10749703948958286,
          -0.07876169700397054,
          0.10850892854235186,
          -0.03549845022491623,
          -0.09038636661635725
        ],
        [
          -0.05914344638115219,
          -0.1393417416741097,
          0.054440352222223196,
          0.05465249976591785,
          0.07352339299189291,
          0.07279823296941557,
          -0.021139354478032946,
          -0.11465469138046064,
          0.13896915526717124,
          0.006238461325140815,
          0.09635462848276753,
          -0.006569298414448112,
          0.04582735435456233,
          -0.09211398848361366,
          -0.02584241349771888,
          -0.017599738410696935,
          0.185261798931421,
          -0.24815114342914987,
          0.1337793736922937,
          -0.10562125675258735,
          0.18481307761725776,
          0.15297417937446578,
          -0.015482102665621566,
          -0.03360940214575473,
          -0.11897371336776669,
          -0.04312392567503424,
          -0.0819186642629333,
          0.1474218926578218,
          -0.09982345956783815,
          0.035079145976714333,
          -0.0710513653126981,
          -0.03217557958399239,
          -0.04367975984955471,
          -0.006847787583414816,
          -0.19645837169097485,
          0.009640335719237069,
          -0.09818598332305285,
          0.10773242881005808,
          -0.08371463431748496,
          0.048501304647119235,
          -0.07671642549971323,
          0.06967579324625232,
          -0.048808722318451125,
          0.11158765055605503,
          0.1793567407083962,
          0.11920468472752846,
          -0.08455011542257426,
          -0.21790032651561844,
          -0.14626611472387546,
          0.0024536675284765126,
          -0.0019390342053522466,
          -0.25087141380182815,
          0.05266470247360379,
          -0.01968744724242232,
          -0.024847719071575174,
          0.10480912018344098,
          0.13332347156985638,
          -0.0017334778365633349,
          0.10848246503578973,
          0.062466317265635715,
          -0.14691553457636145,
          -0.10872672720837127,
          0.08109132361065309,
          -0.16764350662230962,
          0.014755637775081725,
          0.06249442626762761,
          -0.08536179538624357,
          -0.13806546974812037,
          -0.026396837338837652,
          -0.0584293741006016,
          -0.11502709263579154,
          -0.11612749151614891,
          0.009767181736931365,
          -0.0744148289616824,
          -0.04984269386473516,
          -0.024049071732357354,
          -0.0837632633709485,
          -0.01465705620156274,
          -0.01362650330086384,
          0.10052618183549752,
          -0.00585418543519669,
          -0.04231641251201376,
          -0.13025967754775938,
          0.06999792066320676,
          0.03699036525980975,
          -0.01994673210256263,
          0.20649914727461768,
          -0.13545643615424005,
          -0.009018353383419102,
          0.035468299685179186,
          0.2444408198951369,
          -0.20864157879678677,
          0.04425969437956896,
          0.03815349533473533,
          -0.06348397894909291,
          -0.07981813604477718,
          0.04597637708989262,
          -0.04557651276666218,
          0.1306272431731808,
          0.0444529853952623
        ],
        [
          -0.02933615563977741,
          -0.10864946126676531,
          0.13518039607386556,
          -0.021534904248133417,
          -0.18162185394268374,
          0.14302723679698412,
          -0.0912903153608276,
          0.07482258619410191,
          -0.005274793143685032,
          -0.031615172939649445,
          0.1963719995857066,
          0.0608397123600738,
          -0.03379875063365967,
          -0.02224371835737752,
          0.016682995309582713,
          -0.0858216381602944,
          -0.11125302475692085,
          0.1643520013435728,
          -0.09114537185060424,
          -0.06004383095020209,
          0.010407674938554963,
          -0.08262800059466155,
          0.055611168880426214,
          -0.06747635433570813,
          -0.14050056244086612,
          -0.2818820594508127,
          -0.029631186969889377,
          0.1586349970174117,
          0.09983533127153482,
          0.025704248074595037,
          -0.030798274680597065,
          0.09127859361595801,
          0.05516065839314521,
          -0.02381072944087852,
          0.04547000222596443,
          -0.026889540860469126,
          0.09553618332659382,
          -0.07385676419229456,
          0.04092072723603879,
          0.027168656556904,
          -0.16321787633633233,
          -6.443253771952453e-06,
          -0.04139223801288821,
          0.06715642476523724,
          0.03065017130164297,
          0.0317618722348577,
          0.111843367760588,
          -0.04040248484582345,
          -0.21475298651883465,
          0.06431317322073866,
          0.15242445189158346,
          -0.010043787904350985,
          -0.027240323083917044,
          0.02139976221421631,
          0.05127411198564028,
          -0.05911401798035113,
          -0.11456782644268838,
          -0.0035432666976817385,
          -0.1659165786236138,
          -0.04981829165784173,
          -0.10478336851331445,
          0.061088775590406694,
          -0.11589513189670148,
          -0.10853043884017156,
          -0.08094906707897324,
          0.08493987505934929,
          -0.13314589438408103,
          -0.03514262738249272,
          0.11665459087074095,
          0.07730178961315595,
          0.012766234258598191,
          0.047464457296095476,
          0.0733977273565402,
          0.05771098966732699,
          -0.07191492709410323,
          -0.10401670324504057,
          0.185446806322638,
          0.08183229120914132,
          0.11085746384587722,
          0.09102426228002003,
          0.0037886634279896726,
          0.04132953218660322,
          0.006370090054620297,
          0.07654862526970246,
          0.04975892883630171,
          0.06760074176888303,
          0.04092033683402284,
          0.11194893157658888,
          -0.13195627809775848,
          -0.08940038532358703,
          0.0016656867413187915,
          -0.06148735241019861,
          0.07319018134419895,
          -0.004826820563571255,
          -0.13458200627820507,
          0.05044381901963071,
          0.022927846808973168,
          -0.0656402035311848,
          -0.0072894489080333755,
          0.051593553430687375
        ],
        [
          0.08416039160041039,
          -0.08007728286689617,
          -0.02533526358498895,
          0.059204986383093176,
          0.027897012005206882,
          0.12314014633296576,
          0.06559835992641008,
          -0.059850244552178036,
          -0.08050154073198439,
          -0.10441460793155279,
          0.1621538955610924,
          0.1446195350583617,
          0.16349693061703857,
          -0.054526209002479474,
          -0.1761559709974725,
          -0.13967560902948128,
          0.06675871598918856,
          -0.021695637975777175,
          0.20232006548133244,
          -0.10477877920769504,
          0.20583581945704113,
          -0.0007442072301377873,
          0.03829622909365009,
          -0.14801454642534553,
          -0.2035390525988706,
          0.06469407093863827,
          -0.15533943891037794,
          -0.12004291720584712,
          0.009234759526239889,
          0.002376466235099944,
          -0.07583579665514904,
          -0.05361903504461723,
          -0.15178100063232766,
          -0.07096996797617873,
          -0.040225504188653054,
          -0.0497320760218654,
          0.05906346521920748,
          -0.01274571200303002,
          -0.13858840135833117,
          -0.1295032092976786,
          0.11113665194723299,
          -0.1406582183232396,
          0.045877932662604405,
          0.1924667263765506,
          -0.03743705816210589,
          0.029491672897854527,
          0.23749809119105078,
          -0.07291771495044146,
          -0.1765562682819793,
          0.23646557373061508,
          0.03940454005125917,
          -0.1428776446640392,
          0.06486903006755966,
          0.08219723650727115,
          0.08736382566086709,
          0.08716126567865341,
          0.17617325945701698,
          -0.20997546610294943,
          -0.04474143381137792,
          0.09134699125207067,
          -0.06818068591467846,
          -0.008381361257115614,
          -0.013431856297423496,
          0.1740831771927417,
          -0.061998771415978336,
          0.10184767802435198,
          0.006376755514126613,
          -0.07588259713610729,
          -0.08322910654931877,
          0.08408492211905895,
          -0.17639070613996324,
          0.03993169432709546,
          -0.0017491448850768013,
          -0.029609318225091545,
          -0.025016438230324445,
          -0.016150934244462952,
          0.025837452774574617,
          0.07272178486401792,
          0.023259067398365644,
          0.09594719247713007,
          -0.04890137171600389,
          0.11688390744802701,
          0.12920159699276795,
          0.06455515157612209,
          0.11712347207787027,
          0.06700697387072004,
          -0.04246150699175759,
          0.03394123926832089,
          -0.05616113993174795,
          -0.2597728836403474,
          0.12782605860096988,
          -0.0631953194159059,
          -0.05792107338323318,
          -0.0649496988916431,
          -0.12991076494721226,
          -0.007563015063182954,
          -0.29969021812563756,
          -0.12152581031967531,
          -0.0022183779132445487,
          0.04552489230248563
        ],
        [
          0.2396658413519383,
          0.0021410825317427704,
          0.0864317050320752,
          -0.07019383413163292,
          -0.04370839281218136,
          0.0011487497386377895,
          0.018209973873288373,
          0.16039001700771857,
          0.06473622785803287,
          0.2106642456350275,
          -0.015977826820092484,
          -0.03490223488108822,
          0.01512975310517913,
          0.034272780043469245,
          -0.060934959654113635,
          -0.03686195664965502,
          0.025862545442165846,
          0.0927079233865217,
          -0.11833163005443242,
          0.055541925620634425,
          -0.06170978753870888,
          -0.1562337614452305,
          0.020086079367580927,
          -0.11284728016396138,
          -0.14077733177100155,
          -0.28239042377107315,
          0.009935760190573989,
          0.15072127339997451,
          0.03472031494250492,
          0.06564870044451566,
          -0.1739546814221345,
          -0.0759436874653322,
          0.014777990995901194,
          0.06098203203226015,
          0.12259520730641399,
          -0.05802005434021266,
          -0.07910281541186903,
          -0.11954145361873106,
          0.18390597920087948,
          0.19877035476481322,
          0.10725126809543441,
          0.1502918779371921,
          0.058814422176170326,
          -0.0037906141736532757,
          -0.1571255971950814,
          -0.09512790980975928,
          0.07098686312600395,
          0.004876290618193868,
          -0.09547930908807273,
          0.044850359383276986,
          0.15775957717938965,
          0.11663182513481567,
          -0.1877049508283525,
          -0.11690281191790189,
          -0.15205377555290983,
          -0.004568211359988945,
          -0.020476629577534124,
          -0.06516937495198205,
          -0.10273082548129092,
          -0.03478283946395375,
          -0.15115236565351778,
          0.03504597570657739,
          0.08007272654627345,
          0.10509182752425145,
          0.09827556911585944,
          -0.14384364921543555,
          -0.007690621758593978,
          0.08188615317836634,
          -0.12580121642579656,
          0.22825386376903806,
          0.11539832341905228,
          -0.05270987934075669,
          0.1700137240064134,
          0.007542056031112424,
          -0.023200901363866256,
          -0.004247741109168755,
          -0.056958501713823564,
          -0.048466080919735734,
          -0.08897417724345957,
          -0.05609756966726636,
          -0.08209072319205787,
          -0.023160743336004097,
          0.008016309447161913,
          -0.055652732482657896,
          -0.03256035879059814,
          -0.025003021523484444,
          0.09894376652077463,
          0.07274032525036048,
          -0.17038262183886357,
          0.12650419979832198,
          0.007274602717966223,
          0.027962027517522504,
          -0.10316045407062824,
          0.1004444561550836,
          0.11541249887845513,
          0.05249372668279802,
          0.10855338332037258,
          -0.08490587261336435,
          -0.049190076737479986,
          0.043446558262947736
        ],
        [
          0.0005192722052165816,
          0.04114504767823271,
          -0.05526043885001202,
          -0.1302663008432466,
          0.03651113926061921,
          -0.017555398110441274,
          -0.02451500678519038,
          -0.027910108045987897,
          0.10892342113709436,
          0.045412212878477055,
          0.04521810827439679,
          0.16624470810120018,
          0.1105415623558562,
          0.017354973983737452,
          0.19251330229452668,
          -0.088003583305501,
          0.01741346938592493,
          -0.16145489965955145,
          0.19595748994486042,
          0.17197308858562235,
          0.008390560911418212,
          -0.10671278501951795,
          0.27940227393206973,
          0.06243532665195179,
          0.19973028453654473,
          0.007806398991516184,
          -0.08127337836625836,
          -0.001971414049477117,
          -0.11908729364635626,
          0.1592453296369719,
          -0.06474764922384058,
          -0.03241998048493533,
          0.0981510085726084,
          -0.08639442207040525,
          -0.0011409900085899444,
          0.0032628241377389558,
          0.09275749022834742,
          0.023016902030766728,
          -0.026723272780815578,
          -0.17445529837213278,
          0.04179646850184359,
          0.03064485206533477,
          0.15325670857470527,
          0.06734211729577827,
          0.15564128045364886,
          0.03977201903069059,
          0.06761291702371044,
          0.03425931694188615,
          -0.024494183737139047,
          -0.12170352536722066,
          0.07860107561437545,
          0.024296281305727765,
          -0.18721201043320973,
          0.01581832239370139,
          -0.11121430421544698,
          -0.08616851971461083,
          -0.06308481919447019,
          0.04087913889973461,
          -0.11991659538695822,
          -0.10613115321738459,
          -0.08109940207606985,
          0.0066747049711512385,
          0.23201424007230395,
          0.1901033812918432,
          0.023511922655967257,
          0.005664697355893968,
          0.023517154926300472,
          0.21177330157368768,
          0.0540912332761913,
          0.006051859799595101,
          0.03603595400942289,
          0.06335517792506305,
          0.0064104358773807504,
          -0.0654909871351737,
          0.08449179458509481,
          -0.0064130599410185014,
          0.043488205073437564,
          0.11663398271300457,
          -0.014466684850354083,
          -0.10789408024939429,
          0.04701725782271014,
          -0.02055873669246253,
          0.009905415566931933,
          0.01771680264299293,
          0.06768931194826154,
          -0.07115145720188189,
          -0.06562803454110609,
          0.20160594003837332,
          0.09743013810864247,
          -0.07814587259410144,
          0.11469445078605103,
          -0.012316588129020879,
          0.03519752288397345,
          0.03677158334248585,
          0.1369662278102882,
          0.03410693916460235,
          -0.10644265353264419,
          0.18707018302589803,
          -0.04153594744736324,
          -0.12749346997308325
        ],
        [
          0.04100647653178353,
          0.1579541969620146,
          -0.058340753425187686,
          -0.01603332035636334,
          -0.1996752548255068,
          -0.1123994559406475,
          -0.026009494449835184,
          -0.146081468631864,
          -0.05727422709428087,
          -0.028329518959194437,
          -0.2045284924585696,
          0.16710328718726083,
          0.022946486796649034,
          -0.08629195310715596,
          0.08554578806637782,
          0.12921361782904384,
          -0.10672696688638861,
          -0.0648568850489279,
          0.024699804829078905,
          -0.006735356826458326,
          0.05788962374876347,
          0.06845263741867064,
          -0.09399865933723094,
          -0.0521425100420278,
          0.0943167093144851,
          0.13517583863545965,
          0.0242856158211034,
          -0.004792462729867731,
          -0.1381942209426243,
          0.29347432178282745,
          -0.1153674158883934,
          -0.05193084949656542,
          -0.08893745476799801,
          -0.08757935079436634,
          0.043114820445891225,
          0.015904708133386177,
          -0.03784861437637422,
          -0.011518490592615043,
          -0.04658285346211862,
          -0.05298682737342924,
          0.020089280100594305,
          -0.055891450486768655,
          -0.003977177129367253,
          0.08008845003502973,
          -0.1789793666070093,
          0.06599924659583443,
          0.048850095477401656,
          -0.052645040500040076,
          0.038878872579317186,
          0.15374832527953902,
          -0.0882177820635039,
          -0.10471073895143741,
          0.14249554196168313,
          -0.07216192925497669,
          -0.11472432565508374,
          0.023100680205066802,
          0.07150594712715767,
          0.047797161694512674,
          -0.11530503905155047,
          0.08528631796671793,
          -0.12130228358059514,
          0.048759372419298556,
          -0.12208453873880605,
          0.1187848129880409,
          0.012122049135706804,
          0.04803743569907071,
          0.13627694725891962,
          -0.25483397778873124,
          0.17690212152959264,
          -0.12049047950895032,
          -0.032944528541221436,
          -0.18257282248340087,
          -0.04910608045709608,
          -0.01743999473587444,
          -0.01005612122174831,
          0.017822591937970984,
          0.046971336925568465,
          -0.00617130605535736,
          -0.03894599919332699,
          -0.023917142787868013,
          -0.026109961081309543,
          0.13752752393978143,
          0.03245612677160567,
          -0.11805297249340466,
          0.013446011584156214,
          -0.0945528118227408,
          -0.056154661577885734,
          0.023235324543187396,
          -0.12412803486722976,
          -0.010101133497595833,
          0.04722306473869039,
          -0.01389552950634998,
          -0.05067064731125152,
          -0.057726347236678785,
          0.17294811910199306,
          0.07314186505552718,
          -0.10808892211998601,
          0.01786239512120114,
          0.13035887323026937,
          -0.032017313880153775
        ],
        [
          -0.026977157090308953,
          0.020955448480799912,
          -0.05580965554388234,
          -0.0011388849309985167,
          0.20470931929841585,
          0.03076139577920254,
          0.028291921002556692,
          0.13907039892061335,
          0.05402284215499321,
          -0.03130152802679998,
          0.019578683465771057,
          0.26785333105410747,
          -0.0031390439367159646,
          0.025017939288807963,
          0.07506524321549722,
          -0.12967059660948993,
          -0.1508482633774849,
          0.02988352054961219,
          0.0003451714436226156,
          0.047936783739977555,
          -0.07429648882027973,
          0.025533968967187376,
          0.07131417049926506,
          0.011512006002099048,
          0.17848420791273148,
          -0.22047959991943478,
          0.2323649662148594,
          0.06472569226117926,
          0.032575805373436406,
          -0.25571843818581613,
          0.013492437492056782,
          -0.05197723147508326,
          0.020623137644685374,
          -0.02652567892191521,
          -0.09789623315471227,
          0.025416347935024387,
          0.14513996184378652,
          -0.061148594284855355,
          -0.10202264363219318,
          0.01745449191561042,
          -0.08007337826806457,
          -0.050719947363645226,
          0.12236135016189661,
          0.10867966499455797,
          0.024684860586882282,
          0.05902635419486164,
          0.09289241936349821,
          -0.08590997275618532,
          -0.04113095041226213,
          0.11254828303140885,
          -0.09232317330243688,
          -0.008782194662126397,
          0.07631014465274924,
          0.03353655653017556,
          -0.07705948951282274,
          -0.05751882062812434,
          0.09938965004380089,
          -0.006380910128774561,
          0.003996249572113102,
          0.027143222218832332,
          0.07978701884533437,
          0.09696024369055227,
          0.05022042232186472,
          0.10070307485591001,
          0.010518607925255604,
          0.06397244828435436,
          -0.21782097659478122,
          0.07793251232398267,
          0.06393508520172395,
          -0.02366557879249386,
          0.009180567387622178,
          0.08366577283685042,
          -0.08492477579608917,
          0.1515416714597741,
          -0.047613566836588,
          -0.006879900519412452,
          0.09841321378592807,
          -0.08318970891850481,
          0.07572839820426196,
          -0.009548393491480496,
          0.08446315662002972,
          0.03301398735661275,
          0.06590499075164556,
          0.013907042392275065,
          -0.04677385673425362,
          0.12459534406438857,
          0.17287305449080276,
          0.13013025009767903,
          0.10098493671926775,
          -0.05133918450149149,
          -0.04931493387205419,
          0.014279334473330673,
          0.014354582851948803,
          0.15606633242828888,
          -0.04628756985655786,
          -0.03336883717428043,
          0.004187023844322565,
          0.127111727022625,
          0.05248261644775383,
          0.0374029941957518
        ],
        [
          0.074205156097481,
          0.0025176540007239272,
          0.013098225239999909,
          -0.09289211120911377,
          0.03540960829234346,
          -0.07382850909807841,
          0.10075519157049195,
          -0.0032918936627174887,
          -0.026581038162529887,
          -0.15568838654977257,
          0.12201078160238797,
          -0.11845020630882908,
          -0.0322234823617649,
          -0.15769754085187107,
          -0.22439227651419077,
          -0.07490289503806294,
          -0.0531793828154277,
          -0.07256870945985171,
          0.14827825602345887,
          0.041037928511577136,
          -0.05818323968979312,
          0.13625682806686387,
          -0.1038327023887389,
          -0.13943505111033455,
          0.05188057033523901,
          -0.1546168000230591,
          0.15098576602950287,
          0.03997988449137277,
          -0.2381846724174988,
          -0.031642794637686836,
          0.04983727678220579,
          0.12054349053302123,
          -0.07673540683037638,
          0.05465123025723537,
          -0.10558521143810957,
          0.0973886068387418,
          0.08414119857519695,
          0.11136297388885769,
          0.19800088868596852,
          0.007712097554002358,
          0.029547994679606226,
          0.1949426782259387,
          -0.04058201730424246,
          0.11845382289026625,
          0.0658454828990978,
          -0.1564038080620875,
          0.10627598528118878,
          0.005363328424008901,
          0.023303340382919674,
          -0.002684494162820625,
          0.13200827173641064,
          -0.1664147725363665,
          -0.07696990724858904,
          0.18261460906452232,
          0.006295228351956821,
          -0.022553660429037767,
          0.10894941198228698,
          -0.011782733414547934,
          -0.005455732575163957,
          -0.037084490878547934,
          -0.05988905372847304,
          -0.07253409630474154,
          -0.12179684228154034,
          0.05186849529258364,
          -0.09882690401513673,
          0.015905637329298734,
          0.054319864741120466,
          0.07952236053094801,
          -0.015449941622359084,
          0.0433427959599189,
          -0.11496683429035577,
          -0.07482644827141442,
          0.02634750002912078,
          -0.034660472170654454,
          0.05079171763873824,
          -0.05846167682508357,
          -0.13390986223362708,
          0.17036427927141612,
          0.10112608164136667,
          0.014370095526652873,
          -0.1936924641670822,
          -0.12313422862962989,
          -0.12711270887003262,
          0.10889683764046287,
          -0.016146604931706103,
          -0.13120029732519448,
          0.027262568436594466,
          0.2034284631922288,
          0.005954010451046114,
          0.004041087498996453,
          0.10351179168876841,
          -0.061705471949551366,
          -0.21199582460178878,
          0.05588451392244329,
          -0.1394011753745697,
          0.12046292566013145,
          -0.08214400599659609,
          -0.10964594435582747,
          0.10659160636573904,
          0.01827745083226925
        ],
        [
          0.0947559483705205,
          0.04183211152285432,
          0.13782990702824235,
          0.08544813887723723,
          0.13352331544084534,
          0.0216082943559907,
          0.08111420880444178,
          0.11781884607249114,
          -0.13913798661503457,
          0.05462596773327808,
          0.03932537133597815,
          0.06564405714313716,
          -0.21266583409471826,
          0.19511453559040948,
          0.11062968744559215,
          0.030995447614434058,
          -0.22016008059687825,
          0.12392346237367072,
          0.07704333567006083,
          -0.005000712859545958,
          -0.17498667125262596,
          0.020155644951753274,
          -0.0006436203627742165,
          -0.115064679766823,
          0.028691929734834073,
          -0.15257970313334512,
          0.003702375824324845,
          -0.037350268389103436,
          0.045376402632410114,
          0.1169475239515738,
          -0.083214272822328,
          0.05929367696370835,
          0.024582860722770494,
          -0.06488558375933934,
          -0.1655122220251828,
          -2.011690744391149e-05,
          -0.0006072143716442341,
          0.06966387956469097,
          0.07705752542466715,
          0.07329406238656737,
          0.12224379083509469,
          0.06965250368561021,
          -0.14397803729208344,
          0.047461294830380515,
          0.10753701720114597,
          0.14320018717288996,
          -0.04604926168071297,
          -0.168344742109504,
          0.13351581826263814,
          -0.12455793824772701,
          0.12800171812130368,
          0.06871196176891167,
          -0.11828711178150889,
          0.030184072314165995,
          0.07539707315205381,
          -0.04279506438369113,
          0.04334826449022002,
          -0.16216877710199612,
          0.05343799146570654,
          0.23407843470630044,
          -0.1272650600521122,
          -0.06696078181004685,
          0.018801665938453088,
          0.04157011521549927,
          0.08538443127920592,
          0.03689143750061706,
          0.10701950345032095,
          0.13797734796477032,
          0.14114889402076677,
          0.07425653078734287,
          0.007535467575493317,
          -0.20666816913475064,
          -0.1143761822143665,
          -0.051756491465591165,
          0.14859613858226892,
          0.028007747741488682,
          -0.01727133364363122,
          0.004855803021708947,
          -0.09275194180551262,
          -0.11918810331687371,
          -0.005393262509242021,
          -0.08994650873147497,
          0.10350764667628626,
          0.011297870339779838,
          0.02767271547074761,
          -0.0793190347308622,
          -0.1224056228211214,
          -0.004996325743196212,
          0.03447870488439085,
          0.10050994817536466,
          -0.169603478681633,
          0.05594015744186377,
          -0.11052729413349985,
          -0.011338990752083345,
          0.08093449621629697,
          0.04690617306799481,
          -0.036961422025157974,
          0.0027153183985101272,
          0.06317308073259885,
          0.0751595418433186
        ],
        [
          0.027203611874993556,
          0.1441170898264175,
          -0.10581317106788773,
          0.11370320759764818,
          0.2089455860804789,
          -0.1478467366406039,
          -0.2720061379985958,
          0.08683742060691292,
          -0.060835302412720185,
          -0.014939314674919369,
          0.10234896638576481,
          -0.043213460659382585,
          -0.05332963409687809,
          -0.0119110983141561,
          0.20853852592416178,
          -0.000472118255201304,
          -0.06719212713694132,
          0.08690040884310919,
          -0.01719269178568569,
          -0.06029505167082344,
          -0.11433067218924187,
          -0.033419751192132044,
          0.05854213244598852,
          -0.04850921489577788,
          0.053576148324741196,
          0.15000108467679393,
          0.0875946842201873,
          0.04130910767671419,
          -0.0491747542472792,
          -0.04122097915762577,
          0.048350149602240884,
          0.03898433237834724,
          0.09737862670942861,
          -0.02343488038263685,
          0.11494002518452817,
          0.07700692851380012,
          0.07965053996383063,
          -0.13345832341681194,
          -0.00176231169666809,
          -0.0552940573929726,
          -0.13049805780975027,
          0.05207246853554164,
          0.11514933082212116,
          -0.027804200439715532,
          -0.058656750230117516,
          -0.1336144551834831,
          -0.05747568291145642,
          0.02050512574134866,
          -0.015022291233284586,
          0.1501338189881647,
          -0.09936939790555993,
          0.09473691922297894,
          -0.019212511632028,
          0.003985156238183596,
          0.06947714513271452,
          0.1007075816469138,
          0.03104347783312781,
          -0.07511524766865407,
          -0.03394386088858889,
          -0.023628776014204322,
          0.11711867273754464,
          0.0746269093549551,
          0.0038150743385599708,
          0.1916287016843682,
          0.20086177406636338,
          -0.013030662071863281,
          -0.03339366956234144,
          0.04681579049924528,
          -0.05308248959670919,
          -0.12315721456073916,
          0.2844491450309961,
          -0.05391637833209526,
          0.08872772919506898,
          -0.145770128495134,
          -0.02238127919989519,
          -0.014649732901753448,
          0.04533352856570504,
          0.06845486758507804,
          0.06899810134072723,
          0.021578560097631018,
          0.04443046833052241,
          -0.01315340386114852,
          0.07784782531474671,
          -0.1076565246827121,
          -0.03408537366696001,
          -0.029326649188085155,
          0.07130326543550747,
          -0.009746387591947667,
          0.1568194897935148,
          -0.06308581461937161,
          0.02642874383081738,
          0.041461013010092106,
          0.029739685241385108,
          -0.07467349342748864,
          0.03224678006587245,
          -0.13226796231932086,
          0.09231580579988673,
          -0.038620810259247566,
          -0.08527862762898836,
          0.0498507886930888
        ],
        [
          0.05191875098081257,
          -0.0665390499239171,
          -0.018939743307741272,
          -0.11717042267001797,
          -0.07510914977333333,
          0.04682114678855958,
          0.04518885170474143,
          -0.06308257634583829,
          0.06265946522437936,
          -0.0526584705200452,
          0.00904941702394588,
          -0.026376810629391324,
          0.001221823742384413,
          0.026478233588312194,
          0.08495805203799409,
          0.05646676472590483,
          0.11148996215378554,
          -0.048186400541946346,
          -0.03204574471160778,
          0.05267710146712717,
          -7.40420512758078e-05,
          0.020072949994125407,
          0.05308397977092092,
          0.08497018597546303,
          0.13707649141969483,
          -0.0632379025981009,
          0.017299396924118825,
          0.04100412444047776,
          -0.07008525771600976,
          0.004627821139627602,
          0.01767275802297447,
          -0.015562705083597295,
          -0.21074561645040496,
          -0.07717696375579527,
          0.03051779709167754,
          0.012861434893914524,
          -0.13244810694360387,
          0.2858443797271542,
          0.06211619117800502,
          0.10314823701560467,
          -0.1350918675560326,
          0.12219402105878077,
          -0.053748047110822844,
          0.07713233589799545,
          -0.0006674062656390155,
          0.14983258529793206,
          -0.197552957150548,
          0.11728402702855274,
          -0.1295044744945367,
          -0.08395995145213955,
          0.017631772810879503,
          -0.09622374911861738,
          -0.1339799271931647,
          0.0701594335230745,
          -0.015677776994192327,
          0.005484337111979191,
          -0.18705874859008823,
          -0.048764685383891074,
          0.11287257411068229,
          0.16727500848618893,
          -0.025718596079999847,
          -0.0054369758614438,
          0.0586118529138417,
          0.13885105366658526,
          -0.21041340739465217,
          0.029292913838487845,
          0.21553257369160628,
          -0.1058592306318821,
          -0.019292202075819602,
          -0.05087922182432808,
          0.14791511198842364,
          0.0352018453499593,
          0.02954711961649878,
          0.06617457811362464,
          0.1682417774218912,
          0.0024853050398071464,
          0.0010277666905486437,
          0.06472635876491525,
          0.04228591736849721,
          -0.036600942101940925,
          -0.0055400432209124694,
          0.06789093189495833,
          -0.1074309039886464,
          -0.08924169455758235,
          -0.13094656557131287,
          -0.016492569382965668,
          -0.08841874267349081,
          -0.017419984850383898,
          0.020733293435020957,
          -0.10282134921921482,
          0.15656328565842076,
          -0.06680500874573735,
          0.10952002191216458,
          -0.15176195313101976,
          -0.05731980052858452,
          -0.19797279198960877,
          0.041014997128383565,
          -0.2979546308535217,
          0.07167383319629943,
          -0.06471712862930822
        ],
        [
          0.024886112157249122,
          -0.07003403505082902,
          -0.0696480740259892,
          -0.0754379260756073,
          0.026059420416784825,
          -0.05268285290975148,
          -0.2636833990030844,
          0.0690202131186055,
          -0.05448020831566691,
          0.005447704232038751,
          0.024047373256939047,
          -0.09581767823249128,
          0.01596034832600062,
          0.03916636679577862,
          -0.0735424915449085,
          -0.10559560912526758,
          -0.14256581348654795,
          0.009183684618596812,
          -0.02138467988113679,
          0.039952073010696094,
          -0.13127641459389133,
          -0.015117261424227488,
          0.08204056964970378,
          0.11615629361032655,
          -0.02830300250251624,
          -0.15277385595970103,
          0.03898980058095941,
          0.07065969628871864,
          -0.10994158348351656,
          0.12354991942384402,
          -0.03888852495293806,
          -0.018434480586835,
          0.22324870113418177,
          0.23783562071287723,
          0.030089287079799697,
          0.035286330083093426,
          0.13433700878846308,
          -0.06542231910452707,
          0.019502553575555342,
          0.08665016854597506,
          0.020944358816632022,
          -0.012384232154903328,
          0.0656249969401503,
          0.04691842108972656,
          0.23677694548883443,
          0.15211193406365955,
          0.02569214783614062,
          -0.20151778934702838,
          -0.11057111930064122,
          0.0019062911060319528,
          0.07742993618438601,
          0.18488525137831333,
          -0.19881356735144132,
          0.03786253956223715,
          -0.1539613197494348,
          -0.009773947694523001,
          -0.112690783238035,
          0.013294939074952312,
          0.17034568661776636,
          0.026724437928914435,
          0.09050845418561086,
          -0.06373833193292687,
          0.03025936573832304,
          -0.07374753350972262,
          0.16268528804654153,
          0.04500303963485941,
          0.026044415790131132,
          0.07840730386305879,
          -0.15082286123758298,
          0.17041116254177546,
          0.16993651220501751,
          0.07701256715096172,
          0.17610367888558928,
          0.1015178427407881,
          -0.013052004368184248,
          0.21262939191430877,
          0.05953344463956593,
          -0.0657010561496244,
          -0.17003875609909366,
          -0.027773601555002428,
          0.10782958283578647,
          -0.011446745791680169,
          -0.02771955803543219,
          0.0023915885732294613,
          -0.0697662758727437,
          0.016492254320559053,
          -0.09692381898309932,
          0.00785126881680528,
          -0.04685269004741352,
          -0.09866094560313259,
          -0.11669000373745583,
          -0.003945949667172726,
          0.14116921370176475,
          -0.08390366227510129,
          -0.042227350510103824,
          0.05255609861237686,
          0.06279687569880466,
          0.05083039614602181,
          0.1380938498956717,
          0.03572429494029841
        ],
        [
          -0.015503035733035216,
          -0.053190377267793965,
          0.07441081757717456,
          0.09148067398704736,
          -0.004788526915737831,
          -0.051839182067870554,
          -0.09019327711575102,
          -0.09338858688479491,
          0.09338699516915923,
          0.033755493001788775,
          0.05488606710883505,
          -0.0029218565277285345,
          -0.1671719132042571,
          -0.01657943376137975,
          -0.10224254549030157,
          0.0004915710869707815,
          0.03897599377768899,
          -0.04288939769472003,
          -0.07780520926099227,
          0.04975981352790773,
          -0.08764868617498525,
          0.10984166543313827,
          0.08458437451850909,
          -0.02075215822139646,
          -0.15173134746678743,
          -0.04668746646520897,
          -0.016329338531222613,
          -0.07139802061078261,
          0.08944558360077239,
          0.024363057618579917,
